tree
version=v3
num_class=3
num_tree_per_iteration=3
label_index=0
max_feature_idx=8
objective=multiclass num_class:3
feature_names=Column_0 Column_1 Column_2 Column_3 Column_4 Column_5 Column_6 Column_7 Column_8
feature_infos=[100970:111530] [101040:111570] [100970:111505] [101010:111545] [1:2681401] [-122634.80256141238:92866954.4066533] [-100:0] [101010:111545] [101010:111535]
tree_sizes=7749 7744 7757 7882 7869 7897 7889 7870 7882 7876 7869 7890 7883 7868 7895 7880 7887 7885 7883 7893 7883 7877 7879 7901 7911 7881 7891 7902 7895 7906 7893 7885 7913 7877 7888 7894 7906 7894 7882 7899 7897 7902 7886 7888 7918 7896 7892 7944 7883 7905 7919 7900 7910 7921 7916 7885 7942 7908 7897 7923 7884 7907 7909 6752 7889 7951 7695 7916 7943 7073 7902 7938 6867 7908 7401 7394 7921 7618 6979 7901 7912 6767 7905 7904 6659 7910 7917 6764 7921 6362 6040 7914 6474 5834 7917 6588

Tree=0
num_leaves=75
num_cat=0
split_feature=5 4 4 6 1 4 4 3 6 6 0 6 3 4 5 0 2 5 7 4 5 1 6 6 6 4 4 6 6 6 6 4 4 7 4 5 6 8 4 5 8 8 8 3 5 5 8 6 6 8 5 6 6 6 6 4 5 5 5 4 5 7 4 6 5 5 4 2 0 5 2 1 6 4
split_gain=48.0247 8.68216 7.40504 5.94656 5.37102 4.02824 3.9747 3.73079 2.83145 2.78379 2.71807 2.70983 2.54087 3.487 3.32445 2.23909 3.88311 2.0812 2.06353 2.00932 3.18181 1.88424 1.80769 1.75659 2.55751 3.42663 1.64907 1.62004 1.5747 1.57432 3.97282 6.84623 3.75338 3.6057 3.50097 3.12939 3.50139 2.62095 2.37483 1.82681 1.80552 1.5702 1.92616 1.55082 4.09157 5.10541 1.94034 2.79158 3.38598 2.0311 4.19965 3.59896 2.47275 2.36288 2.40106 1.80476 4.75723 3.42702 1.52658 1.27863 1.12742 1.09406 1.02004 1.13755 0.850031 0.833319 0.792928 0.789585 0.783644 1.54216 0.712477 0.674169 0.659815 0.458452
threshold=84598480.866431385 177251.00000000003 607404.50000000012 -1.8350168350168348 109645.00000000001 26523.500000000004 437184.50000000006 101505.00000000001 -16.601049868766399 -66.819571865443422 110595.00000000001 -1.0000000180025095e-35 104165.00000000001 732175.50000000012 42356650.908297569 110965.00000000001 110775.00000000001 36591853.368955664 110895.00000000001 578762.50000000012 39169434.852144152 107465.00000000001 -86.159003831417621 -7.9772727272727257 -37.617924528301877 357216.00000000006 244286.00000000003 -64.08253205128203 -8.6785347483738438 -27.645576707726761 -72.684391080617488 519988.50000000006 484103.50000000006 103905.00000000001 289306.00000000006 72314662.447643667 -22.490310077519378 108485.00000000001 469887.00000000006 75642655.917057678 108205.00000000001 110685.00000000001 110445.00000000001 103185.00000000001 35251081.919707663 32876903.032581616 107995.00000000001 -48.808848553601813 -75.424216278400905 106095.00000000001 50490448.193018459 -85.620300751879682 -33.508771929824555 -57.052441229656417 -81.782106782106766 900317.50000000012 47762057.269360505 48429613.429280408 86584315.496089503 519988.50000000006 86861014.581400871 111172.50000000001 275974.50000000006 -24.828767123287665 87666746.794213593 49585241.040190257 789754.00000000012 111282.50000000001 101445.00000000001 1464755.6909999822 111252.50000000001 105185.00000000001 -22.173058013765974 108664.50000000001
decision_type=8 10 10 2 2 10 10 2 2 2 2 2 2 10 8 2 2 10 2 10 10 2 2 2 2 10 10 2 2 2 2 10 10 2 10 10 2 2 10 10 2 2 2 2 10 10 2 2 2 2 10 2 2 2 2 10 10 10 8 10 10 2 10 2 10 8 10 2 2 8 2 2 2 10
left_child=2 10 3 5 8 71 15 68 43 22 -2 -5 17 28 -15 16 23 -10 -18 29 -21 -16 -8 24 25 27 61 64 -14 30 31 34 38 -33 -9 37 -37 40 -32 -38 -31 42 -11 44 45 -4 49 48 -48 50 55 -52 53 54 -51 56 -45 -57 -29 -34 -25 -17 72 -64 -3 -22 -47 -63 69 -7 -28 -1 -26 -12
right_child=1 6 4 11 -6 7 9 19 12 41 73 -13 13 14 21 26 18 -19 -20 20 65 -23 -24 60 62 -27 70 58 -30 35 32 33 59 -35 -36 36 39 -39 -40 -41 -42 -43 -44 46 -46 66 47 -49 -50 52 51 -53 -54 -55 -56 57 -58 -59 -60 -61 -62 67 63 -65 -66 -67 -68 -69 -70 -71 -72 -73 -74 -75
leaf_value=-1.1285360235465114 -1.1515655766839441 -1.1621712919446037 -1.1055064704090789 -1.1046839863684563 -1.102349192962818 -1.1693860642307667 -1.1453075459400766 -1.1402252664268751 -1.1250815905758966 -1.1469225216159133 -1.1679041110044197 -1.1349912770774584 -1.0902368753940421 -1.1094923546059423 -1.1594165607080686 -1.1711406968507616 -1.1245232983786255 -1.1563634002542424 -1.1515655766839441 -1.1360649159183644 -1.1753460935106406 -1.1280126246115698 -1.1168227163473001 -1.1310034756683793 -1.1671927734557732 -1.1342934118308696 -1.1803525181057346 -1.1659590473948394 -1.1168227163473001 -1.1459363337668054 -1.135057425442064 -1.1481111437133291 -1.1544037258382049 -1.1133574544332037 -1.1531493242702562 -1.1563634002542424 -1.1052561491793242 -1.1707568709651377 -1.112852103737398 -1.1313534688771547 -1.1227786352621534 -1.1384806033104029 -1.1755546945354363 -1.1309025573811864 -1.0981041140434757 -1.1630803532526603 -1.1329387322345501 -1.1454592557762915 -1.0952432999891362 -1.1382252867567728 -1.1437145926598193 -1.1055064704090789 -1.1680152574963958 -1.1261653342529523 -1.1659590473948394 -1.1587623120393917 -1.1583029459528738 -1.1227786352621534 -1.1419699295433472 -1.1412457297591512 -1.1553203951302644 -1.1433407362777182 -1.1617802978336116 -1.1803525181057346 -1.1803525181057346 -1.1566456251701422 -1.1419699295433472 -1.1630803532526603 -1.1707568709651377 -1.1419699295433472 -1.1630803532526603 -1.1090705679184436 -1.1515655766839441 -1.1773223137455462
leaf_weight=8.684493303298952 13.895189285278319 24.750805914402008 8.684493303298952 15.197863280773163 13.460964620113371 9.1187179684638995 9.9871672987937945 85.976483702659607 10.85561662912369 13.460964620113375 16.066312611103058 14.329413950443268 9.9871672987937945 11.289841294288633 9.5529426336288505 10.85561662912369 14.32941395044327 10.421391963958738 13.895189285278319 16.934761941432953 9.9871672987937909 9.5529426336288434 12.592515289783476 9.1187179684638995 15.197863280773165 17.3689866065979 19.105885267257694 10.421391963958738 12.592515289783476 273.12731438875198 274.86421304941177 10.855616629123686 30.829951226711273 23.882356584072113 134.17542153596878 10.421391963958738 9.9871672987937945 10.421391963958738 12.592515289783476 20.408559262752533 8.6844933032989484 14.329413950443266 10.421391963958738 70.778620421886444 9.1187179684638959 8.684493303298952 14.763638615608214 14.329413950443266 9.9871672987937945 17.803211271762848 9.552942633628847 17.3689866065979 12.158290624618528 14.763638615608217 13.895189285278319 27.790378570556641 20.408559262752533 8.6844933032989484 18.237435936927799 46.027814507484436 9.9871672987937909 12.158290624618532 13.460964620113371 21.277008593082428 8.6844933032989484 14.763638615608217 9.1187179684638959 8.6844933032989484 10.421391963958738 11.724065959453585 8.6844933032989484 9.1187179684638959 12.158290624618528 66.002149105072021
leaf_count=20 32 57 20 35 31 21 23 198 25 31 37 33 23 26 22 25 33 24 32 39 23 22 29 21 35 40 44 24 29 629 633 25 71 55 309 24 23 24 29 47 20 33 24 163 21 20 34 33 23 41 22 40 28 34 32 64 47 20 42 106 23 28 31 49 20 34 21 20 24 27 20 21 28 152
internal_value=0 -0.304348 0.0851443 0.042827 0.205981 0.0302986 -0.222789 0.0221091 0.182926 0.00639795 -0.567108 0.485374 0.357036 0.47427 0.253143 -0.278883 -0.225599 0.0651468 0.116484 0.032808 -0.182088 -0.00107918 0.284777 -0.285695 -0.324109 -0.205291 -0.44807 -0.315119 0.771941 0.0422152 0.0720352 -0.0237271 0.139035 0.388853 -0.0888285 -0.0132259 0.246143 -0.0494528 0.191519 0.41764 -0.0312412 -0.158099 -0.315119 0.13802 0.333386 0.13449 0.110447 0.315286 0.518647 0.0729002 0.133005 0.491929 -0.0855984 0.0194655 -0.134438 0.0573136 0.132512 -0.130683 -0.140652 -0.0572632 -0.00107918 -0.292175 -0.476164 -0.589903 -0.464661 -0.410616 -0.172141 -0.158099 -0.318026 -0.206077 -0.625887 0.501894 -0.331734 -0.636358
internal_weight=0 405.132 1448.14 1072.53 375.604 1043.01 309.168 1025.2 362.143 60.7915 95.9637 29.5273 74.2524 52.9754 30.3957 248.377 188.888 21.277 28.2246 993.94 41.6856 19.1059 22.5797 160.663 141.557 79.4631 59.4888 62.0941 22.5797 952.255 619.204 254.89 364.314 34.738 220.152 333.05 40.8171 292.233 287.457 30.3957 281.812 38.2118 23.8824 287.891 35.6064 26.4877 252.285 39.0802 24.7508 213.204 154.584 26.9219 58.6203 46.462 31.6984 127.662 91.1872 36.4749 28.6588 76.8578 19.1059 31.6984 62.0941 34.738 33.4353 24.7508 17.8032 20.8428 31.2642 20.8428 27.7904 17.8032 27.3562 82.0685
internal_count=4268 933 3335 2470 865 2402 712 2361 834 140 221 68 171 122 70 572 435 49 65 2289 96 44 52 370 326 183 137 143 52 2193 1426 587 839 80 507 767 94 673 662 70 649 88 55 663 82 61 581 90 57 491 356 62 135 107 73 294 210 84 66 177 44 73 143 80 77 57 41 48 72 48 64 41 63 189
shrinkage=1


Tree=1
num_leaves=75
num_cat=0
split_feature=2 4 3 0 4 5 5 4 3 6 5 6 4 1 8 3 4 1 5 6 5 7 7 4 4 6 8 2 6 0 0 7 3 1 4 8 0 4 6 0 5 4 2 4 5 8 5 6 4 6 8 5 7 1 5 5 4 2 5 7 5 6 4 0 3 4 6 5 2 7 6 4 2 4
split_gain=210.778 28.4123 17.7897 11.8238 9.11793 7.83458 16.8294 7.13311 6.23555 5.85153 5.57791 4.54656 3.43887 5.70557 3.47122 3.43148 3.39285 3.10602 3.13262 3.04618 5.29623 3.21451 2.71092 2.70708 2.674 2.45039 2.42412 2.38595 2.37321 3.22821 2.29693 2.92809 2.22732 2.2224 2.63143 2.21163 2.15098 2.29497 2.05452 2.04599 2.02102 1.88545 1.83238 2.32459 1.75314 1.65063 1.76702 1.70953 2.0571 2.21369 1.6281 1.55492 1.54357 1.53546 1.4813 3.66185 2.57323 2.18929 1.4132 1.76586 2.36054 1.40513 1.3765 1.37476 1.33658 1.24295 1.18856 1.17437 1.05036 1.76391 1.21833 1.0158 0.998282 0.975568
threshold=110495.00000000001 177251.00000000003 110195.00000000001 110965.00000000001 338169.00000000006 43476377.749365754 70225470.125646964 486297.00000000006 101595.00000000001 -43.869027731373201 191539.40099675339 -96.756661991584835 294235.50000000006 110705.00000000001 110595.00000000001 103425.00000000001 43227.000000000007 110655.00000000001 88060790.756203786 -8.2650273224043698 3932214.8253666661 102555.00000000001 110465.00000000001 876405.50000000012 822823.50000000012 -42.715700141442703 111182.50000000001 110465.00000000001 -74.862637362637358 103615.00000000001 111342.50000000001 111282.50000000001 103365.00000000001 110385.00000000001 304417.50000000006 110425.00000000001 102415.00000000001 312491.50000000006 -74.322344322344307 102625.00000000001 55782078.765343957 244286.00000000003 110265.00000000001 411279.50000000006 49023376.021223985 108745.00000000001 74847244.436512277 -14.946808510638297 434781.50000000006 -65.83822167335596 111222.50000000001 87991018.189195767 105215.00000000001 103875.00000000001 35498289.951024599 28129150.638035361 458365.50000000006 106055.00000000001 1397945.7572124579 101505.00000000001 1975470.2912169485 -43.036099137931025 525675.00000000012 110425.00000000001 110785.00000000001 386210.50000000006 -5.5946791862284808 1326456.0094968707 107365.00000000001 108965.00000000001 -68.599439775910341 244286.00000000003 109415.00000000001 212438.00000000003
decision_type=2 10 2 2 10 10 10 10 2 2 8 2 10 2 2 2 10 2 8 2 10 2 2 10 10 2 2 2 2 2 2 2 2 2 10 2 2 10 2 2 10 10 2 10 10 2 10 2 10 2 2 10 2 2 10 10 10 2 10 2 10 2 10 2 2 10 2 10 2 2 2 10 2 10
left_child=2 -2 5 9 27 8 11 45 58 17 16 -7 73 14 -14 -13 25 -3 64 21 -21 36 35 24 41 -10 -5 33 29 32 31 50 -23 71 63 42 37 38 -12 -30 -25 -17 -6 -44 -43 -8 65 48 49 -48 -28 -15 -18 -31 55 56 -22 -56 -1 60 -60 -41 67 -35 -19 -47 -59 -38 -9 70 -70 -4 -71 -11
right_child=1 3 4 26 22 6 7 68 10 12 19 15 13 51 -16 23 52 18 -20 20 54 28 -24 40 -26 -27 30 -29 39 53 -32 -33 -34 34 -36 -37 62 -39 -40 61 -42 44 43 -45 -46 46 47 -49 -50 -51 -52 -53 -54 -55 57 -57 -58 66 59 -61 -62 -63 -64 -65 -66 -67 -68 -69 69 72 -72 -73 -74 -75
leaf_value=-1.1077709375116773 -1.0667084811155931 -1.1010349462633133 -1.1082852619666017 -1.0711365991433819 -1.1201147244298615 -1.0988216919959937 -1.1154546331564561 -1.1649466727507667 -1.1551806310173818 -1.1045392655199027 -1.1201147244298615 -1.1007275498372966 -1.1102568390438117 -1.1388447066633562 -1.0686744861426556 -1.1466413978323231 -1.1240578785842814 -1.1314935407040447 -1.1129794931028159 -1.1618544537717703 -1.1271496699099062 -1.1375367650075601 -1.155603111819641 -1.1492815472228726 -1.1027991344474086 -1.124550772853584 -1.1020888768667989 -1.1331271331394475 -1.167432574282901 -1.167432574282901 -1.0694170281587476 -1.1206524272691005 -1.1143408201323179 -1.0974214699085059 -1.0748623362767562 -1.1075341849848073 -1.1206524272691005 -1.1626679296796436 -1.1461578821009142 -1.1512646285854722 -1.1216919860916295 -1.1218204708899195 -1.1258502213817452 -1.1589620949882211 -1.130851625288622 -1.1624607712186323 -1.1125438684533751 -1.1129794931028159 -1.157036986057612 -1.1408392090554176 -1.0729683160617967 -1.1140685547264175 -1.0978273313831399 -1.1455241149856799 -1.1547268553408812 -1.1070804093083066 -1.1502798537111742 -1.1159744125677205 -1.1483739958698713 -1.1140685547264175 -1.1159744125677205 -1.1454562330509384 -1.1102568390438117 -1.1184248012208244 -1.155997427235083 -1.1376017558972891 -1.1414436037196785 -1.1456513418108669 -1.1327806135319378 -1.167432574282901 -1.1510966499288755 -1.1293154174568414 -1.1529373174617235 -1.0855091327462953
leaf_weight=10.056713402271269 84.388942897319794 13.554700672626494 12.680203855037691 24.923159301280975 12.680203855037687 13.117452263832091 9.6194649934768659 20.113426804542542 12.242955446243288 8.7449681758880597 12.680203855037687 10.493961811065672 10.493961811065676 12.242955446243288 9.6194649934768659 14.4291974902153 12.680203855037691 15.303694307804113 18.364433169364926 17.927184760570526 38.477859973907471 66.899006545543671 12.680203855037687 27.546649754047394 10.056713402271269 13.991949081420897 9.1822165846824699 8.7449681758880597 13.554700672626494 8.7449681758880597 9.1822165846824628 9.6194649934768659 12.242955446243284 21.425172030925751 9.1822165846824628 9.1822165846824628 9.619464993476873 10.493961811065672 18.801681578159336 170.0896310210228 8.7449681758880597 77.830216765403748 9.6194649934768695 11.805707037448881 173.58761829137802 10.056713402271273 10.931210219860072 9.1822165846824628 9.6194649934768659 18.801681578159339 10.056713402271269 13.117452263832091 10.056713402271269 93.571159482002258 15.740942716598509 15.740942716598509 17.489936351776123 8.7449681758880597 15.740942716598513 13.117452263832091 8.7449681758880597 268.47052299976349 10.493961811065672 12.242955446243284 8.7449681758880597 10.056713402271269 9.6194649934768695 9.1822165846824628 14.4291974902153 19.238929986953735 24.485910892486572 10.493961811065672 31.044637024402618 29.295643389225006
leaf_count=23 193 31 29 57 29 30 22 46 28 20 29 24 24 28 22 33 29 35 42 41 88 153 29 63 23 32 21 20 31 20 21 22 28 49 21 21 22 24 43 389 20 178 22 27 397 23 25 21 22 43 23 30 23 214 36 36 40 20 36 30 20 614 24 28 20 23 22 21 33 44 56 24 71 67
internal_value=0 0.788602 -0.143223 0.585401 0.210059 -0.175107 -0.0773288 -0.317254 -0.23042 0.42303 -0.249551 0.0566918 0.590703 0.405106 0.802851 0.0332317 0.0783879 0.17283 0.0396533 -0.268934 -0.124224 -0.294339 -0.0951812 0.0143255 0.0480979 -0.166651 0.945099 0.438543 -0.316989 -0.220382 0.786278 0.64767 -0.0687256 0.503555 0.638477 0.0239349 -0.0929889 -0.238121 -0.103122 -0.355762 -0.242426 0.0289503 -0.0933487 -0.271668 0.0491253 -0.0867965 -0.141159 -0.0378767 -0.128534 0.00151301 0.872908 0.0896541 0.361125 -0.337689 -0.0390687 0.0425286 -0.0773138 -0.210632 0.121851 0.0327993 -0.125811 -0.343936 0.114961 0.509062 -0.197838 -0.390382 0.0239349 -0.0469808 -0.482261 -0.435713 -0.275863 0.254076 -0.559423 0.812566
internal_weight=0 286.835 1579.34 202.446 130.737 1448.6 523.386 187.58 925.218 139.482 877.558 335.807 83.5144 45.4738 20.1134 322.689 48.9718 55.9678 42.4131 828.586 123.741 704.844 55.9678 312.195 275.904 26.2349 62.9638 74.7695 633.573 181.458 38.0406 28.8584 79.142 66.0245 42.8503 43.2876 71.2715 41.9758 31.4819 452.115 36.2916 265.847 34.1054 21.4252 251.418 78.2675 68.648 48.5346 39.3524 29.7329 19.2389 25.3604 22.7369 102.316 105.814 71.7087 55.9678 34.1054 47.6601 37.6034 24.4859 438.56 29.2956 33.6681 24.0487 20.1134 18.3644 18.8017 109.312 89.1987 38.9151 23.1742 50.2836 38.0406
internal_count=4268 656 3612 463 299 3313 1197 429 2116 319 2007 768 191 104 46 738 112 128 97 1895 283 1612 128 714 631 60 144 171 1449 415 87 66 181 151 98 99 163 96 72 1034 83 608 78 49 575 179 157 111 90 68 44 58 52 234 242 164 128 78 109 86 56 1003 67 77 55 46 42 43 250 204 89 53 115 87
shrinkage=1


Tree=2
num_leaves=75
num_cat=0
split_feature=3 5 4 3 4 4 6 6 5 4 4 2 0 2 5 4 6 8 8 5 6 6 3 0 3 5 5 4 3 4 6 3 5 5 5 5 6 4 4 5 6 6 6 4 8 4 4 8 1 1 6 6 5 6 6 6 0 4 3 1 4 6 4 2 2 4 4 6 8 8 7 0 6 6
split_gain=63.9878 11.0359 8.8668 7.09326 6.73621 5.53633 5.65773 4.68076 5.07507 3.98748 3.91513 4.69405 6.01388 3.38513 4.46702 3.74749 3.30693 3.28797 3.13407 2.91665 3.8533 2.54469 2.78039 3.18342 2.62483 2.51055 2.4022 3.03797 2.3019 2.17605 2.15245 2.11183 2.56899 2.54114 2.09571 1.74773 2.31596 2.12564 3.08271 1.72225 1.7745 3.04014 1.92756 3.27099 1.66637 2.44427 1.65689 1.78579 1.95676 1.62271 1.62856 2.03983 1.56911 1.55563 1.52605 5.19852 3.82478 1.72003 1.54436 1.50325 1.44945 1.43595 1.43423 2.05406 1.39447 1.33965 3.3073 1.5114 1.28262 2.47639 1.38266 1.20299 2.56728 1.47318
threshold=110575.00000000001 45259044.399359487 250915.50000000003 106945.00000000001 187102.00000000003 242047.00000000003 -14.201680672268905 -11.0673665791776 3592695.3249766855 554462.50000000012 600727.50000000012 107955.00000000001 106820.00000000001 103355.00000000001 34839503.090086676 900317.50000000012 -2.2739018087855292 107925.00000000001 108115.00000000001 35681367.16202914 -6.396617566830332 -96.40705679862306 105875.00000000001 105925.00000000001 104955.00000000001 37804991.121502027 87666746.794213593 376026.50000000006 110245.00000000001 402814.00000000006 -81.782106782106766 106195.00000000001 7741550.9953951342 33356396.432148825 33535070.100172106 35681367.16202914 -57.052441229656417 725057.00000000012 672138.50000000012 3706711.0931941499 -52.570711075865709 -44.36507936507936 -82.807881773399004 112698.00000000001 101535.00000000001 132341.50000000003 497694.50000000006 110765.00000000001 110725.00000000001 103805.00000000001 -5.5946791862284808 -79.289318755256502 41247511.837232746 -24.35728411338167 -46.966911764705877 -30.455486542443058 106465.00000000001 532947.00000000012 106005.00000000001 103405.00000000001 434781.50000000006 -68.599439775910341 286673.50000000006 110495.00000000001 102595.00000000001 607404.50000000012 458365.50000000006 -43.557312252964415 102895.00000000001 104555.00000000001 102525.00000000001 105215.00000000001 -19.326542161856249 -18.660714285714281
decision_type=2 10 10 2 8 10 2 2 10 10 10 2 2 2 10 10 2 2 2 10 2 2 2 2 2 10 10 10 2 10 2 2 10 10 10 10 2 10 10 10 2 2 2 10 2 10 10 2 2 2 2 2 8 2 2 2 2 10 2 2 10 2 10 2 2 10 10 2 2 2 2 2 2 2
left_child=1 4 30 49 39 28 18 10 -9 -8 11 12 21 14 64 35 19 52 -7 31 -21 -6 24 -24 -23 -17 27 -4 -5 -13 -2 32 -10 -34 -18 37 -37 38 -15 40 42 -42 43 -1 -43 71 47 48 -28 -3 51 -51 -14 -38 56 -56 58 60 61 -41 -57 -53 -20 65 -12 66 -64 -67 70 -70 -44 72 -46 -73
right_child=2 3 26 5 7 6 9 8 16 -11 13 29 17 15 -16 25 34 -19 62 20 -22 22 23 -25 -26 -27 46 -29 -30 -31 -32 -33 33 -35 -36 36 53 -39 -40 59 41 44 68 -45 45 -47 -48 -49 -50 50 -52 54 -54 -55 55 57 -58 -59 -60 -61 -62 -63 63 -65 -66 67 -68 -69 69 -71 -72 73 -74 -75
leaf_value=-1.0353673478127614 -1.0322350655542085 -1.0481232484132035 -1.0388873840646911 -1.0213642035980539 -1.0328745280222176 -1.0074974348035892 -1.0422448691375983 -0.98875161772959042 -1.0417882472732534 -1.0179904878185577 -1.0319056454949311 -1.0539767894665175 -0.96868233411822824 -1.0190756010809687 -1.0500237487551887 -0.98958783788006388 -1.0316311287788666 -1.0104933416418995 -1.0082285787343672 -1.0286114449021571 -0.99516263888321999 -1.0124579552484334 -1.0459418045424034 -1.0166082014922364 -1.000901404621763 -1.0162148479346125 -1.0431059275103629 -1.0132110571309381 -1.0435785736823697 -1.0203759434202218 -1.0571544260383166 -1.0442811558299474 -1.0096305748199825 -1.0366639352400493 -1.0601211897026048 -1.0467295481624146 -1.0050579106638222 -1.0278404617846992 -0.98331618675151322 -1.0032461003377964 -1.0017265174837104 -1.0079050411761483 -1.0381472887233452 -1.007632588495543 -1.0328745280222176 -1.0539767894665175 -1.058259250237124 -1.0455216746117306 -1.0104933416418995 -1.0381706895670781 -1.0483766484588015 -1.0117573953577315 -0.99362476274441835 -1.0337880458336592 -1.051259073977479 -1.0213642035980539 -1.0506682662624705 -1.0150996390809479 -1.0027284402446461 -1.0255917610254475 -1.0467295481624146 -1.0291776356290401 -1.0236628880645535 -1.0441412476966634 -1.0117573953577315 -1.0344731841922403 -1.0087678079980653 -1.016813610221059 -1.0168879663219903 -1.0474542722928248 -1.0599063505335109 -1.0223094959420673 -1.0027284402446464 -1.0493178486281656
leaf_weight=27.136763393878937 9.1989028453826887 17.937860548496246 30.816324532032013 16.098079979419708 15.638134837150572 58.413033068180084 46.454459369182587 9.1989028453826887 15.178189694881437 26.676818251609802 15.178189694881437 9.1989028453826922 11.958573698997496 17.477915406227115 20.237586259841919 17.937860548496246 16.558025121688846 16.558025121688843 22.077366828918457 16.558025121688843 17.937860548496246 229.05268085002899 10.578738272190092 73.591222763061523 62.552539348602295 17.477915406227112 9.1989028453826922 18.397805690765381 42.314953088760376 10.118793129920958 149.48217123746872 17.017970263957977 28.976543962955475 12.41851884126663 10.578738272190092 13.798354268074034 9.1989028453826887 21.617421686649323 9.1989028453826887 13.798354268074037 14.258299410343168 9.6588479876518232 26.216873109340668 17.477915406227112 15.638134837150568 9.1989028453826887 15.178189694881437 41.395062804222107 9.1989028453826887 74.971058189868927 15.178189694881437 19.777641117572781 13.338409125804903 9.6588479876518267 25.756927967071533 11.498628556728365 10.578738272190092 27.136763393878937 12.878463983535765 16.558025121688843 11.038683414459227 29.436489105224613 104.40754729509354 9.6588479876518232 19.777641117572784 31.276269674301147 57.95308792591095 19.777641117572784 15.638134837150576 11.498628556728361 10.118793129920958 10.578738272190096 12.878463983535772 9.6588479876518232
leaf_count=59 20 39 67 35 34 127 101 20 33 58 33 20 26 38 44 39 36 36 48 36 39 498 23 160 136 38 20 40 92 22 325 37 63 27 23 30 20 47 20 30 31 21 57 38 34 20 33 90 20 163 33 43 29 21 56 25 23 59 28 36 24 64 227 21 43 68 126 43 34 25 22 23 28 21
internal_value=0 0.0740791 -0.440018 -0.0228527 0.141841 0.0548744 0.0992938 0.18603 0.0237964 -0.150395 0.22357 0.272333 0.293837 0.094931 -0.109031 0.191672 -0.0250964 0.654119 0.159446 0.0532607 0.293191 0.255311 0.271759 0.111653 0.317973 0.462983 -0.239884 -0.0682232 -0.231578 -0.209975 -0.596645 -0.0592065 0.0337041 0.16274 -0.337197 0.0729733 -0.105714 0.1938 0.382657 -0.0123131 -0.0476578 0.0633961 -0.131775 0.0275083 -0.0250964 -0.0891876 -0.35257 -0.277669 -0.0184407 -0.154863 -0.133025 -0.111459 0.880876 0.122085 -0.0434235 -0.143058 0.0599946 0.0459792 0.154688 0.208859 -0.158209 0.0740124 0.109848 0.0857851 0.107432 0.106199 0.150627 -0.0350898 -0.243735 -0.0792439 -0.366584 1.92234e-05 0.132349 -0.186445
internal_weight=0 1680.18 282.866 691.298 988.882 435.108 376.695 768.568 144.423 73.1313 624.146 452.586 433.268 171.56 55.1934 116.366 135.224 41.855 303.564 108.087 34.4959 391.413 375.775 84.17 291.605 35.4158 124.185 49.2141 58.413 19.3177 158.681 73.5912 56.5733 41.3951 27.1368 80.9503 32.6561 48.2942 26.6768 220.314 189.957 81.8702 108.087 44.6147 67.6119 57.9531 74.9711 59.7929 18.3978 256.189 238.252 223.073 25.297 18.8578 148.102 75.431 72.6713 49.6741 62.0926 30.3564 22.5373 49.2141 245.151 223.073 34.9558 213.415 162.361 51.0539 63.4724 27.1368 36.3357 48.7542 28.5166 20.2376
internal_count=4268 3653 615 1503 2150 946 819 1671 314 159 1357 984 942 373 120 253 294 91 660 235 75 851 817 183 634 77 270 107 127 42 345 160 123 90 59 176 71 105 58 479 413 178 235 97 147 126 163 130 40 557 518 485 55 41 322 164 158 108 135 66 49 107 533 485 76 464 353 111 138 59 79 106 62 44
shrinkage=1


Tree=3
num_leaves=75
num_cat=0
split_feature=5 4 4 6 1 4 4 3 6 6 0 6 3 4 5 0 2 5 7 4 5 1 6 6 6 4 4 6 6 6 4 4 5 4 5 6 8 4 8 5 0 8 8 3 2 4 4 6 4 2 8 6 8 4 8 4 6 4 5 4 3 5 8 7 4 6 5 5 5 2 0 5 2 8
split_gain=44.9431 8.2734 6.86597 5.48261 4.9277 3.72756 3.68147 3.51391 2.65434 2.63874 2.62054 2.5094 2.4001 3.27146 3.04936 2.13182 3.64655 1.96743 1.92055 1.90798 3.03475 1.78587 1.69251 1.68568 2.4552 3.27307 1.58845 1.57736 1.49902 3.71701 6.47264 3.51469 3.4059 3.3363 2.94579 3.27191 2.52071 2.23908 1.69906 1.66595 1.49239 1.48794 1.84984 1.47958 3.08964 2.84859 3.20792 2.7999 3.14717 3.2535 2.49749 4.04363 2.1462 1.98222 1.96975 1.50795 1.43238 1.39476 1.56054 1.22934 1.08365 1.06182 1.04305 1.04059 0.98736 1.12262 0.901711 0.827889 0.803763 0.766733 0.7579 1.47926 0.70102 0.651047
threshold=84598480.866431385 177251.00000000003 607404.50000000012 -1.8350168350168348 109645.00000000001 437184.50000000006 26523.500000000004 101505.00000000001 -16.601049868766399 -66.819571865443422 110595.00000000001 -1.0000000180025095e-35 104165.00000000001 732175.50000000012 42356650.908297569 110965.00000000001 110775.00000000001 36591853.368955664 110895.00000000001 578762.50000000012 39169434.852144152 107465.00000000001 -86.159003831417621 -7.9772727272727257 -37.617924528301877 357216.00000000006 244286.00000000003 -64.08253205128203 -27.645576707726761 -72.684391080617488 519988.50000000006 484103.50000000006 36165334.433847837 289306.00000000006 72314662.447643667 -22.490310077519378 108485.00000000001 476273.00000000006 108205.00000000001 75642655.917057678 110405.00000000001 110685.00000000001 110445.00000000001 104395.00000000001 104465.00000000001 766415.50000000012 876405.50000000012 -33.508771929824555 900317.50000000012 106135.00000000001 107995.00000000001 -48.808848553601813 108275.00000000001 994278.50000000012 103675.00000000001 688671.50000000012 -8.6785347483738438 648971.50000000012 34839503.090086676 519988.50000000006 103605.00000000001 86861014.581400871 108965.00000000001 111172.50000000001 275974.50000000006 -24.828767123287665 35251081.919707663 87666746.794213593 49585241.040190257 111282.50000000001 101445.00000000001 1464755.6909999822 111252.50000000001 105185.00000000001
decision_type=8 10 10 2 2 10 10 2 2 2 2 2 2 10 8 2 2 10 2 10 10 2 2 2 2 10 10 2 2 2 10 10 10 10 10 2 2 10 2 10 2 2 2 2 2 10 10 2 10 2 2 2 2 10 2 10 2 10 10 10 2 8 2 2 10 2 10 10 8 2 2 8 2 2
left_child=2 10 3 6 8 15 73 70 43 22 -2 -5 17 56 -15 16 23 -10 -18 28 -21 -16 -7 24 25 27 63 67 29 30 33 37 -32 -9 36 -36 38 -31 -30 -37 -29 42 -11 45 -45 57 54 50 49 -49 51 55 -52 -48 -47 -46 -14 58 -4 -33 -55 -25 -54 -17 -26 -66 -59 -3 -22 -65 71 -8 -28 -1
right_child=1 5 4 11 -6 9 7 19 12 41 -12 -13 13 14 21 26 18 -19 -20 20 68 -23 -24 61 64 -27 72 40 34 31 32 59 -34 -35 35 39 -38 -39 -40 -41 -42 -43 -44 44 47 46 53 48 -50 -51 52 -53 62 60 -56 -57 -58 66 -60 -61 -62 -63 -64 69 65 -67 -68 -69 -70 -71 -72 -73 -74 -75
leaf_value=0.014104295258888448 -0.0076315249536387623 -0.018126010283130226 -0.00051012210992386808 0.037182952799601501 0.039336251406237574 -0.0016468400613271696 -0.025231872200092598 0.0033511572182078919 0.017801472345029119 -0.0032583261467902021 -0.031187333314219235 0.0081805846736625852 0.051122623685632543 0.032527437796005303 -0.01546070267670807 -0.026875291485217369 0.018329870287551529 -0.012567175910966814 -0.007720910128736976 0.0073345085339757551 -0.03120099845122043 0.015107566819104074 0.025853897373108461 0.012339549433427459 -0.016163297864734385 0.0091874168007307147 -0.036102889205465005 -0.021919581208978123 -0.0022379299535256552 0.0084507729034821472 -0.0082242033762050873 -0.010533926420282766 0.027829475774215292 -0.0092700831384600352 -0.012407910903743671 0.036654632999601075 -0.026700855583647484 0.033501223044826695 0.020137577146435989 0.011888040019090849 0.0018735645503655228 0.0049230413096614557 -0.031422854337049937 -0.025327440394589718 0.010668838109146161 0.020104505508522511 -0.0062605237559701463 0.026119988864133015 -0.031463189742772187 -0.013368818981817347 0.039201060909265333 0.028277910130189671 -0.00058504974716249206 0.0092475055950966261 0.049180814881365727 -0.0038610500095624029 0.025949159953295404 -0.010886268118003684 0.027659783068232538 0.0023808127304243364 0.032018281216005827 -0.011274087823845404 0.021953332399728121 0.00042071760976916943 -0.017587731237146031 -0.036160811817646688 0.0045895665795812517 -0.036195027401774604 -0.012744974763667436 -0.019077223748961782 -0.026597845508243567 0.0017100511382165989 -0.018848343812308072 0.033108642706822837
leaf_weight=8.7891895473003405 13.832527071237562 24.559376239776611 9.6147145330905932 15.449849992990494 13.701692432165144 9.9869454503059405 9.0123407542705554 86.074670195579529 10.951535761356356 13.459898740053179 80.624170422554016 14.419124186038971 10.174956828355791 11.468830943107603 9.4991161525249534 10.693147808313372 14.459988027811052 10.395773082971571 13.852911978960035 16.992318719625473 9.8534843325614911 9.6136803925037366 12.721419066190718 9.1539776027202588 27.131760537624359 17.408541917800903 18.739767402410511 10.335279852151873 272.96717399358749 279.42561849951744 8.7290166318416578 30.718363255262375 26.246637642383575 133.67818713188171 10.366206407546995 10.149497926235201 10.321062654256819 9.2144404351711255 8.7561983764171583 20.513388127088547 18.18921560049057 14.378645420074461 10.284738272428511 8.7128068506717664 25.273551225662231 13.137987822294237 13.081226229667662 8.7309858202934318 9.9260094463825208 12.956596881151198 10.503832161426546 15.325217545032499 9.6254411339759844 13.04488241672516 10.463750183582304 60.8490931391716 12.70893546938896 17.397445529699326 10.060807287693022 46.049045413732529 8.7157973945140821 9.9193090498447436 10.999387562274931 12.140371412038805 13.317642211914061 20.909906268119812 20.507180869579315 8.5449688434600812 14.699811249971392 8.6234780550003034 10.294216632843016 11.720652788877489 8.5825577080249769 9.2488188147544843
leaf_count=20 32 57 22 35 31 23 21 198 25 31 189 33 23 26 22 25 33 24 32 39 23 22 29 21 63 40 44 24 629 641 20 71 60 309 24 23 24 21 20 47 42 33 24 20 58 30 30 20 23 30 24 35 22 30 24 140 29 40 23 106 20 23 25 28 31 49 47 20 34 20 24 27 20 21
internal_value=0 -0.295909 0.0819948 0.0412115 0.198009 -0.216371 0.0291235 0.0212483 0.175833 0.00532797 -0.554755 0.463644 0.343709 0.456887 0.242909 -0.271068 -0.219045 0.0602492 0.111675 0.031585 -0.178193 -0.00169906 0.275186 -0.277762 -0.315657 -0.19914 -0.437267 -0.307296 0.0407281 0.0697908 -0.0229356 0.134431 0.376628 -0.0865298 -0.0133824 0.237523 -0.0486319 0.185009 -0.0308496 0.401717 -0.134948 -0.155415 -0.30915 0.132364 0.0737441 0.219722 0.375251 0.104538 -0.162883 0.0505717 0.168305 0.0922766 0.416082 0.182425 0.659908 0.00805782 0.742843 0.0618619 0.277883 -0.05574 0.367358 0.00117945 0.228697 -0.284061 -0.465744 -0.578684 -0.0502705 -0.455801 -0.403031 -0.15354 -0.310153 -0.200024 -0.613657 0.476972
internal_weight=0 401.851 1451.13 1073.69 377.441 307.394 1043.82 1025.78 363.74 60.8316 94.4567 29.869 74.8128 53.4655 30.5816 246.562 187.783 21.3473 28.3129 994.755 41.5456 19.1128 22.7084 159.47 140.397 79.0374 58.7793 61.6288 953.21 620.136 254.729 365.407 34.9757 219.753 333.074 41.0291 292.044 288.64 281.723 30.6629 28.5245 38.1233 23.7446 288.927 172.903 116.024 58.4436 164.19 31.6136 21.6876 132.577 101.448 31.1287 34.8419 23.6017 86.1226 22.8839 57.5801 19.6755 76.7674 21.7607 19.0733 20.6248 31.457 61.3593 34.2275 37.9046 33.1043 24.5533 20.7638 31.0272 20.733 27.3223 18.038
internal_count=4268 933 3335 2470 865 712 2402 2361 834 140 221 68 171 122 70 572 435 49 65 2289 96 44 52 370 326 183 137 143 2193 1426 587 839 80 507 767 94 673 662 649 70 66 88 55 663 397 266 134 377 73 50 304 233 71 80 54 198 52 132 45 177 50 44 47 73 143 80 87 77 57 48 72 48 64 41
shrinkage=0.05


Tree=4
num_leaves=75
num_cat=0
split_feature=2 4 3 0 4 5 5 4 3 6 5 6 3 4 4 1 8 6 5 7 1 5 4 7 6 6 0 6 8 4 8 0 7 0 4 7 8 4 4 6 2 5 5 2 1 8 5 7 5 5 4 2 6 5 7 5 5 5 6 0 4 3 4 4 5 2 7 6 6 5 4 4 2 3
split_gain=191.962 24.7286 16.5389 10.4424 8.41426 7.38961 15.7685 6.82101 5.87461 5.32539 5.28392 4.2224 3.18028 3.17663 3.09863 5.20122 3.11056 2.90797 5.04173 3.05819 2.86022 2.91427 2.58479 2.40129 2.35399 2.26122 3.07924 2.24737 2.37847 2.13878 2.12963 2.06022 2.69416 2.04409 2.22168 2.02366 1.99365 1.9786 1.86615 1.8542 3.0162 1.71208 1.58863 2.32335 1.50347 1.45841 1.45132 1.44034 1.38892 3.41996 2.43916 2.098 1.33992 1.30127 1.66818 2.25627 1.28852 2.51115 1.61711 1.39708 1.28745 1.2767 1.18911 1.17669 1.39187 1.15143 1.61034 1.56566 1.11897 1.10524 0.895779 1.53966 1.68821 0.886591
threshold=110495.00000000001 177251.00000000003 110195.00000000001 110965.00000000001 331345.00000000006 43476377.749365754 70225470.125646964 525675.00000000012 101595.00000000001 -43.869027731373201 191539.40099675339 -96.756661991584835 103425.00000000001 43227.000000000007 294235.50000000006 110705.00000000001 110595.00000000001 -8.2650273224043698 3932214.8253666661 102555.00000000001 110655.00000000001 88060790.756203786 1068131.5000000002 110465.00000000001 -42.715700141442703 -74.862637362637358 103615.00000000001 -10.495716034271725 108855.00000000001 132341.50000000003 111182.50000000001 111342.50000000001 111282.50000000001 102415.00000000001 312491.50000000006 102625.00000000001 110425.00000000001 134806.50000000003 244286.00000000003 -10.312600708991297 106535.00000000001 49023376.021223985 84598480.866431385 110265.00000000001 103875.00000000001 111222.50000000001 87991018.189195767 105215.00000000001 35498289.951024599 28129150.638035361 458365.50000000006 106055.00000000001 -43.036099137931025 1397945.7572124579 101505.00000000001 1975470.2912169485 86636700.724916682 85381976.278247789 -64.08253205128203 110425.00000000001 525675.00000000012 110785.00000000001 452833.50000000006 378983.00000000006 76178678.954576224 107365.00000000001 108965.00000000001 -68.599439775910341 -5.5946791862284808 1326456.0094968707 212438.00000000003 237737.50000000003 110665.00000000001 110965.00000000001
decision_type=2 10 2 2 10 10 10 10 2 2 8 2 2 10 10 2 2 2 10 2 2 8 10 2 2 2 2 2 2 10 2 2 2 2 10 2 2 10 10 2 2 10 10 2 2 2 10 2 10 10 10 2 2 10 2 10 10 10 2 2 10 2 10 10 10 2 2 2 2 10 10 10 2 2
left_child=2 73 5 9 56 8 11 27 53 20 13 -7 -13 24 70 16 -16 19 -19 33 -3 61 38 36 -10 26 29 28 -8 -21 -5 32 45 34 37 -27 42 -12 -14 41 -41 -40 -6 -44 -28 -32 -17 -15 49 50 -20 -50 -37 -1 55 -55 57 -4 -59 -58 69 -22 63 -30 -65 -9 67 -67 -53 -35 -11 -72 -73 -2
right_child=1 3 4 30 23 6 7 65 10 14 17 12 22 47 15 46 -18 18 48 25 21 -23 -24 -25 -26 35 44 -29 62 -31 31 -33 -34 60 -36 52 -38 -39 39 40 -42 -43 43 -45 -46 -47 -48 -49 51 -51 -52 68 -54 54 -56 -57 59 58 -60 -61 -62 -63 -64 64 -66 66 -68 -69 -70 -71 71 72 -74 -75
leaf_value=0.021784095126145767 0.054058963115878246 0.027999368080736831 0.0095308775356785572 0.055569327307708007 -0.021245819778953054 0.030367850391922403 0.0061532430677487954 -0.036399599205413261 -0.024205822414441858 0.024479924866985574 -0.025231203374269102 0.028505542917700612 -0.015771120895603348 0.0062255430623106124 0.019188500000426687 -0.0082702145863452672 0.058163985503213826 -0.030720915465375882 0.003288627830279325 0.014806767713458012 -0.0010645146904836292 0.01665344453990945 -0.017563264848293233 -0.022292719721836593 0.0058922801396219032 -0.036476138769433217 -0.036431580635725581 0.01757295448141807 -0.016665556787397982 -0.0070246812252096518 0.026797379641977859 0.05731896710115876 0.0089525475670349779 0.0095727475445845731 -0.031660526656164222 -0.020219072740937032 0.022164030183439758 0.0028213188820251974 0.0070596784320401326 0.026013393662989066 -0.0013529861000992169 -0.0019216754077066218 0.022664130119445607 -0.0088198102966989649 -0.014593790419905488 0.054067837705376924 0.015618854334023977 0.031464916720768149 -0.023685587503518464 0.022573891502180192 -0.019300390554322613 0.014159220033492842 -0.014519431861985134 -0.017514083520198065 0.015943443862193832 0.014154598634288638 0.022089902592676319 0.016859236233186622 0.041753141303922617 -0.0010433382435682328 0.019603474823556961 -0.025078848000834514 -0.024663908057359012 -0.010884235104178028 0.014738819286559297 7.9241354455873421e-05 -0.02902261094330523 -0.022404972128726341 -0.010561910761706001 -0.014707586084766178 0.058763356025960889 0.018409699513207659 0.047593666202094251 0.064179903103248892
leaf_weight=10.159268617630003 40.151295155286789 13.753831207752226 14.981902360916136 25.651935189962387 9.6027469336986524 13.286369144916533 20.93338018655777 18.06755992770195 12.117291003465654 8.8793950378894788 8.6947232186794299 10.627067536115645 14.333127826452253 12.717655897140505 10.616446971893312 12.230247288942339 9.8860388994216901 17.632537215948105 38.515500068664551 13.540971368551252 15.321177899837499 18.546407133340832 18.257642954587936 13.89196342229843 14.0042367875576 13.368370056152342 8.6127140223979932 9.1768694221973401 24.829467117786407 65.414142310619354 9.3321887850761467 9.4452584087848646 9.727192819118498 9.6535602211952263 10.354582399129866 168.23614466190338 9.2616444528102857 22.686507195234299 79.387214004993439 20.618483662605286 19.677606225013733 160.01137879490852 9.2128211855888384 16.099911570549011 92.858008623123169 10.329087495803831 13.240971714258192 10.175065845251082 15.556914925575255 15.883917629718779 17.326560258865356 8.7836870551109296 266.39632543921471 15.635748505592348 13.192389845848082 8.7840245068073255 15.963585555553438 9.2516710460185987 22.124676972627643 11.040433079004286 10.56894615292549 8.6646165549755079 16.849083930253983 13.504762381315233 8.7236646711826307 12.200277030467985 40.481518238782883 21.190065443515778 9.5588675439357775 9.1098765134811384 9.8427244424819964 8.9209710061550158 11.147709697484968 46.929122239351273
leaf_count=23 89 31 34 57 22 30 48 42 28 20 20 24 33 29 24 28 22 41 88 31 35 42 42 32 32 31 20 21 57 150 21 21 22 22 24 389 21 52 181 47 45 366 21 37 214 23 30 23 36 36 40 20 614 36 30 20 36 21 50 25 24 20 39 31 20 28 94 49 22 21 22 20 25 104
internal_value=0 0.74365 -0.138419 0.55443 0.201174 -0.169378 -0.0743702 -0.308032 -0.223328 0.402025 -0.242038 0.0548715 0.0321393 0.0769327 0.560362 0.384736 0.75964 -0.261041 -0.119414 -0.285997 0.163576 0.0353865 0.0138321 -0.0832216 -0.161393 -0.308232 -0.21371 -0.118638 -0.169487 -0.0656108 0.88779 0.740091 0.609513 -0.0893759 -0.231554 -0.3463 0.0308121 -0.0990225 0.0365028 0.0545374 0.252994 0.0211328 -0.0785988 0.0527817 -0.328947 0.822479 0.0829658 0.348872 -0.0367807 0.0420533 -0.0744049 -0.203581 -0.334513 0.118117 0.032341 -0.122451 0.426284 0.527432 0.688258 0.25264 0.112923 -0.194789 -0.265315 -0.183693 -0.0165666 -0.501706 -0.446361 -0.283792 0.0255256 -0.044313 0.768508 0.851304 0.692415 1.19027
internal_weight=0 292.617 1573.13 205.536 131.431 1441.69 522.156 185.957 919.539 141.051 871.767 336.199 322.913 49.0142 84.7645 45.9737 20.5025 822.753 123.258 699.495 56.286 42.5322 312.285 58.0691 26.1215 628.427 180.426 94.0172 84.8404 78.9551 64.4857 38.8337 29.3885 71.0682 41.7358 448.001 44.1771 31.3812 294.028 279.695 40.2961 239.399 34.9155 25.3127 101.471 19.6613 25.4712 22.8927 105.625 71.726 55.8421 33.8995 434.632 47.7714 37.6122 24.4198 73.3623 46.3583 31.3763 27.004 29.3324 23.9858 63.907 47.0579 22.2284 91.9394 73.8719 33.3903 18.3426 18.7634 38.7908 29.9114 20.0687 87.0804
internal_count=4268 656 3612 463 299 3313 1197 429 2116 319 2007 768 738 112 191 104 46 1895 283 1612 128 97 714 133 60 1449 415 216 195 181 144 87 66 163 96 1034 101 72 672 639 92 547 80 58 234 44 58 52 242 164 128 78 1003 109 86 56 166 105 71 61 67 55 147 108 51 213 171 77 42 43 87 67 45 193
shrinkage=0.05


Tree=5
num_leaves=75
num_cat=0
split_feature=3 5 4 8 4 6 4 6 5 4 2 1 6 2 5 4 0 8 5 6 5 6 5 5 8 4 5 4 8 5 6 4 5 3 5 5 6 5 6 4 4 5 6 6 6 4 4 8 8 8 4 1 6 6 6 6 0 4 4 6 3 2 7 4 2 8 8 4 6 1 6 2 4 6
split_gain=59.6999 10.1341 8.46286 6.67844 6.24239 5.18664 4.65417 4.29407 4.65839 3.59558 4.43201 5.61639 3.11383 3.10306 4.20745 3.40259 3.09233 3.04276 2.73846 3.58061 2.45182 2.69457 2.32404 2.30263 3.32956 2.27353 2.2689 2.87561 2.17936 2.12108 2.08594 2.07157 2.03999 2.00692 2.45864 2.36103 1.89865 1.64705 2.20765 2.00557 2.88013 1.61156 1.68758 2.85949 1.83775 3.08751 1.60738 1.70175 1.86032 1.56944 2.36952 1.55028 1.58008 1.82737 1.79565 4.62405 2.93169 1.66519 1.5122 1.46271 1.45109 1.43939 2.71421 2.19175 1.66981 2.57966 1.49731 2.43603 1.42646 1.4097 1.3625 1.30994 1.3035 1.26937
threshold=110575.00000000001 45259044.399359487 250915.50000000003 106945.00000000001 187102.00000000003 -7.742257742257741 242047.00000000003 -11.0673665791776 3592695.3249766855 600727.50000000012 107955.00000000001 106930.00000000001 -2.2739018087855292 103355.00000000001 34839503.090086676 900317.50000000012 107385.00000000001 107925.00000000001 35681367.16202914 -6.396617566830332 32252692.333668884 -96.756661991584835 37804991.121502027 32876903.032581616 103755.00000000001 357216.00000000006 87666746.794213593 376026.50000000006 105875.00000000001 85175107.958232865 -81.782106782106766 402814.00000000006 33535070.100172106 106195.00000000001 7741550.9953951342 33356396.432148825 -75.914770191878617 35681367.16202914 -57.052441229656417 725057.00000000012 648971.50000000012 3706711.0931941499 -52.570711075865709 -44.36507936507936 -82.807881773399004 112698.00000000001 497694.50000000006 110765.00000000001 110675.00000000001 101535.00000000001 132341.50000000003 103805.00000000001 -5.5946791862284808 -79.289318755256502 -46.966911764705877 -30.455486542443058 106465.00000000001 750344.00000000012 469887.00000000006 -24.35728411338167 106005.00000000001 109415.00000000001 109415.00000000001 289306.00000000006 109505.00000000001 110375.00000000001 109150.00000000001 402814.00000000006 -16.895273401297494 103405.00000000001 -68.599439775910341 102595.00000000001 273516.00000000006 -3.4286833855799368
decision_type=2 10 10 2 8 2 10 2 10 10 2 2 2 2 10 10 2 2 10 2 10 2 10 10 2 10 10 10 2 10 2 10 10 2 10 10 2 10 2 10 10 10 2 2 2 10 10 2 2 2 10 2 2 2 2 2 2 10 10 2 2 2 2 10 2 2 2 10 2 2 2 2 10 2
left_child=1 4 30 51 41 6 29 9 -9 10 11 20 18 14 71 37 36 58 33 -20 21 -6 -17 -22 -25 -7 27 -4 -23 -5 -2 -12 -14 34 -10 -36 -8 39 -39 40 -15 42 44 -44 45 -1 47 48 -28 -45 -51 -3 53 -53 56 -56 60 68 -13 -40 70 62 66 72 -65 -66 67 -18 -57 -43 -55 -11 -63 -27
right_child=2 3 26 5 7 25 16 8 12 13 31 17 32 15 -16 22 61 -19 19 -21 23 28 -24 24 -26 73 46 -29 -30 -31 -32 -33 -34 -35 35 -37 -38 38 59 -41 -42 69 43 49 -46 -47 -48 -49 -50 50 -52 52 -54 54 55 57 -58 -59 -60 -61 -62 63 -64 64 65 -67 -68 -69 -70 -71 -72 -73 -74 -75
leaf_value=-0.0092764454597307824 -0.0059253017909392646 -0.021741945346296851 -0.012632001992881942 0.0078489173737161504 -0.011795799095503651 -0.025897477556979354 0.0092435216277249287 0.035318556571978403 -0.015630651051964574 -0.0058601310991054367 -0.027692126908061457 0.051731964196350205 -0.0054617159130065261 0.0020306765683615431 -0.023516099329230225 0.034535680949168528 0.024621586220062414 0.014747368897002953 -0.0026545964712072039 0.029521017542566964 -0.012239399420851643 0.017871707273565005 0.0090436423671479468 -0.00099267200497335745 0.016978072826650439 -0.012454726913196185 -0.016741562186557996 0.012348610785102786 0.0061491479611090506 -0.015729934883464719 -0.030528660015681275 0.0051206391448093413 -0.033683655764024746 -0.01799624572497099 0.015690265245879222 -0.010394223661277371 0.040179118609748155 -0.020464374786514843 0.020077465780127618 -0.0019942351727476062 0.034789463580864509 0.021789832076973978 0.02333319089365829 0.017363442372798341 -0.011929005705584963 0.017637801100546809 -0.031722422535599912 -0.019060821981964734 0.015092246627445474 2.5377760476182289e-05 -0.027718404529524426 -0.011788858251451474 -0.022102607891644192 0.013811801371574908 -0.024886759475710195 0.0065131286835980315 -0.020432179192517507 0.020453015304224404 0.026738604131667683 -0.0077478084926844645 0.022495790079573863 0.0058357524413882606 0.031673441386478707 -0.016048398133925824 0.0080805680286018169 -0.0069776674478259169 -0.0043591305186942422 0.0060417099912923426 -0.012271692335005614 0.0001993787489920513 -0.0031481972263654387 0.013660732552579836 0.029590192269310034 0.0090688362803916824
leaf_weight=27.062413603067398 9.1496049463748914 17.797648370265961 30.658162653446198 12.846641778945921 9.1991524398326856 19.634925931692123 9.2638517022132891 9.3291656374931318 15.118830680847166 15.146511971950529 9.1352382302284258 15.857071548700334 16.498620897531513 13.372463107109072 20.032097220420837 18.186083167791367 21.197191148996353 16.658613860607147 16.542374938726425 18.115213692188263 14.802711158990858 216.9953610599041 17.586984932422638 47.120358645915985 56.89789617061615 17.00046664476395 9.1336716115474719 18.455079019069672 48.512276113033295 37.031717389822006 147.42942985892296 10.159530311822889 10.464461237192152 16.91701665520668 29.129255920648575 12.354527890682219 10.675418823957441 13.71752482652664 9.260690361261366 21.625089049339294 13.466219574213026 13.901819407939913 14.360690355300902 9.7135020494461042 63.250701695680618 17.576361566781998 14.991003572940825 41.034508526325226 9.2241689264774305 48.735031187534332 9.1393278241157514 74.173437118530273 15.084866523742674 19.836481034755703 25.549102932214737 19.781346559524533 10.96798402070999 9.2294904589652997 9.787543833255766 9.6389316618442553 12.953194230794905 13.362543523311617 12.000839471817015 15.205728679895399 65.823790669441223 50.080865204334259 24.450050711631775 105.1720375418663 20.662275910377506 16.573950052261353 29.382946521043781 19.865214705467224 10.170886963605879 11.473151206970213
leaf_count=59 20 39 67 28 20 43 20 20 33 33 20 34 36 29 44 39 46 36 36 39 32 469 38 102 123 37 20 40 105 81 325 22 23 37 63 27 23 30 20 47 29 30 31 21 138 38 33 90 20 106 20 162 33 43 56 43 24 20 21 21 28 29 26 33 143 109 53 228 45 36 64 43 22 25
internal_value=0 0.071192 -0.427443 -0.0217975 0.135961 0.0535113 0.0919794 0.178356 0.0229304 0.214167 0.260705 0.281468 -0.0242497 0.0909491 -0.104812 0.183162 0.134129 0.627703 0.0515333 0.283266 0.244249 0.296161 0.440062 0.124231 0.176746 -0.256164 -0.231712 -0.0649028 0.314596 -0.19314 -0.58182 -0.208296 -0.328295 -0.057707 0.0326179 0.158438 0.516127 0.0698172 -0.103915 0.186742 0.369346 -0.0124985 -0.0467665 0.0614165 -0.128938 0.0264189 -0.341851 -0.267997 -0.0149239 -0.0246882 -0.0871166 -0.15017 -0.128848 -0.107617 -0.0435445 -0.152026 0.0680243 0.0257879 0.84386 0.117728 0.152114 0.110136 0.175759 0.0410437 -0.00939385 0.0314821 0.139338 0.183166 -0.0616773 0.200961 0.0737409 0.104315 0.322043 -0.0756406
internal_weight=0 1682.62 280.076 690.809 991.807 435.39 387.282 771.493 144.469 627.024 455.126 435.831 135.14 171.898 55.0438 116.854 337.403 42.3032 108.177 34.6576 393.528 274.707 35.7731 118.821 104.018 48.1085 123.497 49.1132 265.508 49.8784 156.579 19.2948 26.9631 73.5196 56.6026 41.4838 19.9393 81.0809 32.6171 48.4638 26.8387 220.314 189.838 81.9486 107.889 44.6388 74.3834 59.3923 18.3578 67.5879 57.8744 255.419 237.621 222.536 148.363 75.2222 73.1406 49.6731 25.6446 18.8996 62.1726 317.464 162.82 154.644 131.11 115.905 150.819 126.369 40.4436 30.4758 49.2194 35.0117 23.5334 28.4736
internal_count=4268 3653 615 1503 2150 946 841 1671 314 1357 984 942 294 373 120 253 732 91 235 75 851 594 77 257 225 105 270 107 574 109 345 42 59 160 123 90 43 176 71 105 58 479 413 178 235 97 163 130 40 147 126 557 518 485 323 164 159 108 55 41 135 689 353 336 285 252 327 274 88 66 107 76 51 62
shrinkage=0.05


Tree=6
num_leaves=75
num_cat=0
split_feature=5 4 4 6 1 4 3 4 2 6 6 6 3 4 5 0 2 5 4 5 7 1 6 6 4 6 4 6 5 5 8 3 1 6 6 5 3 8 6 3 2 6 4 0 5 0 2 1 6 0 4 4 2 8 8 6 5 7 4 6 5 5 2 0 5 8 2 6 1 4 6 6 6 4
split_gain=42.0296 7.89067 6.35872 5.05869 4.51155 3.50874 3.45963 3.24595 2.55761 2.49518 2.48042 2.31051 2.24946 3.0389 2.80031 2.02899 3.43675 1.85491 1.83665 2.89501 1.78624 1.66091 1.61286 2.343 3.12782 1.58293 1.53336 1.52445 1.45098 1.44003 1.5256 2.59771 2.99295 2.44468 3.03132 2.12158 3.65849 2.57641 1.96075 1.79252 2.58923 1.67839 1.42262 4.65549 5.91058 3.79472 3.40598 5.09394 4.64809 4.37476 2.71723 1.74953 1.68113 1.40269 1.79275 1.29998 1.00448 0.990312 0.963065 1.10087 0.805796 0.77116 0.744858 0.73355 1.42145 0.710915 0.691483 0.64832 0.627363 0.355675 0.237325 0.134905 0.208093 5.4127e-05
threshold=84598480.866431385 177251.00000000003 607404.50000000012 -1.8350168350168348 109645.00000000001 437184.50000000006 101505.00000000001 26523.500000000004 110655.00000000001 -66.819571865443422 -16.601049868766399 -1.0000000180025095e-35 104165.00000000001 732175.50000000012 42356650.908297569 110965.00000000001 110775.00000000001 37353726.314468727 578762.50000000012 39169434.852144152 110895.00000000001 107465.00000000001 -7.9772727272727257 -37.617924528301877 357216.00000000006 -86.159003831417621 244286.00000000003 -64.08253205128203 86584315.496089503 9959879.6972792465 107995.00000000001 104395.00000000001 104835.00000000001 -48.808848553601813 -75.424216278400905 35251081.919707663 103325.00000000001 104025.00000000001 -29.008882655446467 103505.00000000001 102595.00000000001 -48.808848553601813 237737.50000000003 108515.00000000001 764645.95869622356 102565.00000000001 108875.00000000001 108715.00000000001 -43.557312252964415 109330.00000000001 570331.00000000012 368859.00000000006 102825.00000000001 110685.00000000001 110445.00000000001 -8.6785347483738438 86861014.581400871 111172.50000000001 275974.50000000006 -24.828767123287665 87666746.794213593 49585241.040190257 111282.50000000001 101445.00000000001 1464755.6909999822 110465.00000000001 111252.50000000001 -22.173058013765974 105185.00000000001 108664.50000000001 -71.767001114827181 -20.238941829042808 -11.970149253731341 316400.00000000006
decision_type=8 10 10 2 2 10 2 10 2 2 2 2 2 10 8 2 2 8 10 10 2 2 2 2 10 2 10 2 8 10 2 2 2 2 2 10 2 2 2 2 2 2 10 2 10 2 2 2 2 2 10 10 2 2 2 2 10 2 10 2 10 8 2 2 8 2 2 2 2 10 2 2 2 10
left_child=2 8 3 6 10 15 63 68 65 25 29 -5 17 55 -15 16 22 -12 42 -20 -18 -16 23 24 27 -7 57 60 -29 -4 31 35 -33 34 -32 39 -37 -38 41 40 -31 -34 43 44 52 -46 47 50 51 -50 -44 -48 -9 54 -11 -14 -24 -17 67 -60 -3 -21 -59 64 -1 -2 -28 -25 -8 -10 -26 -71 -73 -61
right_child=1 5 4 11 -6 9 7 18 69 53 12 -13 13 14 21 26 20 -19 19 61 -22 -23 56 58 70 -27 66 28 -30 30 33 32 38 -35 -36 36 37 -39 -40 -41 -42 -43 46 -45 45 -47 48 -49 49 -51 -52 -53 -54 -55 -56 -57 -58 62 59 73 -62 -63 -64 -65 -66 -67 -68 -69 -70 71 -72 72 -74 -75
leaf_value=-0.024750481191631587 -0.022524559475423908 -0.017752205664406304 0.021725843071190895 0.035460795616421716 0.037442678374282924 -0.0016218592064811939 0.013283759246376559 -0.018211591817959703 -0.024845831503917882 -0.0031324886371281572 0.015421266745305652 0.0077712684904901463 0.048811199319906746 0.031009489481982289 -0.015051235274818053 -0.026284174050433054 0.017595567844427642 -0.014375677265070941 0.0070132256205180923 -0.030755673054928902 -0.0075022558477520693 0.014430716564559368 0.012034417713952408 -0.022668450246121966 0.003169240761712331 0.024921824574162487 -0.03555120306593286 -0.021569134989337213 0.0019573542843083856 0.011030325549793175 0.0096242934449498746 -0.0243087613917417 0.00091291213290538634 -0.0018622884157073749 0.044882442602949754 0.043484618960937638 0.0020192245990352134 0.024163968509150806 -0.014566480423656908 0.020601246833363934 -0.018471553484431594 0.016371630978950096 -9.1654063876813737e-05 -0.027189415030739197 0.0030158012948948536 0.020063350898082588 -0.01703286170674417 -0.027538458194026214 0.05152323680190523 0.013288918366994369 0.02457013102842108 0.0050390750452379831 -0.00014959043636865216 0.0046799145220155986 -0.030976798438687239 0.02500165014717989 -0.010943971587934054 0.0005292763479302538 -0.017122304824414125 -0.035547771532975926 -0.035711843809052284 -0.01259608307642306 -0.018736029235993573 -0.026106426580431549 0.0017538882729441242 -0.0051723975811138242 -0.018288435376664889 -0.0070473032899368562 0.031840633924016336 -0.03561606224878508 0.014831075844370609 -0.025232021225265029 -0.035627914906460327 -0.03571110482078188
leaf_weight=8.9044657349586505 10.771952480077745 24.36872011423111 14.467755347490309 15.689560532569885 13.930552840232847 9.9826445281505602 8.8722962439060229 16.124798208475113 13.84261980652809 13.433607995510103 12.346926182508467 14.493201225996017 10.36256465315819 11.6324405670166 9.4233146607875877 10.526689678430559 14.576869338750841 9.0522952377796191 17.062630087137222 9.7241480648517591 13.80177792906761 9.6891875863075239 9.187694728374483 14.898971259593965 8.7363563477993029 12.842434108257292 18.364223808050159 10.25262877345085 18.165512233972553 13.550746977329256 14.964266330003737 12.141562759876249 80.93500167131424 14.340580105781553 10.286683380603792 9.8455851972103101 34.603557229042053 21.170094162225723 15.953569918870924 8.7095697522163373 16.484841287136078 22.422940611839294 611.64027997851372 10.441184014081953 54.002731680870056 82.532153755426407 12.637717664241789 16.804808437824249 9.6102253496646863 33.775080651044846 11.376809179782866 31.003192335367203 64.075443744659424 14.424301564693449 10.147511422634123 12.831916034221647 9.8600270152091962 12.120655715465547 13.188520669937132 9.1805784404277819 8.3978546261787397 14.659521132707598 8.5608729124069196 10.163019835948942 11.712787777185442 13.058190912008284 8.4795138835906965 11.985134333372114 9.3590546548366529 35.986005544662476 8.7142108678817731 9.6259470880031603 9.6286124885082227 11.334818214178084
leaf_count=21 25 57 33 35 31 23 20 37 33 31 28 33 23 26 22 25 33 21 39 23 32 22 21 35 20 29 44 24 42 31 34 28 186 33 23 22 79 48 37 20 38 51 1408 24 124 189 29 39 22 77 26 71 147 33 24 29 23 28 31 22 20 34 20 24 27 31 20 28 21 86 20 23 23 27
internal_value=0 -0.287622 0.078976 0.0396937 0.190319 -0.210018 0.0280306 0.0380593 -0.54281 0.00491625 0.169015 0.443296 0.330669 0.439506 0.233343 -0.263448 -0.212666 0.0563314 0.0304014 -0.175679 0.107788 -0.00210397 -0.270124 -0.307463 -0.193592 0.266257 -0.426726 -0.300103 -0.13061 0.127001 0.110847 0.0803509 -0.0131678 0.29249 0.479754 0.198143 0.307702 0.208495 0.0349672 0.0125933 -0.103232 0.0853319 0.0393543 0.108427 0.139847 0.266413 0.0177657 -0.00748046 0.203377 0.435163 0.00717381 -0.0270522 -0.0756215 -0.152038 -0.302291 0.71278 0.00279372 -0.275996 -0.455253 -0.567854 -0.447103 -0.396762 -0.148907 -0.30225 -0.193864 -0.260322 -0.601963 -0.314089 0.456198 -0.640254 0.179855 -0.676173 -0.608614 -0.71276
internal_weight=0 398.445 1453.81 1074.67 379.146 305.532 1044.48 1013.7 92.9133 60.8305 365.215 30.1828 75.3386 53.9394 30.7449 244.702 186.65 21.3992 995.471 41.4463 28.3786 19.1125 158.271 139.223 78.6353 22.8251 58.052 61.1847 28.4181 289.877 275.409 235.817 131.453 39.5915 25.2509 104.364 65.6192 55.7737 119.312 38.7452 30.0356 103.358 954.024 227.176 216.735 136.535 726.848 639.822 87.0262 43.3853 623.017 43.6409 80.2002 38.0054 23.5811 23.1945 19.0477 31.2082 60.588 33.7039 32.7666 24.3837 20.6815 30.7803 20.6173 23.8301 26.8437 26.8841 18.2314 69.0832 17.4506 55.2406 19.2546 20.5154
internal_count=4268 933 3335 2470 865 712 2402 2330 221 140 834 68 171 122 70 572 435 49 2289 96 65 44 370 326 183 52 137 143 66 663 630 540 302 90 57 238 149 127 274 89 69 237 2193 521 497 313 1672 1473 199 99 1434 100 184 88 55 52 44 73 143 80 77 57 48 72 48 56 64 63 41 165 40 132 46 49
shrinkage=0.05


Tree=7
num_leaves=75
num_cat=0
split_feature=2 4 3 0 4 5 5 4 3 5 6 6 4 3 4 1 8 6 5 7 1 5 7 4 4 4 6 6 2 3 5 2 1 4 2 5 8 2 8 0 7 2 4 8 5 0 4 0 4 8 5 7 8 0 6 5 5 4 2 3 4 0 5 7 5 6 6 2 7 6 2 4 3 0
split_gain=175.249 21.7254 15.3555 9.26446 7.80524 6.99105 14.7878 6.57044 5.55048 5.04379 4.84483 3.92427 2.97306 2.94557 2.8098 4.77135 2.80639 2.77195 4.82799 2.91439 2.65366 2.71086 2.53499 2.50475 2.4977 3.63694 2.41563 2.26734 2.18968 2.1384 4.11745 2.98827 1.9641 2.36492 1.95098 1.9373 1.93727 1.9359 1.89248 1.86582 2.49342 1.67722 2.23421 1.55803 1.67119 1.61312 2.64671 1.49807 1.79475 1.73584 1.35931 1.35038 1.31879 1.31175 1.30905 1.30235 3.1962 2.31208 2.01093 1.22342 1.22062 1.21891 1.1999 1.57767 2.15724 1.05348 1.0371 1.00955 1.64435 1.12465 1.00899 0.964911 0.954349 0.964024
threshold=110495.00000000001 177251.00000000003 110195.00000000001 110965.00000000001 338169.00000000006 43476377.749365754 70225470.125646964 486297.00000000006 101595.00000000001 191539.40099675339 -43.869027731373201 -96.756661991584835 43227.000000000007 103425.00000000001 294235.50000000006 110705.00000000001 110595.00000000001 -8.2650273224043698 3932214.8253666661 102555.00000000001 110655.00000000001 88060790.756203786 110465.00000000001 876405.50000000012 709158.00000000012 657288.00000000012 -31.530214424951264 -42.715700141442703 110465.00000000001 106675.00000000001 38486891.520475805 104385.00000000001 110385.00000000001 304417.50000000006 102405.00000000001 55782078.765343957 110425.00000000001 105925.00000000001 111182.50000000001 111342.50000000001 111282.50000000001 110265.00000000001 411279.50000000006 108745.00000000001 74847244.436512277 110025.00000000001 357216.00000000006 102175.00000000001 155613.50000000003 101705.00000000001 87991018.189195767 105215.00000000001 111222.50000000001 107785.00000000001 -38.13852813852813 35498289.951024599 28129150.638035361 458365.50000000006 106055.00000000001 110785.00000000001 386210.50000000006 110425.00000000001 1397945.7572124579 101505.00000000001 1975470.2912169485 -5.5946791862284808 -20.550527903469078 107365.00000000001 108965.00000000001 -68.599439775910341 109415.00000000001 215552.00000000003 109615.00000000001 109915.00000000001
decision_type=2 10 2 2 10 10 10 10 2 8 2 2 10 2 10 2 2 2 10 2 2 8 2 10 10 10 2 2 2 2 10 2 2 10 2 10 2 2 2 2 2 2 10 2 10 2 10 2 10 2 10 2 2 2 2 10 10 10 2 2 10 2 10 2 10 2 2 2 2 2 2 10 2 2
left_child=2 -2 5 10 28 8 11 43 62 12 20 -7 27 -13 -12 16 -16 19 -19 34 -3 59 36 24 25 26 -15 -10 32 30 37 -32 -4 61 47 -25 41 -21 -5 40 52 -6 -43 -8 60 46 -46 49 -49 -11 -17 -14 -40 -31 -26 56 57 -20 -57 -22 -45 71 -1 64 -64 -60 -55 -9 69 -69 -70 -34 -72 -74
right_child=1 3 4 38 22 6 7 67 9 17 14 13 51 23 15 50 -18 18 55 29 21 -23 -24 35 54 -27 -28 -29 -30 53 31 -33 33 -35 -36 -37 -38 -39 39 -41 -42 42 -44 44 45 -47 -48 48 -50 -51 -52 -53 -54 66 -56 58 -58 -59 65 -61 -62 -63 63 -65 -66 -67 -68 68 70 -71 72 -73 73 -75
leaf_value=0.020911749360119802 0.055782470734698414 0.026729894558177328 0.011425045063416045 0.052224653699512347 0.0099159396583018231 0.029136279916041726 0.014921489407722869 -0.033317319974963025 -0.023723234403399289 -0.015560284311974613 0.036435696407767927 0.027295993119912699 0.0060458196616817728 -0.0018189309868668936 0.018226187559536838 -0.0082328034351714253 0.054936491359322694 -0.030185198214514833 0.0032157560444823863 -0.016557931107520615 -0.0011042305473973064 0.015841439052052719 -0.024433331349688614 -0.018287885730113189 0.022177696835021417 -0.019721821747157149 0.0089893325688839114 0.0059066482511545976 -0.0033797338054199198 -0.031135275107130857 0.011982363745787879 -0.011485402465070595 0.017713511419097602 0.051432597980315825 0.0074308472506734169 0.0087478799600610533 0.021293302478258874 -0.0071923735444129264 0.025297848891551747 0.053997879592442899 0.0081007394432897253 0.0048200974955572035 -0.027782231938525664 -0.031250132183887468 0.022715399786976887 -0.020439123772460557 -0.0056478683802700901 -0.036649830385793794 -0.0089927375380779908 0.013670399702031905 0.014843235774098316 0.030404389377698224 0.050992855194524782 -0.021823260685413071 0.0029936496697498941 -0.023174668459993712 0.02176272536469992 -0.018845891631900685 0.013792977809319297 -0.024681396868463271 -0.0064309758883404613 0.010731009977678807 -0.017160970703655409 0.015491746885302336 0.013804856935948188 -0.010204081818349165 -0.0040526491644395047 -0.0018931273301021788 -0.035949419915778123 -0.019590081217567185 -0.0070188869293619019 0.039018794662375018 -0.035953052438622644 -0.01464523559936806
leaf_weight=10.251368373632429 89.377223938703537 13.922455221414564 23.522308886051178 26.281390130519867 12.753675818443297 13.441947132349013 9.6342673003673536 19.440742880105972 11.98179477453232 9.5149660706520098 39.455748915672302 10.751432567834852 12.746873915195467 135.19862920045853 10.725356370210649 12.221607923507692 10.116800457239149 17.361650288105011 38.551092714071274 430.67178982496262 15.327837198972707 18.711778461933132 12.490972101688383 27.279302060604095 21.946634262800217 20.476698160171509 83.701321870088577 14.001183539628981 8.8409124314784986 29.498416900634766 24.688603818416595 30.106768935918808 8.985609173774721 9.4871789216995221 23.640117585659027 8.7519653737544996 9.3457848429679853 63.284629642963409 9.468353629112249 9.6730707585811597 9.8266941308975202 9.5985947251319903 11.612345844507216 9.8653315007686633 11.760399252176283 9.1522388756275159 27.359778195619583 8.6687448620796221 18.14186954498291 10.893855124711989 13.355393141508101 10.277069479227064 10.566372603178023 34.369917720556259 14.949616193771361 15.37120547890663 16.017624080181122 17.163074851036072 8.8207937777042371 8.5831832587718946 9.9505725800991041 12.440856963396071 15.526296317577364 13.259101152420042 8.8190315365791303 9.4983731806278247 10.787012249231337 14.348997116088865 18.637294948101044 23.982297122478485 8.5565648376941699 13.007353007793425 12.28387436270714 9.3476278483867628
leaf_count=23 193 31 53 57 29 30 22 46 28 22 87 24 29 309 24 28 22 41 88 1001 35 42 29 63 50 47 191 32 20 69 57 70 20 21 54 20 21 147 21 21 22 22 27 23 27 21 63 20 42 25 30 23 23 80 34 36 36 40 20 20 23 28 36 30 20 22 25 33 44 56 20 29 29 22
internal_value=0 0.703246 -0.133831 0.526238 0.192441 -0.163869 -0.0714001 -0.299074 -0.216565 -0.234884 0.38285 0.0533106 0.0767183 0.0312823 0.532514 0.365747 0.720908 -0.253574 -0.115071 -0.278069 0.155556 0.0317441 -0.0917825 0.0135653 0.0459071 0.00857763 0.046277 -0.155138 0.400349 -0.299913 -0.27831 -0.0182353 0.46169 0.586576 -0.0858936 -0.234418 0.0226812 -0.307161 0.836517 0.69826 0.574616 -0.0882601 -0.260574 -0.0779627 -0.131221 -0.0308441 0.0575753 -0.2033 -0.358704 0.000850394 0.0763335 0.338372 0.776989 -0.4587 0.288094 -0.034599 0.0415728 -0.0716093 -0.19678 -0.191351 -0.375743 0.464776 0.114962 0.0322865 -0.118874 0.0270131 -0.351565 -0.460291 -0.414329 -0.259308 -0.536032 0.606283 -0.42308 -0.534906
internal_weight=0 297.613 1566.82 208.236 132.086 1434.73 520.818 184.32 913.913 866.057 142.42 336.498 49.0069 323.056 85.8749 46.4192 20.8422 817.051 122.784 694.267 56.5453 42.6228 55.8014 312.304 276.273 239.377 218.9 25.983 76.2842 623.407 548.752 54.7954 67.4433 43.921 70.8596 36.0313 43.3104 493.956 65.8159 39.5345 29.8614 33.9646 21.2109 77.7226 68.0883 48.2724 39.1202 47.2194 26.8106 20.4088 25.577 23.0239 20.0347 74.6553 36.8963 105.422 71.7318 55.7142 33.6904 23.911 19.8159 34.4338 47.8558 37.6044 24.3453 18.3192 45.1569 106.597 87.1567 38.3313 48.8254 21.993 30.1881 21.6315
internal_count=4268 656 3612 463 299 3313 1197 429 2116 2007 319 768 112 738 191 104 46 1895 283 1612 128 97 128 714 631 547 500 60 171 1449 1275 127 151 98 163 83 99 1148 144 87 66 78 49 179 157 111 90 109 62 47 58 52 44 174 84 242 164 128 78 55 46 77 109 86 56 42 105 250 204 89 115 49 71 51
shrinkage=0.05


Tree=8
num_leaves=75
num_cat=0
split_feature=3 5 4 3 4 6 4 6 5 4 2 1 6 2 5 4 0 8 5 6 5 6 5 8 5 4 6 5 4 5 6 5 4 3 5 5 5 4 6 6 4 8 8 5 6 6 6 4 8 4 1 0 4 2 7 4 2 8 8 4 1 8 8 4 8 8 7 2 4 6 5 4 4 5
split_gain=55.6798 9.28429 8.06579 6.25704 5.76438 4.83832 4.34592 3.93011 4.28551 3.32259 4.18859 5.24987 2.93316 2.90094 3.98698 3.15176 2.83168 2.82088 2.57215 3.33478 2.30775 2.54845 2.20133 3.09805 2.15692 2.14792 2.14385 2.13974 2.72834 2.02563 2.01961 1.98758 1.9717 1.90769 2.35361 2.19245 1.56774 1.56383 1.79678 1.70974 1.5608 1.61374 1.75601 1.50526 1.59626 2.6897 1.74917 2.89431 1.47895 2.28748 1.47437 1.50341 1.40007 1.34503 2.51893 2.09465 1.60273 2.46684 1.44497 2.28585 1.32251 1.28982 1.38405 1.3147 1.23426 2.31569 1.36022 1.21867 1.21354 1.21161 1.16332 1.15278 1.12235 1.09211
threshold=110575.00000000001 45259044.399359487 250915.50000000003 106945.00000000001 187102.00000000003 -7.742257742257741 242047.00000000003 -11.0673665791776 3592695.3249766855 600727.50000000012 107955.00000000001 106930.00000000001 -2.2739018087855292 103355.00000000001 34839503.090086676 900317.50000000012 107385.00000000001 107925.00000000001 35681367.16202914 -6.1951754385964906 32252692.333668884 -96.756661991584835 32876903.032581616 103755.00000000001 37804991.121502027 357216.00000000006 -13.536417773705908 87666746.794213593 376026.50000000006 85175107.958232865 -81.782106782106766 33535070.100172106 402814.00000000006 106195.00000000001 7741550.9953951342 33356396.432148825 71616595.134418905 766415.50000000012 -82.807881773399004 -24.35728411338167 497694.50000000006 110765.00000000001 110675.00000000001 3706711.0931941499 -52.570711075865709 -44.36507936507936 -82.807881773399004 112698.00000000001 101535.00000000001 132341.50000000003 103805.00000000001 103865.00000000001 469887.00000000006 109415.00000000001 109415.00000000001 289306.00000000006 109505.00000000001 110375.00000000001 109150.00000000001 402814.00000000006 103405.00000000001 104095.00000000001 104025.00000000001 542640.00000000012 102895.00000000001 104555.00000000001 102525.00000000001 102595.00000000001 273516.00000000006 -3.4286833855799368 26320281.724905428 229094.00000000003 463910.00000000006 1397945.7572124579
decision_type=2 10 10 2 8 2 10 2 10 10 2 2 2 2 10 10 2 2 10 2 10 2 10 2 10 10 2 10 10 10 2 10 10 2 10 10 10 10 2 2 10 2 2 10 2 2 2 10 2 10 2 2 10 2 2 10 2 2 2 10 2 2 2 10 2 2 2 2 10 2 10 10 10 10
left_child=1 4 30 50 43 6 29 9 -9 10 11 20 18 14 67 37 36 52 33 -20 21 -6 -22 -24 -17 -7 -23 28 -4 -5 -2 -14 -12 34 -10 -36 -8 38 -15 -40 41 42 -29 44 46 -46 47 -1 -47 -50 -3 -52 -13 54 58 68 -57 -58 59 -18 -45 62 63 -53 66 -66 73 -11 -55 -27 -39 -31 -60 -48
right_child=2 3 27 5 7 25 16 8 12 13 32 17 31 15 -16 24 53 -19 19 -21 22 26 23 -25 -26 69 -28 40 -30 71 -32 -33 -34 -35 35 -37 -38 70 39 -41 -42 -43 -44 60 45 48 64 -49 49 -51 51 61 -54 55 -56 56 57 -59 72 -61 -62 -63 -64 -65 65 -67 -68 -69 -70 -71 -72 -73 -74 -75
leaf_value=-0.0090211453700733257 -0.0055234438872468839 -0.021206695121838447 -0.012290069461478065 0.0077266905844503705 -0.011699465606892542 -0.025224988898849068 0.01160443759633969 0.03367033767574993 -0.015354742331613439 -0.0057229798425431294 -0.027296063084993355 0.049556270530215184 -0.0051792560018344902 -0.0079856342490195811 -0.023043785310024784 0.033064796361294953 0.02380777306866538 0.014140373022390185 -0.0017293401594970525 0.029225727148056421 -0.012182673917266101 0.01404999750669726 -0.0010645511698390976 0.016240348395116112 0.008599204740522037 -0.0121512562704045 0.034500949878647671 -0.016257929570922758 0.012042687904087869 -0.020387848843331544 -0.029802097875478901 -0.033152275339729323 0.0047469546734920862 -0.017598936416683281 0.01515787260182957 -0.01000677583671335 0.039576122034458233 0.007631115493152223 0.019324329508041162 -0.0043850345888760967 -0.031098078292711686 -0.018488373475565895 0.014700340981252717 0.020988092090815116 0.022546311042234896 0.016781832864210363 -0.0019537761370035703 0.017010274304067877 3.5180723688337865e-05 -0.027309238683292839 0.010116892149637216 0.0046504764716823318 0.025637490822138061 0.0057760299841802211 0.030429845721675553 -0.015772605317435184 0.0078706671189879319 -0.0068548398234553505 -0.012743690215662058 0.0058648714432981384 0.00011916283882170485 -0.0056549566564873706 -0.033004020732890028 -0.019954278291654158 0.0088980529763062494 -0.020763276290966425 -0.03339075661317293 0.013093327155243008 0.028643022086461845 0.0088830915104961029 -0.013893598996531909 0.00013450493448066868 0.009341768912393314 -0.022471339035413287
leaf_weight=26.971517652273178 9.1023530066013318 17.641402065753937 30.509321719408035 12.862513571977614 9.1873033940792066 19.402186363935471 10.721457451581957 9.4430669546127302 15.059044599533079 15.119624644517897 9.0704588294029254 16.084783881902698 16.439463019371036 12.883701324462889 19.870084196329117 18.386137545108795 21.346577346324921 16.752322793006897 17.464947044849396 17.337523311376572 14.791866064071653 253.59019619226456 47.155991703271866 57.280284911394119 17.663120985031128 16.929918467998508 13.496717572212217 9.0663203895092028 18.508924424648285 27.725407958030701 145.25756368041039 10.347009360790251 10.198822200298308 16.815094947814941 29.272182822227478 12.289179980754851 9.4022616147994977 9.6572583317756671 30.62080559134483 10.115722835063936 14.798095762729643 40.663456410169601 9.257660895586012 13.997890681028368 14.456516742706297 9.7642984390258771 13.670147359371187 17.675801664590836 48.724142879247665 9.0722827613353711 13.28687211871147 9.183751463890081 9.8735884428024274 13.370523244142534 12.120831578969954 15.146807104349135 65.961832344532013 49.998370349407196 15.202633470296862 105.35559546947479 16.588276237249374 192.0676075220108 9.1057739555835706 13.279345661401747 15.65251272916794 11.352832645177839 9.9937433302402479 19.971862822771072 10.249683588743208 11.494161933660505 17.934731781482697 9.0849545300006849 9.2541511654853803 12.340535551309584
leaf_count=59 20 39 67 28 20 43 23 20 33 33 20 34 36 28 44 39 46 36 38 37 32 545 102 123 38 37 29 20 40 61 325 23 22 37 63 27 20 21 66 22 33 90 20 30 31 21 30 38 106 20 29 20 21 29 26 33 143 109 33 228 36 420 20 29 34 25 22 43 22 25 39 20 20 27
internal_value=0 0.0684256 -0.415251 -0.020684 0.130273 0.0521006 0.0891103 0.170883 0.0221299 0.20501 0.249579 0.269644 -0.0234178 0.0866216 -0.102949 0.175475 0.129685 0.602716 0.0499034 0.27383 0.233675 0.283856 0.117396 0.168534 0.421547 -0.247996 0.301669 -0.223994 -0.062044 -0.187086 -0.567409 -0.319692 -0.206727 -0.0562198 0.0316145 0.15434 0.493469 0.0662467 0.16579 0.268736 -0.331583 -0.258736 -0.0123432 -0.012465 -0.0456618 0.0594414 -0.125733 0.025693 -0.0243278 -0.0851412 -0.145238 -0.124471 0.809169 0.106664 0.169973 0.0398558 -0.0095299 0.0304299 0.134802 0.177757 0.193398 -0.143888 -0.331211 -0.197899 -0.233031 -0.0714267 -0.354243 0.0997215 0.313977 -0.0729073 -0.127198 -0.306457 -0.0877364 -0.233763
internal_weight=0 1684.63 277.164 690.195 994.433 435.63 387.804 774.173 144.468 629.705 457.482 438.213 135.024 172.223 54.9616 117.261 338.131 42.7107 108.238 34.8025 395.502 276.274 119.228 104.436 36.0493 47.8263 267.087 122.804 49.0182 49.6729 154.36 26.7865 19.2693 73.4355 56.6204 41.5614 20.1237 81.2122 53.6202 40.7365 73.7855 58.9874 18.324 220.26 189.674 82.0172 107.657 44.6473 67.5607 57.7964 254.565 236.923 25.9584 318.007 163.28 154.727 131.107 115.96 151.159 126.702 30.5862 223.636 31.5689 22.4631 63.0098 27.0053 36.0044 35.0915 23.6202 28.4241 27.592 36.8104 24.4568 26.0107
internal_count=4268 3653 615 1503 2150 946 841 1671 314 1357 984 942 294 373 120 253 732 91 235 75 851 594 257 225 77 105 574 270 107 109 345 59 42 160 123 90 43 176 116 88 163 130 40 479 413 178 235 97 147 126 557 518 55 689 353 336 285 252 327 274 66 489 69 49 138 59 79 76 51 62 60 81 53 57
shrinkage=0.05


Tree=9
num_leaves=75
num_cat=0
split_feature=5 4 4 6 1 4 3 4 2 6 6 6 3 4 5 0 2 5 4 5 5 1 8 1 1 6 6 6 4 6 4 6 6 4 4 0 4 5 6 8 4 8 5 5 8 3 1 6 6 5 3 3 6 3 2 6 6 4 4 8 5 7 4 6 5 5 2 0 5 8 2 6 1 4
split_gain=39.3372 7.52899 5.88454 4.67958 4.1403 3.28 3.26077 2.97418 2.48376 2.38431 2.29404 2.12794 2.12116 2.84502 2.59368 1.93161 3.23147 1.77264 1.76413 2.76041 1.67467 1.64563 3.48762 1.59307 1.5676 1.54069 2.24105 3.03973 4.68338 1.66536 1.48307 1.42531 3.51018 5.99723 3.30494 3.25848 3.12333 2.64142 3.04614 2.36089 2.12146 1.63349 1.50058 1.36452 1.44674 2.40987 2.86174 2.29241 2.79171 1.97213 3.31805 2.43118 1.87936 1.70523 2.45978 1.57595 1.18187 1.1638 1.13336 1.12258 0.948231 0.94293 0.937252 1.08861 0.770831 0.747676 0.72389 0.714503 1.36247 0.714118 0.683626 0.632085 0.605275 0.355189
threshold=84598480.866431385 177251.00000000003 607404.50000000012 -1.8350168350168348 109645.00000000001 437184.50000000006 101505.00000000001 26523.500000000004 110655.00000000001 -59.896907216494839 -16.601049868766399 -1.0000000180025095e-35 104165.00000000001 732175.50000000012 42356650.908297569 110965.00000000001 110775.00000000001 36165334.433847837 578762.50000000012 39169434.852144152 89046958.711180374 110435.00000000001 110685.00000000001 110805.00000000001 107465.00000000001 -7.9772727272727257 -37.617924528301877 -64.08253205128203 318281.50000000006 -51.579647489191878 244286.00000000003 -27.645576707726761 -72.684391080617488 519988.50000000006 484103.50000000006 106305.00000000001 289306.00000000006 72314662.447643667 -22.490310077519378 108485.00000000001 469887.00000000006 108205.00000000001 75642655.917057678 9959879.6972792465 107995.00000000001 104395.00000000001 104835.00000000001 -48.808848553601813 -75.424216278400905 35251081.919707663 103325.00000000001 103425.00000000001 -29.008882655446467 103505.00000000001 102595.00000000001 -48.808848553601813 -8.6785347483738438 519988.50000000006 365301.00000000006 110425.00000000001 86861014.581400871 111172.50000000001 275974.50000000006 -24.828767123287665 87666746.794213593 49585241.040190257 111282.50000000001 101445.00000000001 1464755.6909999822 110465.00000000001 111252.50000000001 -22.173058013765974 105185.00000000001 108664.50000000001
decision_type=8 10 10 2 2 10 2 10 2 2 2 2 2 10 8 2 2 8 10 10 8 2 2 2 2 2 2 2 10 2 10 2 2 10 10 2 10 10 2 2 10 2 10 10 2 2 2 2 2 10 2 2 2 2 2 2 2 10 10 2 10 2 10 2 8 8 2 2 8 2 2 2 2 10
left_child=2 8 3 6 10 15 67 72 69 21 43 -5 17 56 -15 16 25 -12 31 -20 -18 -7 -23 59 -16 26 27 58 29 -29 61 32 33 36 40 -35 -9 39 -39 41 -34 -33 -40 -4 45 49 -47 48 -46 53 -51 -52 55 54 -45 -48 -14 -36 64 -11 -27 -17 71 -64 -3 -21 -63 68 -1 -2 -32 -28 -8 -10
right_child=1 5 4 11 -6 9 7 18 73 23 12 -13 13 14 24 30 20 -19 19 65 -22 22 -24 -25 -26 60 62 28 -30 -31 70 37 34 35 57 -37 -38 38 42 -41 -42 -43 -44 44 47 46 52 -49 -50 50 51 -53 -54 -55 -56 -57 -58 -59 -60 -61 -62 66 63 -65 -66 -67 -68 -69 -70 -71 -72 -73 -74 -75
leaf_value=-0.024266246308359968 -0.022182521568629487 -0.018050027358392166 0.021013859577366095 0.033875139436142614 0.035700449307540863 -0.0058922257080835146 0.01242482243559968 0.0031472836317041433 -0.0242175098031483 -0.0022629214344286881 0.016421626750748722 0.0074190806747057208 0.04667958256424589 0.029613340449069034 -0.014806215870796583 -0.025706041458960251 0.01498763742171943 -0.012332922432298738 0.0067173485185792053 -0.03035069154806604 -0.0098322303587440874 0.040313770233206786 -0.0031670129497229742 0.007528591361416672 0.013822856253825231 0.011720026055883549 -0.022196111671213551 0.0010125049608781191 0.027472955368830404 -0.026421285526910157 -0.03503398055675374 -0.0022370783953118661 0.0079762901148581911 0.0061049199042039846 -0.010331018891989598 0.037430472750468874 -0.0090634414577345761 -0.012390369041410198 0.034467460575183649 -0.026089857001443562 0.028758450564367041 0.019646460518183213 0.011148505755249538 0.010565231513245531 0.0093342145726185953 -0.02391883359684896 0.00086543196386473927 -0.0018536672922500029 0.042994354283993508 0.04122819193342691 -0.012235610214349286 0.014876706952730554 -0.014348603426356797 0.019926720954244855 -0.018183657349695858 0.0158073273445496 0.024123625491185158 0.002243752379872887 -0.0036982042432391901 -0.025153650939991404 -0.0106169806743038 0.00064414172077244432 -0.016611714014632614 -0.035156660780381141 -0.03533850236161367 -0.012387527404437972 -0.018396827844794596 -0.025671075955802009 0.0017790209249051959 -0.0047229238235017845 -0.017739521442807028 -0.0067071589231681369 0.030555396288508292 -0.033254947555698598
leaf_weight=8.7920277416706103 10.688331454992296 25.042938411235813 14.577598989009855 15.906633466482162 14.137624949216841 9.6369616389274615 8.9580227732658404 86.301193118095398 13.605589509010313 8.6986510455608386 11.118357509374617 14.55579549074173 10.533106297254564 11.780200541019438 9.3772482573986107 10.356926172971727 17.212724030017853 10.348417580127718 17.126953482627869 9.6016516387462598 11.23051503300667 9.6769599020481127 8.8109631836414319 10.093174546957014 9.7561150491237623 9.2219704687595385 14.728877305984499 12.032585293054579 11.696694999933241 10.239539980888368 17.98111376166344 272.92546275258064 277.02914777398109 21.978278994560242 30.607599824666977 13.340388834476469 133.19329792261124 10.358459174633024 10.349041670560839 10.157136231660841 12.849440306425093 8.8025166690349561 20.693920820951462 13.627118796110155 15.016224324703215 12.031884551048277 80.983711034059525 14.338033407926558 10.444555521011354 10.027927130460737 10.081794321537016 45.970146238803864 15.885481774806975 8.7737910747528058 16.388308018445969 22.563854992389679 12.944364368915556 46.133218914270401 10.512209981679915 13.937703490257261 9.8004625737667066 12.099391788244249 13.043296515941618 20.120351046323776 8.6828544139862007 14.602893710136415 8.4968915581703168 10.041516453027723 11.707487702369692 12.955177217721937 8.3757023811340314 11.915252476930617 9.4693981409072858 54.111833512783051
leaf_count=21 25 59 33 35 31 22 20 198 33 20 25 33 23 26 22 25 39 24 39 23 26 22 20 23 22 21 35 28 27 24 44 629 633 50 71 30 309 24 23 24 29 20 47 31 34 28 186 33 23 22 23 104 37 20 38 51 29 106 24 33 23 28 31 49 21 34 20 24 27 31 20 28 21 132
internal_value=0 -0.279664 0.076145 0.0383233 0.18299 -0.203935 0.0270611 0.0367532 -0.531356 0.00366318 0.16251 0.424674 0.317375 0.422427 0.223117 -0.255969 -0.206388 0.0512003 0.0293885 -0.172877 0.103755 0.217194 0.391834 -0.179826 -0.00416465 -0.262563 -0.299336 -0.187901 0.0370834 -0.232002 -0.416433 0.038145 0.0664412 -0.0237086 0.129098 0.358741 -0.0852482 -0.014615 0.221764 -0.0481433 0.17795 -0.0310667 0.378451 0.1221 0.106358 0.0766546 -0.0135341 0.282744 0.462846 0.189716 0.294783 0.200003 0.0332949 0.0107283 -0.102631 0.0824278 0.684866 -0.0554323 -0.360659 -0.327145 0.00423754 -0.26799 -0.445052 -0.557258 -0.45002 -0.390266 -0.144222 -0.294881 -0.18783 -0.252315 -0.590763 -0.305389 0.434834 -0.628783
internal_weight=0 395.006 1456.19 1075.48 380.706 303.645 1045.02 1014.48 91.3609 60.8544 366.568 30.4624 75.8578 54.391 30.9136 242.79 185.48 21.4668 996.051 41.3315 28.4432 28.1249 18.4879 32.7295 19.1334 157.037 138.015 78.2068 33.9688 22.2721 57.31 954.719 621.433 254.813 366.619 35.3187 219.494 333.287 41.4014 291.885 289.879 281.728 31.043 290.71 276.133 236.334 131.465 39.7988 25.4608 104.869 66.0799 56.0519 119.433 38.7892 30.0154 103.548 23.4775 76.7408 44.238 22.6364 19.0224 30.9532 59.8078 33.1636 33.7258 24.2045 20.5963 30.541 20.4995 23.6435 26.3568 26.6441 18.4274 67.7174
internal_count=4268 933 3335 2470 865 712 2402 2330 221 140 834 68 171 122 70 572 435 49 2289 96 65 64 42 76 44 370 326 183 79 52 137 2193 1426 587 839 80 507 767 94 673 662 649 70 663 630 540 302 90 57 238 149 127 274 89 69 237 52 177 104 53 44 73 143 80 80 57 48 72 48 56 64 63 41 165
shrinkage=0.05


Tree=10
num_leaves=75
num_cat=0
split_feature=2 4 3 2 4 5 5 4 3 5 6 6 3 4 4 3 6 5 7 4 4 1 8 4 4 7 6 6 8 3 6 8 0 0 4 6 5 8 5 6 7 0 3 5 2 4 6 6 7 5 5 6 0 5 5 4 2 7 4 0 8 5 4 4 5 2 7 6 0 0 5 5 5 6
split_gain=160.297 19.3466 14.2284 7.76455 7.22709 6.57347 13.8821 6.28221 5.21089 4.77994 4.76654 3.66259 3.57681 6.46058 2.77105 2.73732 2.65315 4.63297 2.76629 2.56472 2.49571 3.08147 2.42363 2.38295 2.39584 2.25379 2.19306 2.10919 2.87912 2.21068 2.1052 2.24228 2.02484 1.89011 2.16899 1.9329 1.87554 1.73412 1.69472 2.04803 1.65936 2.4083 1.56901 1.51793 2.14145 1.501 1.40871 1.29127 1.27037 1.25053 2.21257 1.42264 1.24495 1.22695 2.9885 2.20219 1.93083 1.19834 1.19125 1.12303 1.48921 1.51483 1.12147 1.16333 1.33302 1.1146 1.51186 1.47529 1.08216 1.53767 1.04233 1.02437 1.00349 0.995932
threshold=110495.00000000001 183999.50000000003 110195.00000000001 110935.00000000001 331345.00000000006 43476377.749365754 70225470.125646964 525675.00000000012 101595.00000000001 191539.40099675339 -47.493734335839598 -96.756661991584835 110785.00000000001 326356.50000000006 43227.000000000007 103425.00000000001 -8.2650273224043698 3932214.8253666661 102555.00000000001 467019.00000000006 260988.00000000003 110705.00000000001 110575.00000000001 876405.50000000012 822823.50000000012 110465.00000000001 -42.715700141442703 -74.862637362637358 103635.00000000001 103365.00000000001 -10.495716034271725 108855.00000000001 102625.00000000001 102415.00000000001 312491.50000000006 -74.322344322344307 55782078.765343957 110425.00000000001 49023376.021223985 -10.312600708991297 111222.50000000001 111342.50000000001 103715.00000000001 84598480.866431385 110265.00000000001 509037.50000000006 -71.291208791208774 -43.036099137931025 105215.00000000001 86636700.724916682 85381976.278247789 -64.08253205128203 110425.00000000001 35498289.951024599 28129150.638035361 458365.50000000006 106055.00000000001 111282.50000000001 525675.00000000012 101505.00000000001 101465.00000000001 1464755.6909999822 452833.50000000006 378983.00000000006 76178678.954576224 107365.00000000001 108965.00000000001 -68.599439775910341 110995.00000000001 110875.00000000001 1326456.0094968707 87758019.375432789 87057846.623698041 -5.5946791862284808
decision_type=2 10 2 2 10 10 10 10 2 8 2 2 2 10 10 2 2 10 2 10 10 2 2 10 10 2 2 2 2 2 2 2 2 2 10 2 10 2 10 2 2 2 2 10 2 10 2 2 2 10 10 2 2 10 10 10 2 2 10 2 2 10 10 10 10 2 2 2 2 2 10 8 10 2
left_child=2 68 5 10 49 8 11 30 59 14 12 -7 13 72 26 -13 18 -18 33 -15 71 22 -22 24 38 37 -10 28 29 -20 31 -8 -29 34 35 -11 -25 43 45 -40 46 57 -30 -6 -45 -17 -5 -34 -16 50 -4 -52 -51 54 55 -19 -55 -42 70 60 61 -1 63 -33 -65 -9 67 -67 69 -2 -35 -12 -3 -58
right_child=1 3 4 40 25 6 7 65 9 16 20 15 -14 19 48 23 17 53 27 -21 21 -23 -24 36 -26 -27 -28 32 42 -31 -32 62 47 58 -36 -37 -38 -39 39 -41 41 -43 -44 44 -46 -47 -48 -49 -50 52 51 -53 -54 56 -56 -57 73 -59 -60 -61 -62 -63 -64 64 -66 66 -68 -69 -70 -71 -72 -73 -74 -75
leaf_value=0.023847957435567099 0.052771932587706731 0.023050057975634641 0.008638957833536012 0.062235958553255026 -0.020760993243433775 0.028013704296452942 0.0062499611830021395 -0.035362663431883573 -0.023299534991385856 0.010582116610130997 0.047547508581879477 0.026181648134314159 -0.017219542280708496 -0.020735908374127879 0.0057835802818374535 6.3116594655850735e-05 -0.02966530702059746 0.0032066791023779581 -0.0061312622367102982 0.013812651353004322 0.012150612401027657 0.0090853031733131844 0.043038922782717828 -0.017975598052735454 0.025965956410353142 -0.021764181429820076 0.0059240970445887057 -0.035824806573360096 -0.036071770441592259 0.018182131730652019 0.017235798677794935 -0.016160936435627864 -0.019310642863301766 0.0093665373061333611 -0.031068727777992702 -0.014782718690192063 0.0086331824723460595 0.020452620980624715 -0.0038076542954686814 0.010173802516584902 0.031967576006153679 0.050308160422980357 -0.013631836299937045 0.02175376112881159 -0.0084215917299361714 0.013499695154029729 0.039878001837866342 -0.013663547636858188 0.029327440003829138 0.01977913424541378 0.015458429176004635 0.038592307815425692 -0.0018845294758396823 -0.022675673694444131 0.021041036607276548 -0.018396694636808372 0.013494917038000454 0.0072997245358734494 0.018914245839568973 0.017078639567434169 -0.014563334827779753 -0.0027565208634870481 -0.023840136743755014 -0.010267377585092406 0.014874226884643108 0.00050226183124314023 -0.027892238632835156 -0.021453709281203697 0.057269038141292888 0.034566932335342304 -0.014251925762600781 0.026894671995599875 0.046363602638941653 -0.0098532765294636893
leaf_weight=8.9297671616077441 34.890257984399796 9.0037754774093646 15.140327751636503 9.3173043429851514 9.5034093856811506 13.581910192966459 20.902395129203796 17.398475706577301 11.858893483877184 12.647830218076704 13.841032564640043 10.864006549119948 12.648365586996077 11.964369237422945 12.789097368717195 39.055071234703064 17.084237366914749 38.55238938331604 65.716017603874207 9.7488801181316358 9.9382427036762255 32.076679289340973 17.592282086610794 27.1041239798069 10.232537657022474 13.725585132837294 13.997227281332014 13.068583130836485 8.5010906755924207 10.89989399909973 9.2095900774002057 24.576875954866409 164.93629357218742 9.6763767004013115 10.177313059568403 18.492257684469227 8.7636547386646253 9.4259507060050947 151.10964581370354 31.68399515748024 9.7758603096008354 9.3971044123172742 93.09294667840004 9.3007636070251483 15.98376953601837 44.429510205984116 28.891869187355042 262.08360603451729 10.379457771778105 16.337359666824344 9.3934764266014046 22.718550175428394 11.163094550371168 15.183394342660902 16.135046929121017 16.997438132762909 8.8506435453891736 9.9184767305850965 10.647744745016096 14.658841013908384 11.021039366722105 13.348733246326445 16.514627456665039 13.359713315963747 8.709026634693144 12.125542074441908 39.20480340719223 20.732446193695068 45.45005464553833 17.375407814979553 9.0312052667140943 10.603488624095919 9.4707934260368329 9.4375356733798998
leaf_count=20 74 20 34 20 22 30 48 42 28 29 30 24 29 27 29 89 41 88 152 22 22 72 38 63 23 32 32 31 20 25 21 57 389 22 24 43 20 21 346 72 21 20 218 21 37 101 62 614 23 36 21 50 25 36 36 40 20 22 24 33 25 31 39 31 20 28 94 49 96 37 21 23 21 22
internal_value=0 0.666597 -0.12944 0.491478 0.183785 -0.158551 -0.0688405 -0.290764 -0.209872 -0.227757 0.354746 0.051557 0.11939 0.265356 0.0754656 0.0301819 -0.246082 -0.110312 -0.270171 -0.104484 0.502695 0.392347 0.637771 0.0130205 0.0444772 -0.0812997 -0.149586 -0.291594 -0.199811 -0.0534455 -0.109175 -0.158902 -0.328761 -0.0827491 -0.220595 -0.0896112 -0.229484 0.0285897 0.02623 -0.0276844 0.769587 0.589633 -0.310191 -0.0744985 0.0535646 0.144278 0.9066 -0.316895 0.326623 0.389248 0.487919 0.636503 0.219707 -0.0318419 0.0419688 -0.0680728 -0.18992 0.390887 0.111268 0.110934 0.00940407 0.158144 -0.252857 -0.17357 -0.00691402 -0.480088 -0.425242 -0.267026 1.03253 0.934396 -0.0407085 0.771775 0.70003 0.0289237
internal_weight=0 301.904 1560.45 204.189 132.692 1427.75 519.558 182.733 908.195 860.237 136.888 336.824 52.8362 40.1878 49.0247 323.243 811.212 122.241 688.971 21.7132 84.0517 59.6072 27.5305 312.379 276.511 57.9395 25.8561 618.298 178.21 76.6159 93.2722 84.0626 440.088 70.6727 41.3174 31.1401 35.8678 44.2139 266.278 182.794 67.3006 29.0914 101.594 34.7879 25.2845 83.4846 38.2092 427.02 23.1686 74.7528 47.2524 32.112 27.5005 105.156 71.6849 55.5498 33.4716 19.6943 29.3553 47.9584 33.2995 22.2785 63.1602 46.6456 22.0687 89.4613 72.0628 32.858 97.7157 52.2657 18.7076 24.4445 18.4746 18.2882
internal_count=4268 656 3612 449 299 3313 1197 429 2116 2007 304 768 119 90 112 738 1895 283 1612 49 185 132 60 714 631 133 60 1449 415 177 216 195 1034 163 96 72 83 101 608 418 145 63 238 80 58 190 82 1003 52 166 105 71 61 242 164 128 78 43 67 109 76 51 147 108 51 213 171 77 207 111 43 53 41 42
shrinkage=0.05


Tree=11
num_leaves=75
num_cat=0
split_feature=3 5 4 3 4 6 4 6 5 4 2 0 6 2 5 4 8 8 5 6 6 3 0 3 4 5 4 5 6 5 5 4 3 5 5 4 8 8 5 6 4 4 5 6 6 6 4 4 8 6 6 1 6 6 2 5 6 1 6 6 6 5 1 6 3 2 7 4 8 2 4 8 4 7
split_gain=51.9184 8.56029 7.69938 5.89809 5.36557 4.54753 4.10466 3.59236 3.92396 3.05077 3.975 4.83383 2.76832 2.71172 3.74819 2.94236 2.60837 2.57052 2.41423 3.10339 2.17173 2.56725 3.04714 2.27731 2.04306 2.02001 2.58577 2.00946 1.96394 1.9346 1.92585 1.88121 1.81128 2.24861 2.04417 1.51856 1.53603 1.653 1.48198 2.10756 1.82917 2.65956 1.4649 1.55034 2.5168 1.65965 2.71784 1.43777 2.34806 1.61461 2.75339 1.40595 1.50099 1.84815 1.38187 1.36714 1.33742 1.23826 1.22343 4.48214 2.29509 3.23435 1.73797 1.21716 1.21195 1.40699 2.16542 1.98641 1.64717 1.52207 1.18735 1.1835 2.2356 1.32242
threshold=110575.00000000001 45259044.399359487 250915.50000000003 106945.00000000001 187102.00000000003 -7.742257742257741 242047.00000000003 -11.0673665791776 3592695.3249766855 600727.50000000012 107955.00000000001 106820.00000000001 -2.2739018087855292 103355.00000000001 34839503.090086676 900317.50000000012 107925.00000000001 108115.00000000001 35681367.16202914 -6.396617566830332 -96.40705679862306 105875.00000000001 105925.00000000001 104955.00000000001 357216.00000000006 87666746.794213593 376026.50000000006 37804991.121502027 -81.782106782106766 33535070.100172106 85175107.958232865 402814.00000000006 106195.00000000001 7741550.9953951342 33356396.432148825 497694.50000000006 110765.00000000001 110675.00000000001 35681367.16202914 -57.052441229656417 725057.00000000012 672138.50000000012 3706711.0931941499 -52.570711075865709 -44.36507936507936 -82.807881773399004 112698.00000000001 143528.00000000003 102485.00000000001 -34.266144814090012 -14.946808510638297 103805.00000000001 -5.5946791862284808 -79.289318755256502 106595.00000000001 41247511.837232746 -24.35728411338167 103405.00000000001 -25.137362637362632 -46.966911764705877 -16.895273401297494 49774757.10365095 106505.00000000001 -81.782106782106766 108205.00000000001 109415.00000000001 109415.00000000001 289306.00000000006 109150.00000000001 109505.00000000001 484103.50000000006 102895.00000000001 86908.000000000015 102525.00000000001
decision_type=2 10 10 2 8 2 10 2 10 10 2 2 2 2 10 10 2 2 10 2 2 2 2 2 10 10 10 10 2 10 10 10 2 10 10 10 2 2 10 2 10 10 10 2 2 2 10 10 2 2 2 2 2 2 2 10 2 2 2 2 2 8 2 2 2 2 2 10 2 2 10 2 10 2
left_child=1 4 28 51 42 6 30 9 -9 10 11 20 18 14 -11 38 55 70 32 -20 -6 23 -23 -22 -7 26 -4 -17 -2 -14 -5 -12 33 -10 -35 36 37 -27 40 -40 41 -15 43 45 -45 46 -1 48 -46 -50 -51 -3 53 63 58 -13 -41 -44 59 62 -60 -62 -55 -53 -19 66 68 -67 -66 -69 -8 73 -73 -47
right_child=2 3 25 5 7 24 17 8 12 13 31 16 29 15 -16 27 -18 64 19 -21 21 22 -24 -25 -26 35 -28 -29 -30 -31 -32 -33 -34 34 -36 -37 -38 -39 39 56 -42 -43 57 44 47 71 -48 -49 49 50 -52 52 -54 54 -56 -57 -58 -59 60 -61 61 -63 -64 -65 65 67 -68 69 -70 -71 -72 72 -74 -75
leaf_value=-0.0088812403164259656 -0.0050911404895539409 -0.020728597031235745 -0.011943104119660009 0.0074946544636733427 -0.0070516353298328352 -0.024655686536907483 -0.00035728327598470353 0.032066154155601573 -0.015041228260543391 0.0047558342226019894 -0.0269432318912428 0.050687646685545089 -0.0049025185157896452 0.0058653359016365529 -0.022497931170950697 0.031786053827946449 0.013480394064443122 -0.0095365379048414061 -0.0024764212472115185 0.027378261465766104 0.011857032715677396 -0.020680695128019812 0.0078843264462967119 0.022517079428190236 -0.0035345269093071605 -0.015742292329750343 0.011748416187770318 0.0082438686950720742 -0.029108807429725349 -0.032623081563694388 -0.014975856125767718 0.0043838806321378574 -0.017173886646530905 0.014690232018481506 -0.0096383859531301141 -0.030505237987283447 -0.01793604567289625 0.01433301940367886 -0.020087575146806248 0.019172483422814964 -0.0021556843642684827 0.038725549723762659 0.020420081400967651 0.021763121740240962 0.019343884726905777 -0.011484380136999265 0.016306877105464929 -0.018641441583508347 -0.022563464422610285 0.014600284353961577 -0.013948397413615374 -0.0089791514370760831 -0.021395547100313043 0.0070949325788846806 -0.018063990682465385 0.027842140075963639 -0.0074113007702617658 0.00024592565859165157 0.027282302861439747 -0.018315318075535533 -0.022826631529447437 0.016261531030989162 -0.016335976501219245 -0.028087927691111642 0.010863484569814362 0.015276953455841312 0.029236756816215039 -0.015402037071605066 -0.0042848925401287458 0.0014908921650702092 0.01822288746436369 -0.018795031717210378 0.010031547669865677 -0.032961797556385765
leaf_weight=26.920541912317276 9.0500818789005262 17.496183604001999 30.352535963058472 12.892894357442854 15.646157979965208 19.191739588975906 10.219296813011168 9.5479849874973279 14.989498287439345 35.166421562433243 9.0105433464050311 12.463962078094484 16.380047708749775 17.643692284822468 19.673174858093262 18.552631855010986 16.852272301912308 15.21523857116699 16.505517333745956 18.417836666107178 232.45409399271011 10.671533226966856 74.602461189031601 63.865601062774658 28.381187736988068 8.9915641844272631 18.55940443277359 17.722823619842529 143.02091860771179 10.221646606922148 36.61544942855835 10.236379534006117 16.702422440052032 29.394823312759399 12.225108623504637 14.600596010684965 40.29025787115097 9.2880035638809186 13.63396707177162 9.3330727815628034 21.66299757361412 9.4585362374782544 14.064354211091997 14.549173921346663 14.421874761581419 25.935442864894867 17.784757822751999 10.020899116992949 9.1822100579738528 17.826393067836754 16.049613982439055 64.531891673803329 14.909702241420744 61.734379053115845 11.951360166072844 13.798418849706648 9.5954273641109484 16.564054310321808 10.570169478654863 32.591622471809387 9.5614728331565839 11.852419734001161 9.0779083669185621 9.5690838694572431 67.660763055086136 23.706209301948547 12.232199430465696 15.066295623779295 24.422466695308685 115.9781830906868 54.213246285915375 12.723614841699602 14.26822370290756 9.9040653109550458
leaf_count=59 20 39 67 28 34 43 22 20 33 76 20 26 36 38 44 39 36 33 36 39 498 23 160 136 62 20 40 38 325 23 81 22 37 63 27 33 90 20 30 20 47 20 30 31 31 57 38 22 20 39 35 142 33 134 26 29 21 36 23 72 21 26 20 21 146 51 26 33 53 252 116 28 31 22
internal_value=0 0.065782 -0.403436 -0.01987 0.12505 0.0507111 0.0864702 0.164126 0.0218106 0.196637 0.239193 0.258636 -0.0220579 0.0832142 -0.100424 0.168847 0.576659 0.125782 0.0489774 0.265366 0.224119 0.239091 0.0861917 0.283092 -0.241103 -0.216399 -0.0590694 0.405685 -0.553589 -0.311082 -0.182482 -0.205641 -0.054103 0.0312761 0.150883 -0.321569 -0.249641 -0.00921542 0.0632072 -0.101988 0.173515 0.346668 -0.0127233 -0.0455055 0.0580201 -0.124495 0.022783 -0.0232907 0.0376466 -0.0793244 0.0214925 -0.141041 -0.120793 -0.100114 -0.0353266 0.773689 0.113927 0.190195 -0.00655307 -0.0594216 0.16437 -0.0238329 0.0818233 -0.228936 0.0835588 0.0996681 0.189428 0.0391621 0.136916 -0.00902605 0.30552 -0.229286 -0.0711388 -0.348391
internal_weight=0 1686.29 274.153 689.641 996.644 435.795 388.222 776.429 144.385 632.044 459.601 440.355 134.837 172.443 54.8396 117.603 43.1147 338.714 108.235 34.9234 397.24 381.594 85.274 296.32 47.5729 122.082 48.9119 36.2755 152.071 26.6017 49.5083 19.2469 73.3119 56.6094 41.6199 73.1704 58.5698 18.2796 81.3277 32.5625 48.7652 27.1022 220.215 189.587 82.0502 107.537 44.7053 67.501 57.4801 43.0582 33.876 253.846 236.35 221.44 147.339 26.2624 18.9285 30.6284 135.388 103.404 31.9841 21.4139 70.8123 74.101 274.281 259.066 104.315 154.751 92.0832 131.044 64.4325 62.8313 26.9918 35.8395
internal_count=4268 3653 615 1503 2150 946 841 1671 314 1357 984 942 294 373 120 253 91 732 235 75 851 817 183 634 105 270 107 77 345 59 109 42 160 123 90 163 130 40 176 71 105 58 479 413 178 235 97 147 125 94 74 557 518 485 322 55 41 66 296 226 70 47 154 163 594 561 225 336 199 285 138 138 59 79
shrinkage=0.05


Tree=12
num_leaves=75
num_cat=0
split_feature=5 4 4 6 1 4 3 4 0 6 6 6 3 4 5 6 4 7 2 6 4 4 6 5 3 2 4 5 5 6 5 4 6 6 4 5 4 5 6 1 6 8 8 5 8 3 1 6 6 4 6 6 6 6 5 5 5 8 6 5 4 7 5 0 4 4 6 6 5 5 5 0 5 8
split_gain=36.7373 7.18996 5.4736 4.3082 3.7851 3.09951 3.0753 2.75377 2.43767 2.27628 2.19785 2.14427 2.01065 2.69429 2.39899 1.96955 1.8903 1.87983 2.01102 1.85251 2.75715 1.85875 1.84299 1.67866 1.66594 2.13696 1.86724 3.57989 2.92854 2.55349 1.63472 2.81675 1.5499 2.52473 1.72563 1.51622 1.51354 3.00081 3.67776 1.49026 1.45466 1.29666 1.68395 1.27391 1.36862 2.2522 2.74703 2.15829 2.57867 1.86344 2.53225 2.32584 1.79421 1.46974 1.26379 2.2271 1.24552 1.29839 1.23209 1.75301 1.97838 1.23155 1.22915 1.21847 1.4825 2.38519 1.08779 1.05621 0.968345 1.59705 0.868329 0.698939 1.29465 0.566254
threshold=84598480.866431385 177251.00000000003 607404.50000000012 -1.8350168350168348 109645.00000000001 437184.50000000006 101505.00000000001 105370.00000000001 110595.00000000001 -66.819571865443422 -92.18232747644511 -16.601049868766399 104165.00000000001 732175.50000000012 42356650.908297569 -1.0000000180025095e-35 206860.00000000003 110985.00000000001 111292.50000000001 -56.195175438596486 56738.500000000007 39106.500000000007 -6.396617566830332 36591853.368955664 110655.00000000001 110555.00000000001 260988.00000000003 87991018.189195767 88264670.15019311 -23.294573643410846 912912.32536719972 64713.000000000007 -90.807580878802497 -89.347517730496435 484103.50000000006 1233575.489999152 316400.00000000006 86295301.191609278 -29.008882655446467 107465.00000000001 -86.159003831417621 110685.00000000001 110445.00000000001 9959879.6972792465 107995.00000000001 104395.00000000001 104835.00000000001 -48.808848553601813 -75.424216278400905 766415.50000000012 -34.266144814090012 -54.132513661202175 -29.008882655446467 -48.808848553601813 34839503.090086676 38486891.520475805 87666746.794213593 110485.00000000001 -5.2402745995423334 19359248.503214944 357216.00000000006 110955.00000000001 87272499.991528049 107845.00000000001 298403.00000000006 212438.00000000003 -8.6785347483738438 -3.2002048131080385 24737709.923581012 40520560.957071207 70976.439480836198 101445.00000000001 1464755.6909999822 110625.00000000001
decision_type=8 10 10 2 2 10 2 10 2 2 2 2 2 10 8 2 10 2 2 2 10 10 2 10 2 2 10 10 8 2 10 10 2 2 10 8 10 10 2 2 2 2 2 10 2 2 2 2 2 10 2 2 2 2 10 10 10 2 2 10 10 2 10 2 10 10 2 2 10 10 10 2 8 2
left_child=2 8 3 6 11 16 71 19 -2 40 63 43 23 66 -15 -5 61 24 -19 30 21 -21 32 -13 25 36 28 29 -26 -28 31 70 -12 -34 -35 -22 56 -38 -39 -16 -7 42 -11 -4 45 49 -47 48 -46 54 51 -51 53 -48 -45 -56 57 -18 -24 67 -61 62 -3 64 65 -9 -14 -60 -66 -70 -8 72 -1 -27
right_child=1 5 4 15 -6 9 7 10 -10 41 22 12 13 14 39 -17 17 18 -20 20 35 -23 58 -25 26 73 27 -29 -30 -31 -32 -33 33 34 -36 -37 37 38 -40 -41 -42 -43 -44 44 47 46 52 -49 -50 50 -52 -53 -54 -55 55 -57 -58 -59 59 60 -62 -63 -64 -65 68 -67 -68 -69 69 -71 -72 -73 -74 -75
leaf_value=-0.023743735633560428 -0.0064729525804588092 -0.0064802717414319012 0.020217103524915087 0.032352946524848984 0.034017488987064519 -0.0017399169736711823 0.013943013154173839 -0.014490399766727538 -0.029480871694219753 -0.003096114223346338 0.019158557097290946 0.015747652654117188 0.044908857150223531 0.028301512339153019 -0.014577512422696044 0.0070105680008268377 -0.0080014845610769224 -0.030247210711489694 -0.0039200711506053474 0.0056903280825812072 0.025125118388848119 -0.02167375456862148 -0.016526094025026486 -0.012204842032250177 -0.036230903075506575 -0.03554293145556358 0.035022457171264579 -0.013954605867203396 -0.0002669906905175535 -0.0021183024588128526 0.036116826751822644 -0.0018783815950875503 -0.018852715939379178 0.0039131261207029496 -0.001485323198950115 0.0025295720221606482 -0.020692195374267187 0.024434556123266934 -0.017982447272984717 0.013333121384423059 0.023625711263364133 0.0044135107218079587 -0.030269983661353368 -0.0085356861980806775 0.0090625895272039344 -0.023573751362350376 0.00082648566124678417 -0.0018679615443010545 0.04126409203334138 0.016752367864767925 0.0363474104718369 -0.0098931173527390462 -0.014105277960345991 0.015219462991633851 0.026607198235049791 -0.0010907413950789575 -0.035450647679028217 -0.027488059323580578 -0.0021598265195706466 0.018680533529687328 -0.0048602608715112971 -0.012037923324789724 0.019598384218126211 0.0097566680903725788 -0.030795229979974664 0.020315618050630122 0.023381595911786963 -0.026252522049950044 0.0030497712416161006 -0.020691927603468219 0.034508315403096547 -0.025273378646811218 0.0017467283093485645 -0.019535318537580126
