tree
version=v3
num_class=3
num_tree_per_iteration=3
label_index=0
max_feature_idx=8
objective=multiclass num_class:3
feature_names=Column_0 Column_1 Column_2 Column_3 Column_4 Column_5 Column_6 Column_7 Column_8
feature_infos=[100970:111750] [101040:111825] [100970:111720] [101010:111765] [1:2681401] [-122634.80256141238:92866954.4066533] [-100:0] [101010:111765] [101010:111765]
tree_sizes=7742 7725 7745 7894 7869 7883 7893 7874 7855 7894 7863 7889 7895 7876 7881 7904 7898 7893 7880 7894 7896 7881 7889 7890 7898 7875 7914 7885 7883 7903 7713 7889 7875 7913 7874 7904 7907 7913 7888 7897 7884 7918 7886 7915 7895 7895 7915 7919 7881 7891 7906 7604 7919 7922 7502 7894 7919 6880 7904 7935 6665 7893 7735 7277 7914 7927 6450 7910 7944 7093 7908 7742 6640 7915 7543 6557 7901 7943 5835 7913 7934 5110 7880 7938 6036 7934 7412 4992 7925 7923 5835 7921 7934 5415 7919 7917 5537 7929 7515 5545 7907 7427 6042 7921 7114 4908 7945 6177 5647 7921 6173 7906 7919 5741 5421 7931 5864 5961 7934 5236

Tree=0
num_leaves=75
num_cat=0
split_feature=5 4 4 6 1 4 4 3 6 6 1 4 5 0 2 2 7 4 5 5 4 6 6 3 5 5 5 2 6 5 4 4 3 6 6 6 6 4 6 5 5 4 5 0 6 3 8 0 2 0 6 6 4 4 6 6 1 4 5 0 5 0 5 2 4 5 6 6 4 0 5 5 3 0
split_gain=50.6281 8.94679 7.457 5.57651 5.3643 4.83933 4.05803 3.7404 3.11639 2.74949 2.66347 3.26002 2.92638 2.63987 4.26337 2.60411 2.30878 2.16472 2.62953 1.85335 2.97016 2.36107 1.8369 3.0443 3.5643 3.37545 1.92695 3.27536 3.60375 2.72657 4.52879 3.73933 2.30952 2.0905 1.79709 1.71363 2.46887 4.31338 1.62414 1.61248 3.21846 1.5962 1.53044 1.44299 1.41006 3.42128 2.63707 5.77195 2.02436 1.40376 1.26624 1.21944 1.04241 1.01327 1.00518 0.925044 0.883433 0.876701 0.852181 0.785626 1.54606 0.767849 0.72828 0.688332 0.681051 0.60906 0.564033 0.553203 0.500027 0.230878 0.175907 0.12072 0.185576 0.105159
threshold=84598480.866431385 177833.50000000003 610297.50000000012 -1.7467581998474444 109645.00000000001 415006.00000000006 37752.000000000007 101505.00000000001 -1.0000000180025095e-35 -16.601049868766399 103985.00000000001 720121.50000000012 44598452.834729023 110965.00000000001 110775.00000000001 110655.00000000001 110895.00000000001 577566.50000000012 41683162.959783874 170551.51845768301 114130.50000000001 -92.805383022774308 -97.937925170068013 103185.00000000001 34858055.660613038 33782863.273489624 50490448.193018459 105185.00000000001 -30.690737833594973 38823962.263591357 951206.50000000012 754254.50000000012 104025.00000000001 -64.839839839839826 -30.407264722069339 -6.3660925363053016 -37.617924528301877 357216.00000000006 -64.031249999999986 3868213.2846894665 748184.07117868017 242717.00000000003 86589047.803426042 103425.00000000001 -66.819571865443422 110765.00000000001 110685.00000000001 110425.00000000001 110345.00000000001 105155.00000000001 -45.368782161234982 -54.494949494949488 274708.50000000006 696586.50000000012 -8.6785347483738438 -52.570711075865709 107465.00000000001 299200.00000000006 87656652.722785026 101445.00000000001 1472349.5375830398 111302.50000000001 33375605.458962899 111292.50000000001 539453.50000000012 89465370.956634924 -24.828767123287665 -22.173058013765974 85976.500000000015 105005.00000000001 57947405.287810393 88939163.047291502 110955.00000000001 111065.00000000001
decision_type=8 10 10 2 2 10 10 2 2 2 2 10 10 2 2 2 2 10 10 10 10 2 2 2 10 8 10 2 2 10 10 10 2 2 2 2 2 10 2 10 10 10 8 2 2 2 2 2 2 2 2 2 10 10 2 2 2 10 8 2 8 2 10 2 10 8 2 2 10 2 10 10 2 2
left_child=2 15 3 6 9 13 50 59 -5 22 43 54 -13 14 35 65 -16 19 62 49 39 57 -4 24 25 -24 29 -28 33 30 31 -25 55 -29 -23 36 37 38 58 40 -21 51 -40 -11 46 48 47 -7 -46 -9 -1 -15 67 -34 -12 -31 -14 -22 -3 60 -8 -53 -19 -43 -50 -2 -54 -38 -17 -32 -20 -70 -73 -74
right_child=1 5 4 8 -6 44 7 17 -10 10 11 12 56 41 16 68 -18 18 70 20 21 34 23 26 -26 -27 27 28 -30 32 69 -33 53 -35 -36 -37 52 -39 42 -41 -42 63 -44 -45 45 -47 -48 -49 64 -51 -52 61 66 -55 -56 -57 -58 -59 -60 -61 -62 -63 -64 -65 -66 -67 -68 -69 71 -71 -72 72 73 -75
leaf_value=-1.1164596198111556 -1.1552107944903551 -1.1667742871083935 -1.1602645727410958 -1.1053884288678075 -1.1068009186148386 -1.1561417536418073 -1.1740073030720575 -1.1478961154432303 -1.1395255433325537 -1.1330539666857917 -1.0970480132186724 -1.1157381264687802 -1.1550728746160659 -1.1797542630286415 -1.1272820199467879 -1.1711488151632174 -1.1561417536418073 -1.15253428692993 -1.1718084662191037 -1.1445978601637996 -1.1465218424101342 -1.1437809241313597 -1.1195860909614495 -1.1436714983414904 -1.0984222862517685 -1.1587653657959001 -1.1080421974834416 -1.1422890814681981 -1.1665312577720144 -1.1475618328135584 -1.1561417536418073 -1.118766032954815 -1.148720679263088 -1.1244433576161303 -1.1486114655121136 -1.1475618328135584 -1.1714204361862295 -1.1314048390460765 -1.1705716204893171 -1.1520189345425189 -1.1202857208692074 -1.1850014873368269 -1.1465218424101342 -1.1619137003808113 -1.1448488143698432 -1.1328677748555014 -1.1583617331568088 -1.0984222862517685 -1.1805615283068238 -1.1721749390279292 -1.1398297302489704 -1.1524417877834716 -1.1696096293661498 -1.1644438688143472 -1.119036381748211 -1.1272820199467879 -1.1348106461280973 -1.1600095530029955 -1.1850014873368269 -1.1753815761051536 -1.1465218424101342 -1.169944234974208 -1.1348106461280973 -1.1685102109396728 -1.1619137003808113 -1.1711488151632174 -1.1827379788117272 -1.1571369168726702 -1.1850014873368269 -1.1676856471198152 -1.1630131188072881 -1.1850014873368269 -1.173457593858819 -1.1807259712338609
leaf_weight=13.860141754150392 13.427012324333189 24.688377499580387 12.12762403488159 12.560753464698792 13.427012324333189 8.6625885963439995 9.0957180261611956 12.127624034881594 14.29327118396759 8.6625885963439959 9.0957180261611956 12.993882894515989 11.694494605064394 9.5288474559783918 13.860141754150392 10.828235745429991 13.860141754150389 13.860141754150392 15.159530043601992 25.987765789031982 16.892047762870789 468.21291363239288 12.993882894515993 35.083483815193176 8.6625885963439924 9.5288474559783953 9.0957180261611921 43.312942981719971 10.828235745429991 16.025788903236393 8.6625885963439959 26.420895218849182 15.159530043601988 26.420895218849182 327.01271951198578 16.025788903236389 14.726400613784792 12.12762403488159 10.395106315612791 12.12762403488159 28.586542367935181 20.790212631225589 18.191436052322391 8.6625885963439924 9.961976885795595 13.427012324333189 11.261365175247191 8.6625885963439924 11.261365175247194 11.69449460506439 9.9619768857955915 16.892047762870792 12.993882894515989 31.618448376655579 12.12762403488159 8.6625885963439924 9.9619768857955915 42.013554692268372 8.6625885963439888 10.395106315612791 11.694494605064394 9.9619768857955915 9.9619768857955915 9.0957180261611921 8.6625885963439924 10.828235745429994 22.089600920677185 12.56075346469879 31.185318946838379 8.6625885963439924 9.0957180261611921 14.726400613784788 8.6625885963439959 11.69449460506439
leaf_count=32 31 57 28 29 31 20 21 28 33 20 21 30 27 22 32 25 32 32 35 60 39 1081 30 81 20 22 21 100 25 37 20 61 35 61 755 37 34 28 24 28 66 48 42 20 23 31 26 20 26 27 23 39 30 73 28 20 23 97 20 24 27 23 23 21 20 25 51 29 72 20 21 34 20 27
internal_value=0 -0.305729 0.0888311 0.0466769 0.211295 -0.223348 0.035144 0.0256513 0.496644 0.187923 0.360691 0.466911 0.277869 -0.289943 -0.227177 -0.56449 0.13357 0.0363637 -0.170627 0.0468983 0.0540226 0.0381516 0.143278 0.160309 0.454234 0.244569 0.12211 0.238134 0.173912 0.052896 0.181141 0.308354 -0.0885623 0.257255 0.0524611 -0.292767 -0.329102 -0.205658 -0.312444 0.257255 0.330549 -0.460601 -0.137536 0.0181312 0.00491832 -0.108852 0.177297 0.422167 -0.297235 -0.228488 0.443156 -0.31994 -0.475691 -0.21916 0.775552 0.158886 0.0527629 -0.155027 -0.462365 -0.315359 -0.203127 -0.210885 0.0653562 -0.63184 -0.481268 -0.278712 -0.589705 -0.329102 -0.654398 -0.270466 -0.402396 -0.686952 -0.646712 -0.584853
internal_weight=0 419.702 1444.49 1074.59 369.893 318.35 1047.74 1023.92 26.854 356.466 73.1989 55.8737 34.6504 246.451 180.182 101.352 27.7203 992.733 48.0774 944.655 920.833 854.131 283.267 271.139 31.1853 22.5227 239.954 89.6578 80.5621 150.296 78.8296 61.5044 71.4664 69.7338 795.226 152.462 136.436 74.0651 61.9375 66.7019 54.5743 66.2688 28.5865 17.3252 71.8995 43.3129 28.5865 17.3252 29.8859 23.8221 23.8221 36.3829 62.3706 46.778 21.2233 24.6884 21.6565 58.9056 33.351 31.1853 20.7902 26.854 23.8221 29.8859 19.924 24.2552 35.0835 27.2872 77.097 17.3252 24.2552 66.2688 35.0835 20.3571
internal_count=4304 969 3335 2481 854 735 2419 2364 62 823 169 129 80 569 416 234 64 2292 111 2181 2126 1972 654 626 72 52 554 207 186 347 182 142 165 161 1836 352 315 171 143 154 126 153 66 40 166 100 66 40 69 55 55 84 144 108 49 57 50 136 77 72 48 62 55 69 46 56 81 63 178 40 56 153 81 47
shrinkage=1


Tree=1
num_leaves=75
num_cat=0
split_feature=7 4 3 4 0 1 5 5 4 3 4 5 6 6 5 8 3 6 5 7 4 8 4 6 0 4 3 0 4 6 0 6 4 5 6 2 8 6 4 6 4 4 7 1 5 5 2 4 1 4 6 4 5 6 8 0 7 8 5 0 8 5 7 8 6 6 0 5 0 6 2 7 6 2
split_gain=217.028 27.2342 22.2318 10.2356 8.64488 10.6337 7.8043 16.7644 7.10554 6.21145 5.14031 4.99579 4.60315 4.52899 3.86777 3.62064 3.41822 3.08283 5.11643 3.18501 3.02069 2.51944 2.48178 2.39012 3.16881 2.29336 2.21871 2.14267 2.2861 2.04657 2.04209 1.95298 1.93516 1.91723 1.91446 3.06925 1.9884 1.83559 1.86831 1.78874 1.59242 4.07869 1.58886 1.54331 1.47558 3.28301 2.18083 1.69663 1.54043 1.42408 1.37752 1.37118 1.85768 1.34267 1.30045 3.3585 2.76128 1.49035 1.28561 1.27406 1.41123 1.86758 1.22666 1.85148 1.70864 1.22548 1.7626 1.69066 1.67312 1.18397 1.0463 1.75709 1.21362 0.994424
threshold=110585.00000000001 177833.50000000003 110195.00000000001 322025.50000000006 110965.00000000001 110665.00000000001 43476377.749365754 70225470.125646964 488543.00000000006 101595.00000000001 296632.50000000006 199168.05605627716 -38.616427432216902 -96.756661991584835 87984544.552111492 111182.50000000001 103425.00000000001 -8.2650273224043698 3942607.2735236529 102555.00000000001 42975.500000000007 108765.00000000001 551104.00000000012 -74.862637362637358 103615.00000000001 1101613.0000000002 103365.00000000001 102415.00000000001 312737.00000000006 -74.322344322344307 102625.00000000001 -42.715700141442703 245337.50000000003 74847244.436512277 -10.312600708991297 106535.00000000001 108705.00000000001 -14.946808510638297 434691.50000000006 -65.83822167335596 287155.00000000006 268031.50000000006 105215.00000000001 103875.00000000001 35516628.523594648 25502720.030836236 106055.00000000001 507889.00000000006 105715.00000000001 368814.00000000006 -43.036099137931025 524691.50000000012 1264243.3536850347 -47.493734335839598 111455.00000000001 111342.50000000001 111282.50000000001 111222.50000000001 87459834.798989803 101505.00000000001 101465.00000000001 1472349.5375830398 110335.00000000001 110415.00000000001 -50.213675213675209 -26.278462112728626 110445.00000000001 86049842.90829064 110305.00000000001 -5.5946791862284808 107365.00000000001 108965.00000000001 -68.588039867109629 109415.00000000001
decision_type=2 10 2 10 2 2 10 10 10 2 10 8 2 2 10 2 2 2 10 2 10 2 10 2 2 10 2 2 10 2 2 2 10 10 2 2 2 2 10 2 10 10 2 2 10 10 2 10 2 10 2 10 10 2 2 2 2 2 8 2 2 10 2 2 2 2 2 10 2 2 2 2 2 2
left_child=2 -2 6 40 5 -3 9 13 21 59 12 20 -7 -8 53 -6 -15 19 -19 27 31 -9 65 24 26 32 -21 28 29 -13 -25 -11 -18 -23 36 -36 -34 38 39 -35 41 62 -22 -26 45 47 -46 -20 -47 -16 -32 52 -29 -12 55 56 57 -17 -14 60 61 -1 -4 -64 -65 66 68 -67 -5 -48 -10 72 -72 -73
right_child=1 4 3 22 15 10 7 8 70 11 14 17 58 16 49 54 25 18 44 23 42 33 -24 30 43 -27 -28 51 -30 -31 50 -33 34 37 35 -37 -38 -39 -40 -41 -42 -43 -44 -45 46 48 69 -49 -50 -51 -52 -53 -54 -55 -56 -57 -58 -59 -60 -61 -62 -63 63 64 -66 67 -68 -69 -70 -71 71 73 -74 -75
leaf_value=-1.0974747131005802 -1.0596825774157792 -1.0715286646550966 -1.1098707448543048 -1.1327866522044336 -1.0642011541826877 -1.1163135888011473 -1.0917792390515717 -1.1054483767691923 -1.1576486345748886 -1.1474683186418781 -1.1444132750906857 -1.1129899699927073 -1.067912490655726 -1.0936777304012413 -1.0907887218256571 -1.0950337956510052 -1.1394141129160074 -1.1544294535906665 -1.1233799337751034 -1.1303446711742706 -1.1197054343886461 -1.1445918165969242 -1.1469815259881166 -1.160124927639675 -1.160124927639675 -1.1401907684681449 -1.1072383828988808 -1.1088656611985974 -1.1553786992655013 -1.1389324660619686 -1.1439779651295992 -1.1197054343886461 -1.1214346105705084 -1.1079164155237626 -1.0971111722038349 -1.1246864224458437 -1.1445918165969242 -1.1058823176491168 -1.1497695202778413 -1.1336343506675419 -1.0852701258527047 -1.1316475573946321 -1.0944079193818832 -1.1381986895167311 -1.1474683186418781 -1.1202566092966146 -1.1088656611985974 -1.1458862425171537 -1.0926230129847581 -1.115251495738395 -1.1382335290148211 -1.1031701871495889 -1.1403145831213843 -1.1221551006462842 -1.1031701871495889 -1.0570639686576142 -1.1135255945114226 -1.0669262613831703 -1.0911797154674654 -1.1048960883765613 -1.1373430314436406 -1.1270544331615606 -1.0814731431533655 -1.0889315020270673 -1.1174088722721105 -1.12757936164534 -1.1391416021959591 -1.0987890532657361 -1.1067298584302192 -1.1342364092350905 -1.1256069031002289 -1.160124927639675 -1.1438521446425076 -1.145685697656273
leaf_weight=8.7789005041122454 89.105840116739273 23.703031361103058 14.924130856990812 10.973625630140306 25.019866436719894 17.118855983018875 13.168350756168364 10.973625630140303 20.19147115945816 11.851515680551531 12.729405730962755 12.729405730962752 9.2178455293178541 10.534680604934691 10.095735579729082 9.2178455293178612 14.4851858317852 17.557801008224487 40.821887344121933 67.158588856458664 13.607295781373979 19.313581109046936 11.412570655345915 13.607295781373976 8.7789005041122419 17.557801008224487 12.290460705757139 8.778900504112249 10.534680604934691 18.874636083841327 170.31066977977753 13.607295781373976 231.32402828335762 10.534680604934687 20.630416184663773 19.752526134252548 9.6567905545234662 9.2178455293178541 9.6567905545234662 18.874636083841331 15.363075882196425 10.534680604934691 11.412570655345915 93.495290368795395 15.802020907402037 8.7789005041122454 8.7789005041122419 10.534680604934691 11.851515680551527 14.4851858317852 269.51224547624588 10.534680604934691 10.095735579729078 14.4851858317852 10.534680604934691 9.2178455293178541 9.6567905545234662 9.6567905545234662 16.679910957813266 14.4851858317852 10.973625630140303 13.607295781373976 18.435691058635712 10.534680604934687 10.534680604934698 9.2178455293178576 16.679910957813263 11.412570655345915 14.046240806579588 9.6567905545234698 14.4851858317852 19.313581109046936 24.580921411514282 31.165096789598465
leaf_count=20 203 54 34 25 57 39 30 25 46 27 29 29 21 24 23 21 33 40 93 153 31 44 26 31 20 40 28 20 24 43 388 31 527 24 47 45 22 21 22 43 35 24 26 213 36 20 20 24 27 33 614 24 23 33 24 21 22 22 38 33 25 31 42 24 24 21 38 26 32 22 33 44 56 71
internal_value=0 0.81097 -0.141654 0.219557 0.598758 0.431799 -0.179923 -0.0825225 -0.32152 -0.235022 0.282029 -0.25408 0.537529 0.05098 0.0698342 0.868692 0.0276106 -0.272645 -0.127067 -0.298144 0.051367 -0.0919537 -0.0494536 -0.320676 -0.223777 0.00877749 -0.0739526 -0.0981222 -0.242693 -0.108216 -0.359511 -0.191139 0.0296167 -0.164103 0.0479674 0.24947 0.0142 -0.0575899 -0.152301 -0.0269874 0.466518 0.398048 0.298127 -0.340164 -0.0444103 0.0368716 -0.215311 -0.0984805 0.373812 0.357366 -0.347707 0.109024 -0.0522918 -0.189872 0.70871 0.795407 0.625867 0.848388 0.803489 0.115887 0.00835765 0.152361 0.508283 0.600554 0.398048 0.0290454 -0.0695804 0.228396 0.0982862 0.0183497 -0.48589 -0.439522 -0.280289 -0.562754
internal_weight=0 280.925 1608.29 154.07 191.819 118.515 1454.22 525.417 188.307 928.808 94.8121 880.963 43.0166 337.11 51.7955 73.3038 323.941 830.484 123.782 706.701 50.4787 78.5712 73.7428 635.153 181.723 313.407 79.449 71.548 42.1387 31.604 453.43 25.4588 295.849 67.5975 281.364 40.3829 240.981 48.284 39.0661 29.4093 80.3269 64.9639 25.0199 102.274 106.225 71.987 34.2377 51.3566 20.6304 24.5809 439.823 29.4093 18.8746 27.2146 48.284 37.7493 28.5314 18.8746 25.8978 47.845 33.3598 22.3862 54.4292 39.5051 21.0694 62.3302 41.6998 20.6304 25.0199 18.4357 109.736 89.5448 39.0661 50.4787
internal_count=4304 640 3664 351 437 270 3313 1197 429 2116 216 2007 98 768 118 167 738 1892 282 1610 115 179 168 1447 414 714 181 163 96 72 1033 58 674 154 641 92 549 110 89 67 183 148 57 233 242 164 78 117 47 56 1002 67 43 62 110 86 65 43 59 109 76 51 124 90 48 142 95 47 57 42 250 204 89 115
shrinkage=1


Tree=2
num_leaves=75
num_cat=0
split_feature=2 5 4 3 4 6 4 6 5 4 4 2 0 5 2 6 8 5 4 6 0 5 3 3 0 3 6 4 6 7 2 4 1 5 2 5 6 1 4 5 1 3 1 6 6 4 5 6 4 6 8 6 4 4 0 4 2 7 6 2 6 6 6 0 4 3 6 6 6 1 6 3 5 8
split_gain=63.7721 10.4285 10.1377 7.59391 6.74719 6.65806 4.44824 4.43618 5.01833 4.10524 3.79976 4.64094 6.12259 3.72732 5.60574 3.50919 3.29166 3.23071 3.14034 2.82935 2.53421 2.48882 3.78836 2.48258 3.27168 3.19214 2.43489 2.39189 2.34127 2.2542 2.25136 2.1785 2.17739 2.12702 1.83472 1.77574 2.03351 4.26616 1.74627 1.73275 3.79591 1.72672 1.62453 1.63039 2.04212 1.60638 1.57087 1.56944 2.44171 2.82959 2.57277 1.7709 3.73649 1.56071 1.65837 1.54835 2.3519 3.0657 2.31856 2.23884 1.71817 1.52776 4.67755 3.82907 1.59922 1.54609 1.50925 1.49145 1.43756 1.32283 1.31571 1.24147 2.40178 1.22052
threshold=110495.00000000001 45259044.399359487 249308.50000000003 106945.00000000001 184585.00000000003 -12.403846153846152 242717.00000000003 -11.0673665791776 3623442.4077645694 720121.50000000012 605353.50000000012 107955.00000000001 106820.00000000001 34858055.660613038 103355.00000000001 -2.1054964539007091 107925.00000000001 87830607.701678395 893202.00000000012 -96.40705679862306 107385.00000000001 7930645.5520506995 106195.00000000001 105875.00000000001 105925.00000000001 104945.00000000001 -21.26329787234042 163088.00000000003 -81.782106782106766 105875.00000000001 102595.00000000001 402670.50000000006 106505.00000000001 21143437.455984648 110555.00000000001 11315246.458610395 -31.530214424951264 105385.00000000001 304645.50000000006 3868213.2846894665 103405.00000000001 111482.50000000001 103805.00000000001 -5.5946791862284808 -79.289318755256502 772472.00000000012 41255746.416248441 -52.88568257491675 147740.50000000003 -43.036099137931025 102485.00000000001 -82.807881773399004 114130.50000000001 357216.00000000006 110365.00000000001 287155.00000000006 109415.00000000001 109415.00000000001 -37.617924528301877 109505.00000000001 -73.655292076344693 -46.966911764705877 -30.407264722069339 106465.00000000001 754254.50000000012 106005.00000000001 -55.437077702702695 -16.767068273092367 -68.588039867109629 105215.00000000001 -57.052441229656417 110635.00000000001 87201635.244784072 102895.00000000001
decision_type=2 10 10 2 8 2 10 2 10 10 10 2 2 10 2 2 2 10 10 2 2 10 2 2 2 2 2 10 2 2 2 10 2 10 2 10 2 2 10 10 2 2 2 2 2 10 8 2 10 2 2 2 10 10 2 10 2 2 2 2 2 2 2 2 10 2 2 2 2 2 2 2 10 2
left_child=1 4 28 42 39 6 27 10 -9 53 11 12 19 30 -15 21 46 26 45 -6 -8 -10 29 25 -25 -21 34 -5 -2 69 -12 -13 -24 -17 -4 -32 37 -37 -28 47 -41 -30 -3 44 -44 70 -14 51 49 -49 -51 52 -1 54 -7 58 57 66 -22 -58 -61 63 -63 65 67 68 -57 -64 -46 -23 -16 -36 -73 -53
right_child=2 3 17 5 7 9 20 8 15 -11 13 31 16 14 18 33 -18 -19 -20 23 55 22 32 24 -26 -27 38 -29 41 -31 35 -33 -34 -35 71 36 -38 -39 -40 40 -42 -43 43 -45 61 -47 -48 48 -50 50 -52 73 -54 -55 -56 56 59 -59 -60 60 -62 62 64 -65 -66 -67 -68 -69 -70 -71 -72 72 -74 -75
leaf_value=-1.0383054996282108 -1.0342046386816832 -1.0505838170184063 -1.0436681639429009 -1.0174463126982767 -1.0362325369519441 -1.0424514249807444 -1.0020286527935429 -0.99114559874314245 -1.0442417109284292 -1.0129117068439433 -1.0343480254280653 -1.0564439230455449 -0.97105380665009555 -1.0546722630838519 -1.0389364013122921 -1.0310501302612773 -1.0129117068439433 -1.0465313324136516 -1.0097108085938256 -1.0153998802351878 -0.99161877500620332 -1.0129117068439433 -1.0537231595329448 -1.0483999265735098 -1.0186574186096826 -1.0028060137971428 -1.0618854500707451 -1.0445862671398847 -1.0598326584384838 -0.99312433584321524 -1.0272315148049964 -1.0228053923443072 -1.0270193695018697 -1.0598214225784277 -1.006381874413703 -0.98896898793306232 -1.0270193695018697 -1.0194415392741836 -1.0335519817671164 -0.99616854676640421 -1.034677814944744 -1.0389364013122921 -1.0406200959906682 -1.0508375012620053 -1.0141771782451525 -1.0491885536786112 -0.99602420917952883 -1.0038424951352762 -1.0463980269990214 -1.0095107524531932 -1.0339357885322167 -1.046126222452308 -1.0084996579045917 -1.0368544257548242 -1.0673269770959453 -1.0258304400692386 -1.0462630015145251 -0.99332220955322248 -1.0247411134204654 -1.0365258807268876 -1.0211773175151335 -1.0523158680609102 -1.0206853168799435 -1.0531316892041187 -1.0074701798187431 -1.0051380968079429 -1.0153073476726477 -1.0401193419699442 -1.031616955993069 -1.030095476397207 -1.0149270872236471 -1.0410575362846339 -1.0110353182145639 -1.0322203511269117
leaf_weight=27.565791606903076 10.566886782646177 17.917764544487 10.566886782646177 11.026316642761229 16.080045104026794 16.080045104026798 18.377194404602051 9.1885972023010236 15.16118538379669 12.864036083221434 15.16118538379669 9.1885972023010272 11.945176362991331 19.755483984947205 10.566886782646177 12.404606223106386 16.539474964141846 72.130488038063049 23.430922865867615 231.09321963787079 10.566886782646181 31.241230487823486 11.026316642761229 10.566886782646177 73.968207478523254 64.320180416107178 9.1885972023010272 30.781800627708435 153.44957327842712 10.107456922531126 17.458334684371948 10.107456922531126 24.809212446212769 13.323465943336485 11.48574650287628 22.971493005752563 12.404606223106383 22.971493005752563 13.323465943336485 11.945176362991335 13.782895803451536 10.566886782646177 74.887067198753357 15.16118538379669 19.755483984947201 11.026316642761229 13.323465943336489 16.539474964141846 11.945176362991331 14.701755523681639 40.429827690124512 35.376099228858948 16.998904824256897 34.457239508628845 11.48574650287628 63.860750555992126 14.242325663566588 11.48574650287628 10.566886782646177 24.349782586097717 72.589917898178101 26.646931886672974 19.29605412483215 10.566886782646177 9.1885972023010236 12.864036083221434 73.049347758293152 20.214913845062259 29.403511047363285 17.458334684371948 12.404606223106386 13.323465943336489 13.323465943336485 28.484651327133179
leaf_count=60 23 39 23 24 35 35 40 20 33 28 33 20 26 43 23 27 36 157 51 503 23 68 24 23 161 140 20 67 334 22 38 22 54 29 25 50 27 50 29 26 30 23 163 33 43 24 29 36 26 32 88 77 37 75 25 139 31 25 23 53 158 58 42 23 20 28 159 44 64 38 27 29 29 62
internal_value=0 0.0786047 -0.410289 -0.0175286 0.143975 0.0658881 0.125199 0.187928 0.0301553 -0.204102 0.224444 0.271723 0.292876 0.0959124 -0.0657193 -0.018331 0.656828 -0.213219 0.0923441 0.254454 0.167907 0.0595584 0.119816 0.271842 0.120735 0.315083 -0.062125 -0.18033 -0.572095 0.275996 0.233054 -0.208235 -0.136479 -0.350752 0.0635965 0.303409 0.387129 0.484134 -0.334094 -0.0114352 0.232269 -0.601489 -0.153062 -0.1312 -0.109609 -0.101786 0.883839 -0.0440846 0.0588578 0.128621 0.0197904 -0.123472 0.0295141 -0.310732 -0.488085 0.144355 0.123163 0.205555 0.40464 0.0131947 0.0675865 -0.0414971 -0.141243 0.0620369 0.0430624 0.156836 0.163924 -0.0443268 0.0760704 0.186801 0.0488119 0.165772 0.0473108 -0.230233
internal_weight=0 1659.46 317.925 671.686 987.774 415.784 340.897 770.004 144.72 74.8871 625.284 457.133 437.837 168.151 77.1842 135.532 41.8081 143.342 57.4287 396.029 299.089 109.804 94.6426 379.948 84.5351 295.413 71.2116 41.8081 174.583 58.807 90.9671 19.2961 35.8355 25.7281 48.6996 75.8059 58.3476 45.943 22.5121 217.77 25.7281 164.016 255.902 237.985 222.823 33.9978 25.2686 192.042 83.6162 71.6711 55.1316 108.425 44.5647 62.023 27.5658 280.712 259.578 148.396 21.1338 111.182 96.9397 147.936 75.3465 72.5899 48.6996 62.023 136.91 39.511 49.159 48.6996 22.9715 38.1327 26.6469 63.8608
internal_count=4304 3612 692 1462 2150 905 742 1676 315 163 1361 995 953 366 168 295 91 312 125 862 651 239 206 827 184 643 155 91 380 128 198 42 78 56 106 165 127 100 49 474 56 357 557 518 485 74 55 418 182 156 120 236 97 135 60 611 565 323 46 242 211 322 164 158 106 135 298 86 107 106 50 83 58 139
shrinkage=1


Tree=3
num_leaves=75
num_cat=0
split_feature=5 4 4 6 1 4 4 3 6 6 2 0 2 1 4 7 4 5 5 4 6 6 3 5 5 5 3 6 5 4 4 3 6 6 6 6 4 6 6 5 4 4 5 5 0 1 0 6 3 8 0 2 6 6 4 6 6 4 5 0 5 7 5 7 4 1 8 6 6 4 0 5 5 3
split_gain=47.3776 8.50008 6.92418 5.12859 4.93438 4.53913 3.73579 3.53094 2.85107 2.56619 2.54109 2.51341 4.04215 2.49749 3.08026 2.16747 2.06638 2.52102 1.73532 2.7611 2.24353 1.71669 2.82097 3.18631 3.1327 1.81031 3.06421 3.75175 2.58041 4.27116 3.76268 2.18602 1.83014 1.69933 1.63917 2.39582 4.07296 1.57082 1.54887 2.09031 2.36385 1.53478 1.51686 3.92562 1.49018 1.37584 1.33736 1.30604 3.24345 2.43727 5.34795 1.93804 1.17771 1.12645 1.01493 0.993914 0.861989 0.853247 0.840539 0.768671 1.46658 0.749449 0.690896 0.68075 0.659787 0.640486 0.622515 0.5533 0.536844 0.49956 0.410617 0.16916 0.119448 0.183612
threshold=84598480.866431385 177833.50000000003 610297.50000000012 -1.7467581998474444 109645.00000000001 415006.00000000006 37752.000000000007 101505.00000000001 -1.0000000180025095e-35 -16.601049868766399 110655.00000000001 110965.00000000001 110775.00000000001 103985.00000000001 970035.00000000012 110895.00000000001 577566.50000000012 41683162.959783874 170551.51845768301 114130.50000000001 -92.805383022774308 -97.937925170068013 103185.00000000001 34858055.660613038 33782863.273489624 50490448.193018459 105215.00000000001 -30.690737833594973 38823962.263591357 931490.00000000012 754254.50000000012 104025.00000000001 -64.839839839839826 -30.407264722069339 -6.3660925363053016 -37.617924528301877 357216.00000000006 -64.031249999999986 -3.6474501108647446 43476377.749365754 720121.50000000012 242717.00000000003 1820972.1886098336 748184.07117868017 110405.00000000001 103615.00000000001 105155.00000000001 -66.819571865443422 110765.00000000001 110685.00000000001 110425.00000000001 110345.00000000001 -54.494949494949488 -45.368782161234982 274708.50000000006 -58.776844070961708 -52.570711075865709 299200.00000000006 87656652.722785026 101445.00000000001 1472349.5375830398 111307.50000000001 33375605.458962899 111312.50000000001 539453.50000000012 103955.00000000001 110465.00000000001 -24.828767123287665 -22.173058013765974 85976.500000000015 105065.00000000001 49774757.10365095 88939163.047291502 110955.00000000001
decision_type=8 10 10 2 2 10 10 2 2 2 2 2 2 2 10 2 10 10 10 10 2 2 2 10 10 10 2 2 10 10 10 2 2 2 2 2 10 2 2 10 10 10 10 10 2 2 2 2 2 2 2 2 2 2 10 2 2 10 8 2 8 2 10 2 10 2 2 2 2 10 2 8 10 2
left_child=2 10 3 6 9 11 53 59 -5 21 66 12 34 45 38 -14 18 62 46 42 57 -4 23 24 -23 28 -27 32 29 30 -24 56 -28 -22 35 36 37 58 39 -15 -41 52 43 -20 -39 -11 -9 49 51 50 -7 -49 -13 -1 68 -33 -30 -21 -3 60 -8 -54 -18 -43 -53 -44 -2 -56 -37 -12 -31 -19 -71 -74
right_child=1 5 4 8 -6 47 7 16 -10 13 69 41 15 14 -16 -17 17 71 19 20 33 22 25 -25 -26 26 27 -29 31 70 -32 55 -34 -35 -36 54 -38 44 -40 40 -42 63 65 -45 -46 -47 -48 48 -50 -51 -52 64 61 -55 67 -57 -58 -59 -60 -61 -62 -63 -64 -65 -66 -67 -68 -69 -70 72 -72 -73 73 -75
leaf_value=0.030259881126242595 -0.022381050948368543 -0.017910095345487584 -0.011578965368808975 0.040846978538345631 0.039649310821285054 -0.0078066646705634421 -0.025049332790965568 0.00049768381121692866 0.0084055911471235534 0.014770033320149071 -0.022057920837395259 -0.030817286796689831 0.020375837933343945 0.050330414407975456 -0.0040907439037845428 -0.0075532934801489293 -0.0040936227071809396 -0.025210089848572967 0.0035673079388529906 0.0018977907988257589 0.0044634543095218365 0.027606418719670983 0.0045471789859912798 0.047172247325064191 -0.010094440762569101 0.038755086208792644 0.0062759574645080991 -0.018532770598683534 0.00072164936910733572 -0.0050134549411404768 0.029790918415765602 -0.019927390627012695 0.022938664160179215 -0.00023176026871159596 0.00087010039963385981 -0.022581670087450281 0.016422803321145648 -0.021777709140079638 0.011501117932480143 0.039844700617813013 0.0087554072666213602 -0.036025823663183881 -0.0093795985854992509 0.031829900665812969 0.0020317397878202854 -0.013381919481728372 -0.023271686417856752 0.0034089091551501257 0.015004170946044851 -0.0097496886336292041 0.047449790640208933 -0.031686317017751812 -0.0038084578183471816 0.0083134697751825314 -0.020766523747284722 -0.004950280004786433 0.020231324324707117 -0.011417208106825462 -0.036139850142964884 -0.026566891926838185 0.0018200005393401207 -0.021159164150181025 0.013145643106648345 -0.01950135281846975 -0.013249782297404153 0.0096006497176772832 -0.0061928252573529375 -0.033846925894599117 -0.0084595725427503692 -0.036011498803975243 -0.019891008196366695 -0.01655013999451006 -0.036016112173122956 -0.028618796548189621
leaf_weight=14.090374439954759 10.737335592508318 24.450376033782963 12.063580691814421 12.803366929292679 13.663617104291914 8.67039498686791 8.9720726907253283 12.126954644918444 14.377807796001434 8.7208074331283587 10.658242076635359 9.3836798965930921 13.97326171398163 11.434834659099577 9.1592863500118238 13.814474970102308 13.84908699989319 9.0077084302902204 26.068172812461853 16.884721249341965 469.14106515049934 13.15342247486115 35.165030777454376 8.86717242002487 9.4822404384613019 9.2287531793117505 43.026110529899597 11.187866628170012 16.050246477127079 9.5110358297824877 25.44104266166687 18.117986023426056 26.708531498908997 327.05863425135612 16.015817552804947 14.578114062547685 12.207080990076063 10.302350699901583 11.361595362424849 12.334061622619631 12.12448140978813 20.387930333614353 9.1333735585212725 23.239647269248962 18.148197650909424 8.6396803259849531 11.557474136352537 9.9802262187004107 13.509679675102232 11.218163460493086 8.8468188345432264 11.105479031801226 16.827774465084079 9.9939174056053144 12.86678224802017 28.505279749631882 8.7471388876438123 41.862836539745331 8.5288631618022865 10.286079972982405 11.702329546213152 9.8764500617980939 10.014520406723021 8.9769238233566266 8.6188876628875715 8.6582450270652753 13.288331568241118 21.752192258834839 12.499814182519911 30.567741245031357 9.0516322851181013 15.07873570919037 14.437127888202665 20.022921621799469
leaf_count=32 25 57 28 29 31 20 21 28 33 20 25 22 32 26 21 32 32 21 60 39 1081 30 81 20 22 21 99 26 37 22 58 42 61 755 37 34 28 24 26 28 28 48 21 53 42 20 27 23 31 26 20 26 39 23 30 66 20 97 20 24 27 23 23 21 20 20 31 51 29 72 21 35 34 47
internal_value=0 -0.297281 0.0855338 0.0448813 0.203191 -0.217077 0.0337662 0.0246157 0.473734 0.180685 -0.55189 -0.282025 -0.22075 0.346871 0.448938 0.129821 0.0349776 -0.167543 0.0452458 0.0521111 0.0367807 0.137562 0.153919 0.435317 0.236265 0.117096 0.229172 0.166912 0.0500009 0.174333 0.302878 -0.087819 0.253156 0.0506956 -0.285115 -0.320916 -0.199127 -0.303966 0.551812 0.65367 0.488665 -0.449729 0.247444 0.337759 -0.1318 0.0151967 -0.222025 0.00371158 -0.106153 0.168934 0.401996 -0.29091 -0.311597 0.423062 -0.466274 -0.215409 0.152072 -0.151806 -0.452491 -0.307951 -0.19681 -0.204511 0.062819 -0.619485 -0.472603 -0.0028582 -0.26855 -0.579707 -0.321251 -0.641833 -0.245363 -0.395775 -0.674724 -0.634358
internal_weight=0 416.251 1447.65 1075.91 371.745 316.54 1048.73 1024.64 27.1812 358.082 99.7117 244.59 179.137 73.7747 56.4143 27.7877 993.681 47.9501 945.731 922.047 854.947 284.307 272.243 31.5028 22.6357 240.741 90.1513 80.9225 150.589 79.1687 60.6061 71.4207 69.7346 796.2 151.35 135.334 73.6369 61.4298 47.255 35.8934 24.4585 65.4528 67.0994 49.3078 28.4505 17.3605 23.6844 71.9496 43.2143 28.7354 17.5172 29.7046 36.0879 24.0843 61.6969 46.6233 24.7974 58.7476 32.9792 30.9605 20.6744 26.7042 23.8636 29.3649 19.7244 17.7916 24.0257 34.619 27.0779 75.686 18.5627 24.0864 65.0278 34.46
internal_count=4304 969 3335 2481 854 735 2419 2364 62 823 234 569 416 169 129 64 2292 111 2181 2126 1972 654 626 72 52 554 207 186 347 182 139 165 160 1836 352 315 171 143 108 82 56 153 154 113 66 40 55 166 100 66 40 69 84 55 144 108 57 136 77 72 48 62 55 69 46 41 56 81 63 178 43 56 153 81
shrinkage=0.05


Tree=4
num_leaves=75
num_cat=0
split_feature=7 4 3 4 0 1 5 5 4 3 5 6 4 6 5 8 3 6 5 7 4 8 4 6 0 4 3 0 4 7 6 4 6 5 6 4 8 6 4 6 1 4 6 4 4 5 5 2 4 1 6 4 5 0 8 5 5 8 0 7 8 6 6 5 8 5 5 7 8 6 2 7 6 3
split_gain=197.819 23.7068 20.6138 9.42162 7.63938 9.71203 7.30296 15.7473 6.78164 5.83047 4.70452 4.69574 4.56192 4.15828 3.57208 3.22385 3.17599 2.92614 4.87988 3.04774 2.81889 2.39406 2.34193 2.30312 3.03605 2.18724 2.09962 2.04394 2.21587 2.01105 1.94639 1.8515 1.84125 1.83949 1.77601 2.91644 1.86264 1.71129 1.79789 1.70087 1.50541 1.48223 1.46336 1.45241 3.76761 1.40514 3.09876 2.06208 1.62159 1.40306 1.32026 1.28152 1.73663 1.22618 1.35677 1.70948 1.20794 1.15896 3.00922 2.54214 1.35706 1.12223 1.11694 1.7134 1.93094 1.84038 1.56366 1.11487 1.72982 1.58872 1.0127 1.70495 1.15496 1.00189
threshold=110585.00000000001 177833.50000000003 110195.00000000001 322025.50000000006 110965.00000000001 110665.00000000001 43476377.749365754 70225470.125646964 488543.00000000006 101595.00000000001 199168.05605627716 -41.341829085457263 296632.50000000006 -96.756661991584835 88153740.890078202 111182.50000000001 103425.00000000001 -8.2650273224043698 3942607.2735236529 102555.00000000001 42975.500000000007 108765.00000000001 551104.00000000012 -74.862637362637358 103615.00000000001 1101613.0000000002 103365.00000000001 102415.00000000001 312737.00000000006 102625.00000000001 -74.322344322344307 245337.50000000003 -42.715700141442703 74847244.436512277 -10.312600708991297 547337.00000000012 108705.00000000001 -14.946808510638297 434691.50000000006 -65.83822167335596 103875.00000000001 63238.500000000007 -13.875137513751374 287155.00000000006 268031.50000000006 35516628.523594648 25502720.030836236 106055.00000000001 507889.00000000006 105715.00000000001 -43.036099137931025 524691.50000000012 1264243.3536850347 101505.00000000001 101465.00000000001 1472349.5375830398 87459834.798989803 111455.00000000001 111342.50000000001 111282.50000000001 111222.50000000001 -5.5946791862284808 -26.278462112728626 86187710.511770502 110375.00000000001 86892553.695343047 86049842.90829064 110335.00000000001 110415.00000000001 -50.213675213675209 107365.00000000001 108965.00000000001 -68.588039867109629 110785.00000000001
decision_type=2 10 2 10 2 2 10 10 10 2 8 2 10 2 10 2 2 2 10 2 10 2 10 2 2 10 2 2 10 2 2 10 2 10 2 10 2 2 10 2 2 10 2 10 10 10 10 2 10 2 2 10 8 2 2 10 10 2 2 2 2 2 2 8 2 8 10 2 2 2 2 2 2 2
left_child=2 -2 6 43 5 -3 9 13 21 53 20 14 56 -8 73 -6 -15 19 -19 27 32 -9 62 24 26 31 -21 28 30 -25 -12 -18 -11 -23 36 -36 -33 38 39 -35 -26 -22 -14 44 67 46 48 -47 -20 -48 -31 52 -29 54 55 -1 -13 58 59 60 -17 -49 63 64 -5 -65 -64 -4 -69 -70 -10 72 -72 -7
right_child=1 4 3 22 15 11 7 8 70 10 17 12 42 16 -16 57 25 18 45 23 41 33 -24 29 40 -27 -28 51 -30 50 -32 34 -34 37 35 -37 -38 -39 -40 -41 -42 -43 -44 -45 -46 47 49 61 -50 -51 -52 -53 -54 -55 -56 -57 -58 -59 -60 -61 -62 -63 66 65 -66 -67 -68 68 69 -71 71 -73 -74 -75
leaf_value=0.024396458014912459 0.059191171838965231 0.048824868897262334 0.012587269825486462 -0.0074862033951517103 0.055250638074510805 -0.0042232187455841534 0.029792797667660804 0.017158305834804835 -0.033951773607323994 -0.023821193478854835 0.0099053872281110976 0.051811765268535981 0.017811482778478254 0.028164694379597406 0.016352162710035475 0.026342517685266249 -0.016052209524316696 -0.030751267321332456 -0.00024470055284476783 -0.0069695941523491324 0.028549856601340518 -0.021083446109127147 -0.023413469858330566 -0.036566979899312471 -0.036507169044306821 -0.016786791263575934 0.015477926776186646 0.013761962699512626 -0.031785928519239753 -0.020373498384323823 -0.015419171188262526 0.0015868711350695728 0.0032137458146006648 0.014800554474793002 0.025693214570378622 -0.001112344748357276 -0.020951424978227998 0.016522004112116555 -0.026210960792954659 -0.010267103283956958 -0.014678436832080477 0.003985646473694932 -0.0055098424771704794 0.035928124932575085 -0.0084610433124161569 -0.023840712784342622 0.0029535053058676389 0.013723997051763668 -0.022337514416241013 0.029276906283856704 -0.014722511306916479 0.019337399966414429 -0.016678597678012479 0.017701043488096643 -0.014120724954143592 -0.0038130088058497789 0.02970740235192635 0.018812012665403118 0.061876497509354693 0.0086609317555806503 0.052885542029909208 -0.010960496373707905 -0.0045537211717587974 -0.027783517953506361 0.022265121181928312 0.0029755114553372576 0.02305069943176 0.03963059181860349 0.032399330578433576 0.0051000224772515083 -0.002399319279414557 -0.0275739229597903 -0.020244866718814883 -0.026069699675636045
leaf_weight=8.8868207037448901 91.871856808662415 24.224656283855438 15.031702339649199 11.844753533601766 25.712570905685425 12.236479908227922 13.359567672014235 11.030664563179014 19.835548907518387 11.704051554203035 12.756850391626356 9.4606076776981372 17.237306475639347 10.662316769361494 18.608264923095703 9.3738351762294823 14.408419936895369 17.283886104822159 40.784970641136169 66.839518427848816 10.622258007526399 19.142808854579926 11.291258484125136 13.407579541206358 8.6336677968502027 17.449333816766739 12.340313404798506 8.8242021501064318 10.390626788139341 168.48976707458496 18.723077684640888 231.48082888126373 13.635006129741667 10.577644854784007 19.860085368156433 20.74782857298851 9.5450025498867017 9.2869869470596296 9.5497933924198133 18.782528221607215 92.74354749917984 14.557222753763197 11.03094834089279 15.624967098236082 10.514991164207457 15.611465007066725 8.762505769729616 8.8280988633632642 10.429734021425245 11.98711836338043 267.3902921974659 10.599454492330549 9.9893429577350634 14.56135234236717 10.944470047950743 13.572827130556105 17.826898455619812 10.659456104040144 9.4943187832832319 9.7614417076110822 9.9025942683219892 9.6239077746868151 9.2240713834762591 10.932606309652323 10.107713162899016 8.7591663002967852 11.558495908975599 18.754854917526245 10.707352548837656 10.61095061898232 14.456775784492491 49.801768720149994 24.317470371723175 9.1891394853591901
leaf_count=20 203 54 34 27 57 28 30 25 46 27 29 21 39 24 42 21 33 40 93 153 24 44 26 31 20 40 28 20 24 388 43 527 31 24 45 47 22 21 22 43 213 33 25 35 24 36 20 20 24 27 614 24 23 33 25 31 40 24 21 22 22 22 21 25 23 20 26 42 24 24 33 115 56 21
internal_value=0 0.765109 -0.136954 0.209684 0.567551 0.410939 -0.174071 -0.0798216 -0.312788 -0.227612 -0.246221 0.267614 0.45576 0.0491035 0.00651945 0.818062 0.0265698 -0.264373 -0.122315 -0.289357 0.050001 -0.0886777 -0.0491728 -0.311538 -0.216149 0.00831501 -0.0694222 -0.0933771 -0.235301 -0.349872 -0.103134 0.0285941 -0.185473 -0.159416 0.0464816 0.239949 0.0138864 -0.0552553 -0.147313 -0.0247186 -0.330749 0.286967 0.174219 0.44456 0.379316 -0.0419971 0.0372049 -0.209324 -0.0948768 0.363212 -0.338138 0.108657 -0.0480185 0.111856 0.00629251 0.146978 0.74742 0.668072 0.748804 0.589009 0.799561 0.0169889 0.0266301 -0.0678634 0.124248 -0.28203 0.215977 0.483987 0.571102 0.376228 -0.474797 -0.42906 -0.271825 -0.271857
internal_weight=0 286.59 1602.18 154.963 194.719 119.814 1447.22 524.295 186.782 922.924 874.958 95.5896 55.5558 337.513 40.0339 74.9042 324.154 824.44 123.312 701.128 50.5185 78.3704 73.7181 629.845 180.557 313.491 79.1798 71.2836 41.8706 449.288 31.4799 296.042 25.3391 67.3398 281.634 40.6079 241.026 48.197 38.91 29.3602 101.377 25.1795 28.2683 81.2448 65.6199 106.028 71.9643 34.0635 51.2147 20.7496 435.88 29.413 18.8135 47.9655 33.4041 22.4596 27.2875 49.1916 38.5322 29.0379 19.2764 18.452 62.4268 41.6442 21.9525 19.6918 20.7826 55.1049 40.0732 21.3183 108.412 88.576 38.7742 21.4256
internal_count=4304 640 3664 351 437 270 3313 1197 429 2116 2007 216 125 768 91 167 738 1892 282 1610 115 179 168 1447 414 714 181 163 96 1033 72 674 58 154 641 92 549 110 89 67 233 57 64 183 148 242 164 78 117 47 1002 67 43 109 76 51 61 110 86 65 43 42 142 95 50 45 47 124 90 48 250 204 89 49
shrinkage=0.05


Tree=5
num_leaves=75
num_cat=0
split_feature=2 4 5 8 4 6 4 6 5 4 4 2 1 5 3 4 6 8 5 6 5 3 3 0 3 4 6 6 8 7 2 4 1 5 4 4 4 1 4 7 2 5 2 6 7 4 5 6 1 5 1 4 0 1 6 6 6 6 0 4 4 4 6 4 6 0 6 6 4 3 6 6 6 1
split_gain=59.4176 9.65727 9.64319 7.07983 6.2416 6.02073 4.07607 4.07355 4.57322 3.82604 3.48365 4.38123 5.70949 3.5179 5.3026 3.54491 3.30995 3.05334 3.04316 2.68875 2.38821 3.54434 2.36032 3.10781 2.95674 2.28665 2.26801 2.26436 2.23117 2.09159 2.08737 2.08103 2.07475 2.04996 1.92183 3.25404 4.57847 2.18581 1.88115 1.77076 4.33982 2.58648 1.73475 1.69434 1.6675 1.65673 1.65092 1.90508 3.98092 1.61154 3.55891 1.55548 1.60433 1.54998 1.53646 1.83934 1.77919 4.16482 2.91684 1.88107 1.79468 1.50627 1.48744 2.35427 2.64617 2.45203 2.03577 1.69511 3.51807 1.45301 1.45045 1.42739 1.42006 1.72783
threshold=110495.00000000001 249308.50000000003 45259044.399359487 106945.00000000001 184585.00000000003 -12.403846153846152 242717.00000000003 -11.0673665791776 3623442.4077645694 720121.50000000012 605353.50000000012 107955.00000000001 106930.00000000001 34858055.660613038 103325.00000000001 893202.00000000012 -2.1054964539007091 107925.00000000001 87830607.701678395 -96.40705679862306 7930645.5520506995 106195.00000000001 105875.00000000001 105925.00000000001 104945.00000000001 163088.00000000003 -21.26329787234042 -81.782106782106766 108115.00000000001 105875.00000000001 102595.00000000001 402670.50000000006 106505.00000000001 21143437.455984648 610297.50000000012 454955.00000000006 381272.50000000006 110385.00000000001 1132874.0000000002 108965.00000000001 109415.00000000001 79091963.021707013 110555.00000000001 -72.176684881602895 111482.50000000001 304645.50000000006 11315246.458610395 -31.530214424951264 105385.00000000001 3868213.2846894665 103405.00000000001 357216.00000000006 110365.00000000001 103805.00000000001 -5.5946791862284808 -79.289318755256502 -46.966911764705877 -30.690737833594973 106465.00000000001 536463.50000000012 434691.50000000006 471608.50000000006 -52.88568257491675 147740.50000000003 -43.036099137931025 104435.00000000001 -14.946808510638297 -82.807881773399004 114130.50000000001 106005.00000000001 -53.637566137566132 -72.684391080617488 -55.437077702702695 107615.00000000001
decision_type=2 10 10 2 8 2 10 2 10 10 10 2 2 10 2 10 2 2 10 2 10 2 2 2 2 10 2 2 2 2 2 10 2 10 10 10 10 2 10 2 2 8 2 2 2 10 10 2 2 10 2 10 2 2 2 2 2 2 2 10 10 10 2 10 2 2 2 2 10 2 2 2 2 2
left_child=2 27 4 53 49 6 25 10 -9 51 11 12 19 30 -15 43 20 61 26 -6 -10 29 24 -24 -21 -5 42 -2 72 -22 -12 -13 -23 -18 35 36 37 -30 -17 -36 -41 -42 -3 -16 -29 -28 -32 48 -48 62 -51 52 -7 -4 55 -55 58 -58 69 60 -59 -14 67 64 -64 -66 -67 68 -1 -57 -38 -37 73 -8
right_child=1 18 3 5 7 9 28 8 16 -11 13 31 17 14 15 38 33 -19 -20 22 21 32 23 -25 -26 -27 45 44 34 -31 46 -33 -34 -35 39 71 70 -39 -40 40 41 -43 -44 -45 -46 -47 47 -49 -50 50 -52 -53 -54 54 -56 56 57 59 -60 -61 -62 -63 63 -65 65 66 -68 -69 -70 -71 -72 -73 -74 -75
leaf_value=-0.0096224057612480322 -0.0053908134451045855 -0.014900223489099999 -0.021652336524844561 0.010806791906389406 -0.0078452970804559919 -0.013653440194283564 0.0200684909942761 0.035316786164078316 -0.015570539399358298 0.014964962594317462 -0.0057208047961101703 -0.02764264717578245 0.051865095627125879 -0.034104382441011515 -0.022477661165386225 0.030152178925312453 -0.0024750822754533459 0.014835922129404645 -0.017565930079681311 0.012486968243666224 0.009052322492218488 -0.024750199057585492 -0.019753581307763956 0.0092700462191030227 0.024557774232347795 -0.015735838718813382 -0.03266224762903451 -0.030673511648024288 0.017969777582070183 0.033928464878188479 0.0011220516964587843 0.0052640462977356214 0.0014011045081388355 -0.030810871775143384 -0.012977544060581395 0.0054745559161790587 -0.00063653693033631151 0.00081701280265989394 0.0032073719969169922 0.031133165012016014 -0.027905696510997544 0.0083861120428913079 0.0080334363228001648 -0.00012675989787146516 -0.010071840139871694 -0.0049187912551917293 0.03789587996663675 0.0012450690116793258 0.0085766143711836062 0.030975702934272088 -0.0062144219193317266 -0.0078146528153329956 -0.038251603339679113 -0.011729078180577245 -0.021822479697229655 0.0037431834248521701 -0.024345233466910761 0.004789127349712396 -0.02032252758706073 0.0098659371556900598 -0.022666237051038134 0.026906090433710828 0.023736639492901473 -0.017735812150066477 0.01100866101408841 0.00054354696043121958 -0.028391265768415122 -0.011253810785586738 0.019265795888080074 0.02257038654807296 -0.018341085782403389 0.02210899168744147 0.025317544948442752 -0.0026900172371872332
leaf_weight=27.468842387199402 10.514272421598433 10.513265281915663 17.77245882153511 11.043834537267683 16.084854394197464 15.994466155767443 18.522107273340225 9.3292808234691602 15.105967640876768 12.930028080940245 15.120441317558287 9.127449572086336 15.842872470617296 11.797559589147566 12.342810779809946 12.959421277046205 12.380419611930849 16.644837588071823 71.543146938085556 232.28605535626411 48.841257303953171 10.924406886100767 10.530009031295775 74.332522571086884 64.90781569480896 30.589564561843872 9.0435936152935046 151.31737264990807 45.600301086902618 10.217602699995039 17.46949177980423 10.144295215606688 24.806471675634384 13.175788223743437 23.026170372962952 17.966082990169525 24.811503469944 31.336532384157181 12.950974106788633 10.647613167762758 9.1688518524169904 10.568140447139742 38.23078915476799 27.086984932422641 10.503858685493467 13.287237405776976 23.247011333703995 12.424828261137007 23.064014822244644 12.069678544998171 13.773983061313627 33.904304206371307 11.320220202207564 74.114717185497284 15.017337441444395 49.189865320920944 24.622707903385162 11.463899314403536 10.949555695056914 26.645416349172592 12.379861682653425 9.7742992639541608 16.660575121641159 11.901753067970274 28.992956876754761 16.509405583143238 9.6217689514160138 63.640834957361221 17.099869161844254 12.944761663675306 21.673910975456238 45.701730489730835 26.343220204114914 15.170301377773283
leaf_count=60 23 23 39 24 35 35 40 20 33 28 33 20 34 26 27 28 27 36 157 503 106 24 23 161 140 67 20 334 99 22 38 22 54 29 50 39 54 68 28 23 20 23 83 59 23 29 50 27 50 26 30 74 25 162 33 107 54 25 24 58 27 21 36 26 63 36 21 139 37 28 47 99 57 33
internal_value=0 -0.398211 0.0755022 -0.0170208 0.13821 0.0633609 0.119342 0.180339 0.0291256 -0.194972 0.215193 0.260276 0.280699 0.0921768 -0.0650592 0.0463489 -0.0175174 0.630174 -0.205723 0.243602 0.0578661 0.116715 0.260464 0.113374 0.302465 -0.173901 -0.0591676 -0.557507 0.159965 0.267121 0.224985 -0.206423 -0.131889 -0.341678 0.116916 0.164679 0.0699571 0.219668 0.333683 -0.0503894 0.108118 -0.169466 0.0617407 -0.142466 -0.586725 -0.323088 0.292328 0.372599 0.465883 -0.0113396 0.223087 -0.299367 -0.476957 -0.148202 -0.126871 -0.105959 -0.0416332 -0.149714 0.0694466 0.0147276 -0.189318 0.846838 -0.0429111 0.0572021 0.125497 0.0199452 -0.202211 -0.120336 0.0292251 0.153311 -0.177826 0.3483 0.332419 0.196425
internal_weight=0 314.954 1662.08 671.419 990.659 416.319 342.17 772.92 144.781 74.149 628.139 459.675 440.403 168.464 77.1378 65.3402 135.452 42.262 142.618 398.141 109.896 94.7897 382.056 84.8625 297.194 41.6334 71.0749 172.336 300.536 59.0589 91.3258 19.2717 35.7309 25.5562 240.501 187.09 123.422 76.9368 25.9104 53.4108 30.3846 19.737 48.7441 39.4298 161.821 22.3308 76.2053 58.7359 46.311 217.74 25.8437 61.219 27.3147 255.101 237.328 222.311 148.196 75.1119 73.0842 50.4892 23.8438 25.6172 191.896 83.6865 71.7847 55.1241 26.1312 108.21 44.5687 62.1346 46.4854 63.6678 60.0356 33.6924
internal_count=4304 692 3612 1462 2150 905 743 1676 315 162 1361 995 953 366 168 142 295 91 312 862 239 206 827 184 643 91 155 380 652 128 198 42 78 56 522 406 268 167 56 116 66 43 106 86 357 49 165 127 100 474 56 134 60 557 518 485 323 164 159 110 52 55 418 182 156 120 57 236 97 135 101 138 130 73
shrinkage=0.05


Tree=6
num_leaves=75
num_cat=0
split_feature=5 4 4 6 1 4 3 4 6 2 0 2 6 1 4 7 4 5 5 4 6 6 3 5 5 5 2 6 5 4 4 3 6 6 6 6 4 6 4 5 6 5 4 5 5 2 0 6 3 8 0 2 6 6 4 4 5 4 6 0 5 7 2 5 4 5 6 6 4 7 5 5 3 4
split_gain=44.3161 8.0782 6.38122 4.73142 4.45898 4.30375 3.51423 3.24773 2.62794 2.48338 2.38688 3.80799 2.37664 2.34407 2.88271 2.02039 1.9705 2.40773 1.63468 2.56371 2.12984 1.60634 2.60731 2.8344 2.91043 1.68912 2.8739 3.1804 2.45098 4.02326 3.22585 2.077 1.80627 1.60463 1.56723 2.32029 3.85208 1.52315 1.4807 1.46401 1.46014 1.89221 2.17808 1.40685 2.83787 1.3117 1.28626 1.22308 3.06434 2.26795 4.98373 1.84736 1.14011 1.00893 0.989266 0.967188 0.829523 0.827267 0.800471 0.751355 1.38963 0.729181 0.674803 0.652894 0.635676 0.608685 0.545177 0.522288 0.499665 0.216089 0.162928 0.11872 0.182357 0.10891
threshold=84598480.866431385 177833.50000000003 610297.50000000012 -1.7467581998474444 109645.00000000001 415006.00000000006 101505.00000000001 37752.000000000007 -1.0000000180025095e-35 110655.00000000001 110965.00000000001 110775.00000000001 -16.601049868766399 103985.00000000001 970035.00000000012 110895.00000000001 577566.50000000012 41683162.959783874 170551.51845768301 114130.50000000001 -92.805383022774308 -97.937925170068013 103185.00000000001 34858055.660613038 33782863.273489624 50490448.193018459 105185.00000000001 -30.690737833594973 38823962.263591357 951206.50000000012 754254.50000000012 104025.00000000001 -64.839839839839826 -30.407264722069339 -6.3660925363053016 -37.617924528301877 357216.00000000006 -64.031249999999986 242717.00000000003 86589047.803426042 -3.6474501108647446 43476377.749365754 720121.50000000012 3868213.2846894665 748184.07117868017 103395.00000000001 105155.00000000001 -66.819571865443422 110765.00000000001 110685.00000000001 110425.00000000001 110345.00000000001 -54.494949494949488 -45.368782161234982 274708.50000000006 696586.50000000012 87656652.722785026 299200.00000000006 -52.570711075865709 101445.00000000001 1472349.5375830398 111307.50000000001 111292.50000000001 33375605.458962899 539453.50000000012 86995451.425110355 -24.828767123287665 -22.173058013765974 85976.500000000015 104945.00000000001 49774757.10365095 88939163.047291502 110955.00000000001 147740.50000000003
decision_type=8 10 10 2 2 10 2 10 2 2 2 2 2 2 10 2 10 10 10 10 2 2 2 10 8 10 2 2 10 10 10 2 2 2 2 2 10 2 10 8 2 10 10 10 8 2 2 2 2 2 2 2 2 2 10 10 8 10 2 2 8 2 2 10 10 10 2 2 10 2 8 10 2 10
left_child=2 9 3 6 12 10 59 53 -5 65 11 34 21 45 40 -13 18 63 46 43 57 -4 23 24 -23 28 -27 32 29 30 -24 58 -28 -22 35 36 37 56 52 -39 41 -15 -43 44 -20 -14 -9 49 51 50 -7 -49 -12 -8 67 -33 -3 -21 -30 60 -1 -54 -40 -18 -53 -2 -56 -37 -11 -31 -19 -70 -73 -74
right_child=1 5 4 8 -6 47 7 16 -10 68 38 15 13 14 -16 -17 17 70 19 20 33 22 25 -25 -26 26 27 -29 31 69 -32 55 -34 -35 -36 54 -38 39 62 -41 -42 42 -44 -45 -46 -47 -48 48 -50 -51 -52 64 61 -55 66 -57 -58 -59 -60 -61 -62 -63 -64 -65 -66 -67 -68 -69 71 -71 -72 72 73 -75
leaf_value=-0.024488409323596569 -0.020368822096911168 -0.01747292459881437 -0.011302438793524673 0.038948423000986228 0.037515473057699145 -0.0077481066202842053 0.028706088921531859 0.00053517725876609098 0.0079765462102544121 -0.021374973801191643 -0.030296004659158222 0.019533181977486099 0.014180109852082311 0.04798365418164937 -0.0041401569387921116 -0.0073891881180536481 -0.0040417892956213916 -0.024787930759201257 0.0033209451937988733 0.0019205506132307908 0.0043308871012106773 0.026488649711113317 0.0043544387033737988 0.044491868790712624 -0.0098182773056855258 0.037256153515543795 0.0055470663129340379 -0.017446311186501775 0.0006563254101896067 -0.0074332522876131117 0.027311097401102061 -0.00021451252602787925 0.022006578239010626 -0.00023007425998305194 0.00089612937810825809 -0.022150379037351065 0.015892202486241673 -0.021443540512108297 -0.035483793818842944 0.0022269592540344581 0.010897955297457684 0.038182933553517553 0.0084748833622376851 -0.00353194277467057 0.025996714555388892 -0.013275293643470465 -0.022840897692464793 0.0032877463657001527 0.014510673117188367 -0.0094694324407699881 0.045386476949512367 -0.03114815015888113 -0.00357084250094043 0.0080226818215796501 -0.020311501798672225 -0.015607048942406649 -0.035709188231257662 -0.011199347539023517 0.019399155071727348 -0.026143495511918708 0.0017691778405513553 -0.020747905491840773 -0.01890432527611596 0.012693417555223444 -0.012957015741817622 -0.0043335601458103805 -0.033375709111647375 -0.0081694542769752288 -0.035446620995464591 -0.018653824268616791 -0.016251389536474644 -0.035454869124452913 -0.023689020364195096 -0.031212157763555022
leaf_weight=8.8445945382118243 12.75275754928589 24.224683076143268 12.00217545032501 13.015170842409134 13.921526223421095 8.661843299865728 14.302350640296938 12.120073199272158 14.455935776233673 10.485889434814451 9.2369605898857099 14.102277755737306 8.7807453274726885 11.653143852949141 9.1654183566570264 13.776199519634245 13.837299615144731 8.9134481251239759 26.154659450054172 16.878447681665421 469.96824523806572 13.300696581602098 35.254642456769943 9.0614797472953779 9.4353931248188037 9.3530043363571149 43.632214546203613 10.675700902938841 16.0645144879818 8.6162493824958819 27.039400517940521 15.13265225291252 26.972015529870987 327.03566271066666 16.008716702461243 14.430808514356615 12.281330972909926 10.222745627164839 19.979610532522205 18.095067381858829 11.44455564022064 12.515670388936998 12.168154507875441 12.107742339372633 29.204464286565777 8.6219305098056775 11.438558667898176 9.9965298771858233 13.587644904851912 11.162870496511458 8.9967500269412977 10.921887874603273 16.763969451189045 10.031213194131849 12.735366761684416 31.343129813671112 8.3975469172000832 41.697938770055771 8.8265606462955457 10.172876328229902 11.710163384675981 9.784553796052931 8.8583660125732404 10.068821161985396 8.5711086392402631 11.042458236217497 21.411998063325882 12.43722954392433 29.930688858032227 8.5473700463771802 14.988544642925264 14.13856455683708 8.3737108707427996 11.305981636047362
leaf_count=21 30 57 28 29 31 20 32 28 33 25 22 32 20 26 21 32 32 21 60 39 1081 30 81 20 22 21 100 25 37 20 61 35 61 755 37 34 28 24 48 42 26 28 28 28 66 20 27 23 31 26 20 26 39 23 30 73 20 97 20 24 27 23 21 23 20 26 51 29 72 20 35 34 20 27
internal_value=0 -0.289016 0.0823868 0.0433242 0.195011 -0.210921 0.0326003 0.0426502 0.453006 -0.539675 -0.274571 -0.214843 0.173514 0.332752 0.430908 0.124589 0.0338178 -0.164261 0.0438218 0.0504606 0.0356615 0.13201 0.147737 0.416913 0.228428 0.112289 0.220184 0.159779 0.047453 0.168266 0.28638 -0.0870568 0.236698 0.0491876 -0.277826 -0.313096 -0.193081 -0.296049 -0.439199 -0.126362 0.529448 0.627553 0.470761 0.238136 0.305669 0.0115537 -0.216295 0.00397537 -0.102709 0.163428 0.386461 -0.283753 -0.303315 0.403592 -0.45712 -0.211904 -0.443345 -0.148378 0.146053 -0.300594 -0.190586 -0.19803 -0.607819 0.0601355 -0.462989 -0.258549 -0.570067 -0.313572 -0.629787 -0.26042 -0.388696 -0.663061 -0.622463 -0.560221
internal_weight=0 412.676 1450.47 1076.95 373.528 314.646 1049.48 1018.75 27.4711 98.0301 242.747 178.124 359.607 74.3496 56.9469 27.8785 994.414 47.8081 946.606 923.047 855.58 285.257 273.255 31.7976 22.7361 241.457 90.6329 81.2799 150.825 79.4577 62.294 71.3669 70.6042 797.004 150.245 134.237 73.2214 60.94 64.6235 28.3178 47.7815 36.337 24.6838 67.4669 55.3591 17.4027 23.5586 71.8986 43.0772 28.8215 17.6586 29.4895 35.7855 24.3336 61.0154 46.4758 32.6222 58.5764 24.8911 30.7276 20.5548 26.5485 28.838 23.9061 19.493 23.7952 34.1474 26.868 74.2348 17.1636 23.902 63.7489 33.8183 19.6797
internal_count=4304 969 3335 2481 854 735 2419 2347 62 234 569 416 823 169 129 64 2292 111 2181 2126 1972 654 626 72 52 554 207 186 347 182 142 165 161 1836 352 315 171 143 153 66 108 82 56 154 126 40 55 166 100 66 40 69 84 55 144 108 77 136 57 72 48 62 69 55 46 56 81 63 178 40 56 153 81 47
shrinkage=0.05


Tree=7
num_leaves=75
num_cat=0
split_feature=7 4 5 4 5 5 4 0 1 7 5 6 6 4 6 5 5 3 8 6 4 3 5 0 4 2 8 1 4 6 6 4 8 1 6 7 4 4 0 8 5 4 4 6 4 4 5 4 3 0 4 4 4 5 0 8 6 6 0 6 0 8 8 6 6 0 8 5 5 5 2 7 6 5
split_gain=180.777 20.8725 19.0832 8.02481 7.38877 12.9984 8.72625 6.77979 8.88291 5.50961 4.85572 4.33061 4.31989 4.1318 3.82268 3.29469 3.0034 2.9668 2.89916 2.48459 2.08973 1.91484 4.08533 2.98911 4.96146 2.20857 2.25664 1.80921 1.80714 1.68277 1.66771 2.62938 1.78945 1.61042 1.9158 1.57716 1.55321 2.02833 1.90921 1.55235 2.71706 1.51522 2.63481 1.87927 1.47981 2.91508 1.56529 2.65867 1.44656 2.72171 2.69728 2.20416 1.7922 1.71133 1.4464 1.4454 1.41595 1.37389 1.30441 1.2343 1.30655 1.44222 1.22853 1.18561 1.19894 1.17422 1.29983 1.57124 1.09618 3.27332 1.0895 1.89662 1.454 1.0745
threshold=110585.00000000001 177833.50000000003 85175107.958232865 322025.50000000006 43476377.749365754 70225470.125646964 460137.00000000006 110965.00000000001 110665.00000000001 102555.00000000001 706098.73726876208 -41.341829085457263 -8.2650273224043698 296632.50000000006 -96.756661991584835 87984544.552111492 4224860.1528086225 103425.00000000001 111182.50000000001 -26.278462112728626 970035.00000000012 106675.00000000001 38493624.073205844 104505.00000000001 641851.00000000012 105925.00000000001 106135.00000000001 105975.00000000001 245337.50000000003 -8.4926072845293898 -10.312600708991297 588868.00000000012 108705.00000000001 110475.00000000001 -66.819571865443422 105395.00000000001 457471.50000000006 425262.00000000006 103425.00000000001 108765.00000000001 75642655.917057678 42975.500000000007 63238.500000000007 -42.715700141442703 287155.00000000006 268031.50000000006 86644484.488288313 215352.00000000003 101595.00000000001 102415.00000000001 307167.50000000006 141812.50000000003 524691.50000000012 1264243.3536850347 110325.00000000001 110315.00000000001 -74.322344322344307 -13.875137513751374 107785.00000000001 -60.922587486744426 103575.00000000001 104615.00000000001 109150.00000000001 -19.939759036144576 -63.564213564213553 101505.00000000001 101465.00000000001 1472349.5375830398 28385328.309852093 35764254.71052397 107365.00000000001 108965.00000000001 -19.939759036144576 87459834.798989803
decision_type=2 10 10 10 10 10 10 2 2 2 8 2 2 10 2 10 10 2 2 2 10 2 10 2 10 2 2 2 10 2 2 10 2 2 2 2 10 10 2 2 10 10 10 2 10 10 10 10 2 2 10 10 10 10 2 2 2 2 2 2 2 2 2 2 2 2 2 10 10 10 2 2 2 8
left_child=2 -2 4 44 9 14 39 8 -3 48 41 15 21 73 -6 -10 -14 -16 -9 33 28 22 25 24 -24 27 -27 -12 -19 -21 32 -32 -30 34 -5 -25 37 38 -18 -7 62 43 -43 -11 45 46 54 -48 65 50 51 -50 53 -51 -4 63 -53 -15 -23 60 -44 -62 -41 64 -42 66 67 -1 -38 -70 -8 72 -72 -13
right_child=1 7 3 19 5 6 70 18 11 10 12 13 16 57 17 -17 36 20 -20 29 -22 58 23 35 -26 26 -28 -29 30 -31 31 -33 -34 -35 -36 -37 68 -39 -40 40 55 42 59 -45 -46 -47 47 -49 49 52 -52 56 -54 -55 -56 -57 -58 -59 -60 -61 61 -63 -64 -65 -66 -67 -68 -69 69 -71 71 -73 -74 -75
leaf_value=0.023306682648080702 0.05555832561148142 0.046340863122118381 0.01589326125903387 0.014055542228463905 0.028402106204810335 0.016546383164693586 -0.033372817261477269 0.052055082224454298 -0.014205112151762811 -0.024639200906153597 -0.016844293212515665 0.048863092252316116 -0.031225968289915897 0.017043931996774269 0.027079901677598814 0.014458873071126114 0.017462515560024254 -0.015746033926845395 0.031550860666592621 0.025443870709374324 -0.013803678605065251 -0.031263665481233091 -0.0063986130364664289 -0.030761509683733063 0.038233107464413829 0.0074928852984644722 -0.013365461166368149 -0.036491952768627753 0.0017663628496881055 -0.0037470214928680794 0.022802746246627325 -0.003411560703504134 -0.020448719474931886 -0.01919952680561374 -0.016034876173355053 -0.0050034675324799873 -0.01936806408010238 0.024926584635860453 -0.0060430971072626769 -0.028417185068855266 0.014602699336099888 0.022178236680862204 0.014589786717439053 0.0017865818532621786 0.037687504151309961 -0.0059985618041370576 -0.0060858690521073998 0.028507597551120874 -0.023686091529935741 0.013429464260503794 -0.032318127656833881 0.017002618442319827 0.021018275965484917 -0.015535941225510259 0.040012797803165967 -0.012229882926507958 -0.0075958515716028898 -0.0055165490652804711 -0.017770238486946071 -0.017635098063052697 -0.020325288720525289 0.0080135845965117435 -0.0076677566127671126 0.020696008384325282 -0.0072919428710744557 0.017213221732247787 -0.01393495323394279 -0.0036627059708426225 0.019468247642802652 -0.018429635253854607 -0.0074239364322727618 -0.026402257272921961 -0.030549563478760745 0.028213971261096607
leaf_weight=8.9833184480667132 94.214440166950226 24.693783521652222 9.351016968488695 11.781530410051348 13.534428775310515 10.194560319185255 19.478285580873489 26.312674969434738 19.983053207397461 12.862606853246691 389.46894922852516 9.6704534888267499 9.8552494347095472 17.380417615175251 10.773179441690443 20.117063999176025 10.993156522512434 14.32554718852043 49.99569645524025 11.113197892904283 23.938064754009247 29.607913553714752 16.499205738306049 8.6437149643898028 10.00118315219879 18.160334676504135 45.34505170583725 12.080153852701185 226.3759588599205 8.8837298452854139 23.174088627099991 16.28964951634407 9.4430388212203962 19.973839074373245 9.6000001728534681 19.018559575080872 17.343975156545639 8.8363762199878675 40.335939526557922 12.1395899951458 10.599484294652934 14.231292963027952 12.642181158065794 14.105927258729933 13.15420153737068 9.6576214134693128 9.4274244308471697 13.518479794263838 11.664819508790968 8.8576052188873309 13.202941626310347 10.143313258886336 11.975832134485243 12.018315374851225 18.538363575935364 11.942867815494536 13.822294920682909 11.031535804271696 45.334334045648575 10.438885152339937 9.1309548020362872 8.8323939144611341 17.299517780542374 12.016751527786257 15.246426641941072 14.638637304306028 10.90755635499954 13.541361272335051 9.6975996494293231 13.813776105642317 32.508404731750488 56.001977741718292 8.5938239991664869 18.07638102769852
leaf_count=20 203 54 21 27 30 23 46 57 46 30 903 21 23 39 24 45 25 33 110 25 55 69 38 20 23 42 105 28 515 20 52 37 22 46 22 44 40 20 92 28 24 32 29 32 29 22 21 30 27 20 31 23 27 28 41 27 32 25 105 24 21 20 40 27 35 33 25 31 22 32 75 131 20 40
internal_value=0 0.723955 -0.132483 0.22724 -0.165724 -0.0733783 -0.27135 0.539018 0.391765 -0.220493 -0.25196 0.254505 -0.278784 0.433738 0.0473437 0.00349553 -0.0975813 0.025614 0.772423 -0.0398851 0.00788527 -0.312598 -0.29103 -0.0311093 0.208906 -0.321302 -0.148014 -0.348707 0.0313564 0.249514 0.0493764 0.239643 0.0175358 -0.179821 0.0109075 -0.261043 -0.046175 0.0560038 -0.020178 -0.036381 -0.0836341 -0.0220203 0.0727881 -0.216343 0.44977 0.383669 0.47935 0.285894 -0.0295653 -0.110563 -0.26028 -0.117216 0.111987 -0.0649197 0.638515 0.058726 0.0563063 0.165687 -0.462023 -0.0557709 0.0455059 -0.127827 -0.324481 0.154402 0.0337423 0.108072 0.00465242 0.141865 -0.196648 -0.0559623 -0.451612 -0.408315 -0.245183 0.708214
internal_weight=0 291.476 1595.91 134.999 1460.91 543.876 206.022 197.261 120.953 917.036 787.28 96.2589 705.035 56.1588 337.854 40.1001 110.876 324.32 76.3084 61.3523 313.546 594.159 519.217 54.1627 26.5004 465.054 63.5054 401.549 289.608 19.9969 275.283 39.4637 235.819 41.3554 21.3815 27.6623 101.021 60.1655 51.3291 89.4392 79.2446 82.2442 55.2757 26.9685 73.6471 60.4929 50.8353 22.9459 129.756 81.6851 48.8334 35.6304 32.8518 20.8759 27.8894 49.8055 23.9656 28.412 74.9422 41.0444 30.6055 17.9633 29.4391 37.8627 25.8459 48.0709 33.4322 22.5247 40.8554 23.5114 116.582 97.1042 41.1022 27.7468
internal_count=4304 640 3664 304 3360 1244 476 437 270 2116 1819 216 1631 125 768 91 254 738 167 140 714 1377 1203 125 61 1078 147 931 659 45 626 89 537 95 49 64 231 137 117 204 181 188 126 62 164 135 113 51 297 188 113 82 75 48 62 113 55 64 174 94 70 41 68 86 59 109 76 51 94 54 272 226 95 61
shrinkage=0.05


Tree=8
num_leaves=75
num_cat=0
split_feature=2 4 5 3 6 4 4 6 5 4 4 2 1 5 3 4 6 5 8 6 5 6 2 4 4 4 2 5 6 1 6 4 3 5 5 4 5 5 2 6 6 4 2 2 3 5 4 4 8 8 6 7 5 6 1 6 5 1 1 0 4 5 0 4 0 5 6 4 6 8 6 4 2 4
split_gain=55.2963 9.217 8.93338 6.6208 5.80959 5.78268 3.81003 3.74786 4.17411 3.63484 3.18905 4.13889 5.32694 3.31544 4.98577 3.28689 3.13424 2.90888 2.83712 2.55764 2.32153 4.82104 2.25501 2.59428 3.52624 4.73406 2.33645 2.24788 2.5685 2.2103 2.1958 2.18141 2.13941 2.5408 2.43013 1.98863 1.98463 1.98247 1.93606 1.8791 2.40042 1.79377 2.69913 1.78249 1.882 2.36955 1.76084 1.69235 1.87429 1.86422 1.61594 1.6101 1.53628 1.84835 1.72368 1.53195 1.50283 3.32477 1.47845 1.50775 1.44511 1.95984 1.92583 1.42439 1.56011 1.40776 1.40567 2.267 2.48062 2.32269 1.62068 3.31236 1.33747 1.33543
threshold=110495.00000000001 249308.50000000003 45259044.399359487 106945.00000000001 -12.403846153846152 184585.00000000003 242717.00000000003 -11.0673665791776 3623442.4077645694 720121.50000000012 605353.50000000012 107955.00000000001 106930.00000000001 34858055.660613038 103325.00000000001 893202.00000000012 -2.1054964539007091 87656652.722785026 107925.00000000001 -96.40705679862306 35764254.71052397 -6.3660925363053016 107955.00000000001 610297.50000000012 454955.00000000006 381272.50000000006 108315.00000000001 32270315.977128081 -13.536417773705908 110385.00000000001 -81.782106782106766 163088.00000000003 106195.00000000001 7930645.5520506995 33375605.458962899 402670.50000000006 32890873.097399469 21143437.455984648 102595.00000000001 -21.26329787234042 -9.1507177033492813 704064.00000000012 109415.00000000001 110555.00000000001 110635.00000000001 87201635.244784072 1132874.0000000002 496773.50000000006 110765.00000000001 110675.00000000001 -72.176684881602895 111482.50000000001 11315246.458610395 -89.347517730496435 105385.00000000001 -72.684391080617488 3868213.2846894665 103405.00000000001 103805.00000000001 103865.00000000001 526982.50000000012 70225470.125646964 107385.00000000001 357216.00000000006 110365.00000000001 41255746.416248441 -52.88568257491675 147740.50000000003 -43.036099137931025 102485.00000000001 -82.807881773399004 114130.50000000001 109415.00000000001 395921.00000000006
decision_type=2 10 10 2 2 8 10 2 10 10 10 2 2 10 2 10 2 10 2 2 10 2 2 10 10 10 2 10 2 2 2 10 2 10 10 10 10 10 2 2 2 10 2 2 2 10 10 10 2 2 2 2 10 2 2 2 10 2 2 2 10 10 2 10 2 8 2 10 2 2 2 10 2 10
left_child=2 30 5 58 6 56 31 10 -9 63 11 12 19 38 -15 50 20 39 65 -7 32 -22 60 24 25 29 -25 28 -21 -24 -2 -5 33 -10 -35 -13 -29 -18 -12 43 -41 -28 -43 -3 -45 -46 -17 48 49 -19 -16 -32 -40 -54 -55 -26 66 -58 -4 -60 -8 -62 -63 64 -6 -14 70 68 -68 -70 71 -1 -57 -27
right_child=1 17 3 4 9 7 22 8 16 -11 13 35 18 14 15 46 37 47 -20 27 21 -23 23 26 55 73 41 36 -30 -31 51 -33 -34 34 -36 -37 -38 -39 52 40 -42 42 -44 44 45 -47 -48 -49 -50 -51 -52 -53 53 54 -56 72 57 -59 59 -61 61 62 -64 -65 -66 -67 67 -69 69 -71 -72 -73 -74 -75
leaf_value=-0.0093600279772426756 -0.0049759849602655391 -0.014437545260554749 -0.021158016953346306 0.01059752876484212 -0.013241860220784264 -0.0078639857148905638 0.0013606533226010787 0.033526212475457409 -0.01530106229561975 0.014387212145015375 -0.0055095660522916827 -0.027260593708579195 0.052871414163015065 -0.03339614819298091 -0.02203912412800952 0.028854797856339737 -0.0023254305381515505 -0.0143640243760333 0.014206118399604168 0.013845423287977096 -0.0057184437639729744 0.03189180168876736 0.017848631096462463 -0.024876384564282206 0.0045910634972671687 -0.024708916478294828 -0.011002841220412993 -0.010114724260966282 0.035892999073592703 0.00072625697724194166 -0.029955072499270166 -0.015328505576218935 -0.017767568855735046 0.01628337176364 -0.0092656985869103963 0.0049397690686363675 0.0092108575722267601 -0.030277716496603758 0.0010695677882022493 -0.032962018404126429 0.0022071736768084146 0.022236942162617124 -0.010271126894080674 0.026630522070100051 -0.012613081026652524 0.019410272945527666 0.0028757811004872774 -0.031533179982398858 -0.018596615539829071 0.016615602506565529 -0.00015774100523990362 -0.0096458275462758831 0.03623898334929191 0.022147275666372656 0.0030574040750012002 0.028271508400520118 0.029746975924713294 -0.0061174090072009749 0.010224023162428052 -0.0071210226063984222 0.041952024265188292 0.028915348590490737 0.0038431047689258808 -0.0079454746970279919 -0.03763718358091174 0.02954129355323909 0.022946068048396016 -0.017487585266833743 0.017898204893447608 -0.0052428317584637622 -0.010998290678991361 0.018641823011707744 0.011865451915736278 -0.0045095813620094228
leaf_weight=27.373116314411163 10.458326846361159 10.440767675638197 17.627943009138107 11.066523492336271 15.900394052267076 16.08813214302063 11.088985264301298 9.4527665972709638 15.047252655029295 12.999761968851088 15.078841239213942 9.0649995803833026 12.302826642990111 11.613624632358549 12.253536224365229 13.094513237476351 12.357412219047548 10.429683566093447 16.742656856775284 255.00854989886284 16.546152830123901 17.566634476184845 47.227835297584534 10.59119066596031 17.108046531677246 10.563238203525541 17.909072011709213 15.326275199651716 13.931510865688322 31.365242630243301 149.08208966255188 30.404478639364243 16.852730423212051 30.566071569919586 13.381942272186278 10.178711265325544 99.735395848751068 13.033538132905958 17.478883534669876 9.4965927898883837 9.919816315174101 16.224019885063175 10.529355973005293 10.628962248563765 13.316164493560793 10.202448219060896 12.995827585458754 14.931517094373701 43.393058359622955 9.0869251191616041 27.093499511480335 10.442553877830504 11.190623700618742 26.625219106674194 21.271959722042084 31.665614545345306 12.186589598655702 13.756967842578886 13.27333492040634 223.43058696389198 9.2401736676692945 14.519648969173433 16.20913702249527 34.234675705432892 11.148844569921492 13.628999769687654 16.772367209196091 11.857558310031889 14.836965054273604 40.285930603742599 63.41759666800499 17.195138394832611 20.442441791296005 36.305911689996719
leaf_count=60 23 23 39 24 35 35 24 20 33 28 33 20 26 26 27 28 27 23 36 549 36 38 102 23 37 23 39 33 30 68 334 67 37 66 29 22 215 29 38 21 22 35 23 23 29 22 28 33 96 20 59 23 24 57 46 68 26 30 29 489 20 31 35 75 25 29 36 26 32 88 139 37 44 79
internal_value=0 -0.38636 0.0725027 -0.016628 0.0609672 0.132726 0.115957 0.173153 0.0280684 -0.192544 0.206463 0.249431 0.269163 0.0887864 -0.0641052 0.0430585 -0.0167998 -0.198155 0.605015 0.23334 0.0563234 0.272985 0.155109 0.115987 0.170264 0.0703002 -0.0752519 0.249706 0.29975 0.220307 -0.543411 -0.168203 -0.0411205 0.0486435 0.170076 -0.204573 0.132734 -0.333475 0.21733 -0.0402289 -0.299883 0.024886 0.188854 0.0728398 0.183398 0.025575 0.318288 -0.328009 -0.256174 0.00120155 -0.139442 -0.572512 0.281831 0.358873 0.273383 0.351461 -0.0112963 0.214587 -0.143774 -0.122968 0.346613 0.435227 0.3138 -0.294424 -0.465937 0.812196 -0.0418598 0.0553635 0.122178 0.0197169 -0.117265 0.0288706 0.436705 -0.181241
internal_weight=0 311.829 1664.27 671.076 416.745 993.191 342.461 775.509 144.805 74.2837 630.705 462.008 442.764 168.697 77.051 65.4374 135.352 141.846 42.6745 400.09 109.961 34.1128 300.99 249.932 194.678 125.462 55.2536 384.002 268.94 78.5931 169.983 41.471 75.848 58.9953 43.948 19.2437 115.062 25.391 91.6455 64.0048 19.4164 44.6624 26.7534 44.5883 34.1476 23.5186 26.0903 77.8412 62.9097 19.5166 39.347 159.525 76.5667 59.0878 47.8972 69.2161 217.682 25.9436 254.332 236.704 51.0579 39.969 30.7288 61.2839 27.0492 25.9318 191.739 83.7528 71.8953 55.1229 107.986 44.5683 52.1081 46.8691
internal_count=4304 692 3612 1462 905 2150 742 1676 315 163 1361 995 953 366 168 142 295 312 91 862 239 74 651 541 421 272 120 827 579 170 380 91 165 128 95 42 248 56 198 140 43 97 58 97 74 51 56 172 139 43 86 357 165 127 103 149 474 56 557 518 110 86 66 135 60 55 418 182 156 120 236 97 112 102
shrinkage=0.05


Tree=9
num_leaves=75
num_cat=0
split_feature=5 4 4 6 1 4 3 4 2 6 0 8 6 1 4 4 5 5 6 4 6 7 2 5 0 4 4 8 6 6 5 0 6 5 3 1 6 4 8 4 4 4 4 5 5 6 5 4 8 1 3 6 2 8 6 6 6 6 4 6 5 5 5 6 1 4 5 0 7 5 8 4 4 6
split_gain=41.4603 7.6805 5.91212 4.36583 4.04665 4.04424 3.30725 2.98203 2.42499 2.39816 2.27513 3.62422 2.19201 2.18605 2.71166 1.90459 2.28203 1.69954 1.58589 6.42024 3.86646 3.77954 3.88757 3.30857 3.28141 3.14321 2.8904 2.51714 2.44899 2.31925 2.18551 1.96546 1.51138 1.99559 1.47334 3.36596 2.94221 2.66839 2.36034 2.26631 3.68481 1.8999 1.4411 1.3477 2.67967 1.34088 1.73652 2.01309 1.30117 1.24879 1.16648 3.30808 2.14816 1.71836 1.67126 1.10523 1.05327 2.67827 3.24646 1.80999 2.19856 1.37956 2.21351 0.925793 0.777048 0.764817 0.753512 0.713695 0.66717 0.617697 0.607035 0.57682 0.908762 0.501269
threshold=84598480.866431385 177833.50000000003 610297.50000000012 -1.7467581998474444 109645.00000000001 415006.00000000006 101505.00000000001 25279.500000000004 110655.00000000001 -1.0000000180025095e-35 110965.00000000001 110795.00000000001 -16.601049868766399 103985.00000000001 970035.00000000012 577566.50000000012 41683162.959783874 89078970.972706705 -72.684391080617488 522013.00000000006 -32.413399314807755 107505.00000000001 107855.00000000001 72314662.447643667 103905.00000000001 290926.00000000006 232722.50000000003 108560.00000000001 -22.490310077519378 -76.867335562987719 48028127.910676196 106215.00000000001 -98.206241956241939 8384507.5345636196 104385.00000000001 104835.00000000001 -33.508771929824555 931490.00000000012 107995.00000000001 764343.00000000012 880408.50000000012 1027034.5000000001 242717.00000000003 35082247.023115925 41992934.937606052 -3.6474501108647446 43476377.749365754 720121.50000000012 103675.00000000001 103615.00000000001 110765.00000000001 -71.767001114827181 110365.00000000001 110465.00000000001 -45.368782161234982 -54.494949494949488 -82.807881773399004 -46.126568466993994 351847.00000000006 -6.3660925363053016 87070472.883450478 87656652.722785026 86589047.803426042 -43.036099137931025 105185.00000000001 676484.00000000012 1700579.8754988308 111302.50000000001 111312.50000000001 33375605.458962899 110465.00000000001 241032.50000000003 316583.50000000006 -57.052441229656417
decision_type=8 10 10 2 2 10 2 10 2 2 2 2 2 2 10 10 10 8 2 10 2 2 2 10 2 10 10 2 2 2 10 2 2 10 2 2 2 10 2 10 10 10 10 10 8 2 10 10 2 2 2 2 2 2 2 2 2 2 10 2 10 8 10 2 2 10 10 2 2 10 2 10 10 2
left_child=2 8 3 6 12 10 66 64 70 -5 11 56 32 49 45 18 69 63 19 25 21 31 -23 27 -21 26 -9 -22 -25 -27 -26 -20 -4 -34 39 -36 38 -38 -37 43 48 -42 55 65 -45 46 -15 -48 -41 -14 51 52 -7 -53 -52 -12 -3 58 61 71 -61 62 -58 -13 -8 -35 -1 -57 -44 -17 -2 -59 -73 -10
right_child=1 5 4 9 -6 50 7 15 73 -11 42 17 13 14 -16 16 -18 -19 20 24 23 22 -24 28 30 29 -28 -29 -30 -31 -32 -33 33 34 35 36 37 -39 -40 40 41 -43 68 44 -46 -47 47 -49 -50 -51 54 53 -54 -55 -56 67 57 59 -60 60 -62 -63 -64 -65 -66 -67 -68 -69 -70 -71 -72 72 -74 -75
leaf_value=-0.0081490255814847899 -0.021415674641368204 -0.024913658938469876 -0.013855376931524799 0.037074289053834301 0.035608652486991542 -0.0053098773970403999 0.011573941116016851 -0.0015343005730963193 -0.023541024385906818 0.0076382930894617028 -0.029775907038525513 0.025120290517957708 0.013656385128829588 0.045823015035131247 -0.0042408145910042437 -0.0040497826959910886 -0.019062600165384337 -0.011314797347890026 0.0089783454305637622 -0.0053134537220569482 -0.00095314045193718375 -0.031324814084070014 0.0021929128532670642 -0.0037520176047991325 0.00951939544640199 -0.0066423042779488115 0.020883743540633201 -0.026494283886756155 0.020834506201513336 -0.027114286479796901 0.041148479920026584 0.023191819144342544 0.027345982106514823 0.0028233270310600925 -0.023230448496241021 0.0044771681297183525 0.0012894601768246637 -0.031020148738129201 0.020384672304307547 0.023126948621119307 -0.0071494350060348922 0.017451954910129627 -0.034988717976388729 0.029077201952617749 -0.0022804627987111944 0.010503983534993671 0.036520694328693308 0.0080948573239376775 0.048242238591136376 -0.013114188960674704 -0.0048604050969748222 -0.0026733351477415679 0.027288756002288424 -0.026041083206228957 0.024030135066832561 -0.0032858407479596377 -0.01544174798859564 -0.013484480388944424 0.02533111565002092 0.015218803029427476 -0.019992984384264847 -0.022887254232037052 0.016800816984256929 0.0033957796300809712 0.032142880268580802 -0.016713802019654746 -0.024152868660438372 -0.020344163804418797 -0.018382660443466911 0.012200494202551256 -0.0052719024759571185 -0.02991876290306 -0.016377476310094657 -0.033248389953722556
leaf_weight=18.088129073381428 10.495292127132418 18.162538707256317 8.9603123068809492 13.221067100763321 14.148129701614378 9.5485988855361956 9.0415820181369799 67.976647853851318 17.515981674194336 14.516606420278549 9.0831780433654767 9.6459425389766711 8.8332021236419695 11.851518005132673 9.1787073910236341 13.838342696428301 23.704028099775314 9.9243237078189868 211.60097005963326 9.5550392568111402 325.02916300296783 9.8861895203590375 69.244984418153763 15.186522632837294 8.6666639149189013 120.02583527565002 18.235180377960205 9.9414792656898481 30.407777816057205 15.637022495269774 14.7685010433197 27.481085032224655 11.559333354234694 10.053646951913835 11.233689188957213 91.751512497663498 19.836564600467685 9.4274302721023542 31.265300750732422 11.536756426095964 13.243752866983412 19.261913001537323 19.576574176549915 11.198287993669508 17.397168308496479 11.497722506523131 12.694936752319338 12.227483808994291 9.3256647288799268 8.5950518250465375 9.4836170971393603 16.310061603784565 10.735619306564329 15.198054820299147 10.601766735315321 16.687415182590488 12.240598827600484 19.953717529773712 8.8000271320343 8.6735993027687091 9.067351967096327 11.435555219650263 9.4192036688327772 9.9757509827613813 9.3293308317661268 9.9837611913681013 12.395054161548613 9.6935060620307905 8.7527101337909681 10.127514988183973 13.079909741878508 26.333519577980042 23.399445414543152 55.233971893787384
leaf_count=43 25 43 21 29 31 22 20 156 43 33 22 22 20 26 21 32 56 23 485 22 750 23 159 35 20 277 42 23 70 36 34 63 26 23 26 210 46 22 71 26 30 44 48 25 40 26 28 28 21 20 22 38 24 36 24 39 29 47 20 20 21 27 22 23 21 23 29 23 21 23 31 63 56 135
internal_value=0 -0.281004 0.0794095 0.041782 0.187549 -0.20495 0.031439 0.0411419 -0.5279 0.433377 -0.26708 -0.208733 0.166983 0.319301 0.41341 0.0338169 -0.161251 0.110941 0.0435678 -0.0239562 0.0681958 0.149543 -0.0398919 0.000176586 0.38765 -0.0851573 0.0641495 -0.0342233 0.252905 -0.18004 0.589032 0.212242 0.127109 0.140181 0.122473 0.0636389 0.102608 -0.182382 0.170403 0.216789 0.359081 0.148573 -0.428996 0.0606419 0.199991 0.508146 0.601339 0.451487 0.687074 0.00908006 0.00321418 -0.0761179 0.238865 -0.278897 0.207781 -0.294663 -0.272774 -0.241104 -0.033216 -0.340725 -0.0555569 -0.176759 -0.0284083 0.281509 0.44039 -0.138223 -0.29313 -0.191076 -0.597161 0.0563455 -0.249177 -0.413323 -0.470951 -0.618223
internal_weight=0 409.028 1452.97 1077.9 375.062 312.703 1050.17 1019.68 96.3252 27.7377 240.825 177.032 360.914 74.8786 57.4504 1001.31 47.6699 29.546 953.643 254.865 698.778 318.213 79.1312 380.565 32.9902 221.875 86.2118 334.971 45.5943 135.663 23.4352 239.082 286.035 277.075 265.515 163.514 152.281 29.264 123.017 102.001 53.3681 32.5057 63.7934 48.6329 28.5955 48.2717 36.7739 24.9224 20.8624 17.4283 71.8777 51.7923 20.2842 31.5081 20.0854 35.4641 147.486 129.323 41.8954 87.4276 17.741 33.0954 21.6598 19.6217 18.3709 20.0374 30.4832 26.3809 28.3293 23.9659 23.5752 69.6867 49.733 72.75
internal_count=4304 969 3335 2481 854 735 2419 2347 234 62 569 416 823 169 129 2306 111 68 2195 587 1608 730 182 878 76 511 198 773 105 313 54 548 654 633 607 375 349 68 281 232 121 74 153 111 65 108 82 56 47 40 166 120 46 74 46 84 348 305 98 207 41 78 51 45 41 46 72 62 69 55 56 166 119 178
shrinkage=0.05


Tree=10
num_leaves=75
num_cat=0
split_feature=2 4 3 4 4 5 5 4 5 7 5 1 6 5 6 8 3 8 7 4 0 8 6 8 2 6 3 6 8 6 8 0 4 0 5 2 4 1 4 4 4 6 6 3 6 2 5 8 7 4 7 4 5 3 3 4 6 5 6 7 6 6 4 5 0 0 8 5 2 7 6 5 5 2
split_gain=165.579 19.8636 14.084 7.19369 6.87959 6.3979 14.0097 6.25394 5.74762 5.25818 4.61681 3.778 3.54259 3.58181 3.54224 2.79861 2.76724 2.61246 2.55929 2.47683 2.21313 5.09595 2.18734 2.86317 2.15499 2.13252 2.12241 2.22844 2.09114 2.07973 2.18443 1.98981 1.98752 1.95703 1.87688 1.85675 2.19994 1.83632 2.60672 1.70191 1.66302 1.63715 1.63047 1.59415 1.58579 2.81355 1.7655 1.56054 1.44202 1.41124 1.35844 1.35687 1.89497 1.33656 2.62519 2.09213 1.63147 2.52881 1.27673 2.50439 1.65951 1.25163 1.24165 2.84705 1.19836 1.13026 1.24821 1.44108 1.07092 1.50373 1.46375 0.963506 2.90805 2.37169
threshold=110495.00000000001 177833.50000000003 110195.00000000001 338169.00000000006 310250.00000000006 43476377.749365754 70225470.125646964 526982.50000000012 87830607.701678395 102555.00000000001 199168.05605627716 110665.00000000001 -8.2650273224043698 4021847.722806335 -96.756661991584835 111152.50000000001 103425.00000000001 110565.00000000001 110465.00000000001 42975.500000000007 110965.00000000001 110745.00000000001 -74.862637362637358 103635.00000000001 110465.00000000001 -40.089285714285708 103365.00000000001 -80.413469735720369 110425.00000000001 -10.495716034271725 108895.00000000001 102625.00000000001 1101613.0000000002 110685.00000000001 89078970.972706705 110265.00000000001 412519.50000000006 110385.00000000001 302238.00000000006 245337.50000000003 236485.00000000003 -42.715700141442703 -44.801852804940808 103715.00000000001 -10.312600708991297 106535.00000000001 49023376.021223985 111182.50000000001 111342.50000000001 728911.00000000012 105215.00000000001 434691.50000000006 75329972.720598593 101595.00000000001 102405.00000000001 307167.50000000006 -74.322344322344307 1820972.1886098336 -43.036099137931025 106195.00000000001 -13.536417773705908 -47.493734335839598 524691.50000000012 1264243.3536850347 110425.00000000001 101505.00000000001 101465.00000000001 1472349.5375830398 107365.00000000001 108965.00000000001 -68.588039867109629 35516628.523594648 28385328.309852093 106055.00000000001
decision_type=2 10 2 10 10 10 10 10 10 2 8 2 2 10 2 2 2 2 2 10 2 2 2 2 2 2 2 2 2 2 2 2 10 2 10 2 10 2 10 10 10 2 2 2 2 2 10 2 2 10 2 10 10 2 2 10 2 10 2 2 2 2 10 10 2 2 2 10 2 2 2 10 10 2
left_child=2 -2 5 24 20 9 14 29 11 53 19 17 22 -14 -7 34 -16 -6 28 41 21 33 23 26 37 -23 27 -12 35 30 -8 -24 39 40 -10 -5 -37 -4 64 -18 -3 -11 51 -25 46 -46 -41 -22 -49 71 -21 52 -32 65 55 56 -55 -58 59 -33 -60 -13 63 -56 -39 66 67 -1 -9 70 -70 72 -15 -73
right_child=1 4 3 18 8 6 7 68 15 10 12 61 13 49 16 -17 32 -19 -20 50 47 25 31 43 -26 -27 -28 -29 -30 -31 42 58 -34 -35 -36 36 -38 38 -40 44 -42 -43 -44 -45 45 -47 -48 48 -50 -51 -52 -53 -54 54 62 -57 57 -59 60 -61 -62 -63 -64 -65 -66 -67 -68 -69 69 -71 -72 73 -74 -75
leaf_value=0.022291387090746739 0.051615525511487396 0.044439384338717948 0.010530976859745994 0.010394802393527429 -0.00021581128096821072 0.027225346548206561 0.0049972364487732585 -0.035393686429101949 0.0072219725578380597 -0.022743070537939711 -0.010800970155284417 -0.019949762375965557 -0.035661293168440425 -0.0023475838908837377 0.026044178220879479 0.045959145129688024 -0.015502354832527602 0.036567622608286381 -0.024699343814116703 0.002701869337354361 0.0498284429761904 -0.0051639314857011313 -0.035822543350796508 -0.036225588137940266 -0.0043340962472830707 0.021450532688380489 0.017613575051117863 0.012063983902302795 0.022001699272090669 0.016680125750744353 -0.016198681924561878 -0.016332064239920809 -0.01612071947085179 0.057961272021072853 0.032005842341788687 0.0038643577067581456 -0.028292981590655183 0.028398427047479347 0.050954213089217576 0.0067471896611325625 0.021439953364486147 0.002900828640784333 -0.022839730982908278 -0.01365064731872042 0.024057314289138931 -0.0021733442447328818 -0.0023483316914662371 0.024483366370549126 0.044803099541536232 -0.018904996080032859 0.025877240773150664 -0.019829677063187241 0.012338293329943 0.0073053502730813904 0.018863623947914493 -0.031576685407404825 -0.036289396142034323 -0.00012663925675937665 -0.011884166230365995 -0.031571490506944487 -0.021864172230995106 0.0013750259212950275 0.017059357374667357 -0.015885122803943687 0.0091469384019737792 0.016810395118136406 -0.01374485274430509 -0.0034763323049297641 2.661772548804267e-05 -0.028172940081153109 -0.021766779988626854 -0.030157215132591165 0.024140778478095364 0.0019004972049412488
leaf_weight=9.0716055631637591 97.535495847463608 14.330305010080339 23.755887776613235 12.678005456924437 9.3444315791130084 13.679530262947081 22.677653342485428 17.420877367258072 16.609143942594532 11.411755353212358 52.346361368894577 14.787034958601 8.8003372550010663 52.021919131278992 10.877086311578749 13.457904905080794 14.259191691875456 9.9851432144641858 12.545176446437834 13.725326955318453 21.647934108972549 12.39961898326874 13.068203717470167 8.5391409099102003 8.951210677623747 19.151623964309692 10.967284470796583 13.379920810461043 9.2692304551601392 9.2630046606063825 9.8952879905700701 131.28819718956947 17.223918408155441 9.2496938407421094 14.14451166987419 9.7164812982082385 11.750230640172957 22.366399168968201 9.5137846171855909 79.695947408676147 17.406537264585495 13.690655469894407 25.489461213350296 92.876461148262024 21.025287300348282 19.897531718015671 161.40392300486565 21.217090666294098 14.836794346570967 11.538423150777815 11.724244832992552 12.326244622468947 14.116176068782805 12.348884433507914 9.7640492320060748 11.788686603307722 8.5672242939472252 11.094888001680372 211.14659005403519 33.925400704145432 51.891110092401505 12.869573861360548 12.845509648323057 14.87447541952133 12.658340662717817 14.701147973537443 10.868948072195051 13.50166481733322 12.209247738122938 39.52753609418869 20.883259385824203 8.4963645339012164 12.938872545957564 17.97586053609848
leaf_count=20 206 31 53 29 21 30 52 42 37 27 121 34 21 119 24 29 33 22 29 31 46 28 31 20 20 42 25 31 21 21 23 308 40 20 31 22 27 49 21 181 38 31 59 217 47 45 368 46 32 27 26 29 32 28 22 28 20 26 493 80 121 29 29 35 28 33 25 31 28 94 49 20 29 41
internal_value=0 0.656303 -0.13415 0.17688 0.490685 -0.163061 -0.0747715 -0.296974 0.280048 -0.213628 -0.244537 0.0365275 -0.264744 -0.100884 0.0460426 0.538851 0.0250219 0.375711 -0.096154 0.0477335 0.63818 0.521916 -0.294311 -0.200772 0.374675 0.219821 -0.0549729 -0.122927 0.0188064 -0.11622 -0.165527 -0.332062 0.00781794 0.754467 0.372416 -0.0955438 -0.274752 0.435144 0.554901 0.0270155 0.6365 -0.175142 -0.2629 -0.311029 0.0440576 0.226068 0.0131641 0.784337 0.656906 -0.0485511 0.267568 -0.126891 0.0115602 -0.0269307 -0.105138 -0.27139 -0.13876 -0.317671 -0.320332 -0.389227 -0.27706 -0.200532 0.0891252 -0.0422895 0.428814 0.105112 0.00352268 0.137581 -0.485209 -0.431794 -0.274525 -0.00696356 0.0585672 -0.167771
internal_weight=0 318.973 1566.26 133.205 221.437 1433.05 521.871 183.809 91.1977 911.18 781.752 46.9862 731.2 111.772 338.062 44.2116 324.383 19.3296 55.9591 50.552 130.24 72.5378 619.429 178.109 77.2456 31.5512 76.6936 65.7263 43.4139 93.7678 84.5048 441.32 313.506 40.9865 30.7537 34.1447 21.4667 68.2944 44.5385 296.282 31.7368 25.1024 61.8272 101.416 282.023 40.9228 241.1 57.7018 36.0539 102.971 25.4496 36.3377 24.0115 129.427 81.2837 43.7997 32.011 19.6621 428.251 165.214 263.038 27.6566 37.484 24.6385 35.0247 48.1434 33.4422 22.5733 90.0409 72.62 33.0925 91.433 64.9608 26.4722
internal_count=4304 692 3612 299 486 3313 1197 429 203 2116 1819 106 1704 257 768 97 738 43 128 115 283 159 1447 414 171 70 177 152 99 216 195 1033 714 89 68 78 49 151 98 674 69 58 143 237 641 92 549 124 78 236 57 84 55 297 188 102 74 46 1002 388 614 63 86 57 77 109 76 51 213 171 77 209 148 61
shrinkage=0.05


Tree=11
num_leaves=75
num_cat=0
split_feature=2 4 5 3 6 4 4 6 5 4 6 1 2 5 6 5 2 0 0 5 5 7 4 5 6 8 6 8 4 3 5 5 6 5 7 8 4 4 7 3 4 4 1 6 6 6 5 1 4 0 2 6 4 0 6 6 4 0 5 8 6 6 6 5 1 4 6 4 8 8 7 5 6 3
split_gain=51.4885 8.78066 8.27137 6.18721 5.43809 5.33413 3.55758 3.45478 3.828 3.40578 2.96977 2.91223 5.57771 4.36776 2.96641 2.76151 2.51275 4.28086 2.4704 4.30239 2.58091 2.24503 2.18812 2.17794 4.53049 2.1617 2.1293 2.11413 2.06914 2.03519 2.41107 2.25147 2.03391 1.9098 1.71154 2.01411 1.60705 2.75507 2.15902 1.56829 1.55527 1.48757 1.41084 1.44312 1.87607 1.39069 1.38695 3.12148 1.36431 1.51809 1.35204 1.32734 2.17527 2.37059 2.97074 1.5545 3.11667 1.29129 1.27872 2.37478 1.21526 4.54602 2.26767 3.25522 1.71582 1.20195 1.18588 1.18428 1.16738 2.52834 1.37711 1.25485 1.15981 1.13152
threshold=110495.00000000001 249308.50000000003 45259044.399359487 106945.00000000001 -12.403846153846152 184585.00000000003 242717.00000000003 -11.0673665791776 3623442.4077645694 720121.50000000012 -2.1054964539007091 108135.00000000001 107215.00000000001 32522189.194833703 -13.536417773705908 87830607.701678395 106035.00000000001 105925.00000000001 103755.00000000001 33375605.458962899 34440995.965091236 107835.00000000001 605353.50000000012 35764254.71052397 -6.3660925363053016 103155.00000000001 -81.782106782106766 108115.00000000001 163088.00000000003 106195.00000000001 7930645.5520506995 33375605.458962899 -31.986394557823125 21143437.455984648 110485.00000000001 110375.00000000001 610297.50000000012 454955.00000000006 108965.00000000001 111482.50000000001 452234.50000000006 299200.00000000006 103805.00000000001 -5.5946791862284808 -79.289318755256502 -49.814814814814802 3868213.2846894665 103405.00000000001 357216.00000000006 110365.00000000001 106595.00000000001 -52.88568257491675 147740.50000000003 104435.00000000001 -14.946808510638297 -82.807881773399004 114130.50000000001 106395.00000000001 775328.26485454151 102485.00000000001 -25.137362637362632 -46.966911764705877 -16.767068273092367 49774757.10365095 106505.00000000001 363754.00000000006 -81.782106782106766 441902.00000000006 102895.00000000001 104615.00000000001 102525.00000000001 1415941.9898695897 -91.458966565349527 110655.00000000001
decision_type=2 10 10 2 2 8 10 2 10 10 2 2 2 10 2 10 2 2 2 10 10 2 10 10 2 2 2 2 10 2 10 10 2 10 2 2 10 10 2 2 10 10 2 2 2 2 10 2 10 2 2 2 10 2 2 2 10 2 10 2 2 2 2 10 2 10 2 10 2 2 2 10 2 2
left_child=2 26 5 42 6 46 28 11 -9 48 23 12 13 14 16 32 17 -7 20 -20 -15 -14 -21 29 -25 -22 -2 -8 -5 30 -10 -32 40 -12 35 36 37 -29 -38 -28 65 -34 -4 44 66 -23 51 -48 49 -6 60 55 53 58 -55 56 72 -18 -53 -60 61 64 -62 -64 -46 73 -44 -50 70 -70 71 -57 -1 -3
right_child=1 15 3 4 9 7 27 8 10 -11 33 -13 21 18 -16 -17 57 -19 19 22 25 45 -24 24 -26 -27 39 34 -30 -31 31 -33 41 -35 -36 -37 38 -39 -40 -41 -42 -43 43 -45 50 -47 47 -49 67 -51 -52 52 -54 54 -56 68 -58 -59 59 -61 62 -63 63 -65 -66 -67 -68 -69 69 -71 -72 -73 -74 -75
leaf_value=-0.018394104924685167 -0.0045825786184537929 0.015696001746896355 -0.020674054772217065 0.010292034346327203 -0.012859658733815262 0.012008991486641116 0.015854469548308558 0.031926116052213425 -0.014967537286080981 0.013800373403467804 -0.0022336141423460556 -0.0073537476397169512 0.043169821475428624 0.0088454052301311422 0.034249559835425027 -0.016568318520440647 -0.0072527614832902185 0.037068935748307073 -0.023270742949457572 0.018452109274868379 -0.018089192596196391 0.0076774795232284884 0.0034065421065467057 -0.0056379286763802525 0.030751865454270711 -0.0003561354397892051 -0.029267048977105466 0.0033582153873355325 -0.014950121091259719 -0.017381314151078367 0.015700692017946587 -0.0089113149837105176 -0.027827506891542054 -0.02975399051622345 0.022471913097864726 -0.0068583502211342394 -0.012694508506676257 0.017465080105735439 0.0082946948836011402 -0.0091468427965017713 -0.011204909542453869 -0.0044818467736064743 -0.0089992844004949512 -0.021056344729043958 0.0072169073608049656 0.032422622042300557 0.02858742573078063 -0.0060868019149789288 0.0067919049812552148 -0.037065481696806374 -0.017824546415656336 0.030086438044649708 -0.017192788310620655 0.0058679456610114117 -0.027770549140017725 -1.5212774408692386e-06 0.018077230195951116 0.009393979586939584 0.020923586100424572 -0.0065757546596630625 0.02720366505350108 -0.018334858599297975 -0.022800873876091511 0.016432121842498117 -0.016101661710866525 0.025819007115719855 -0.027890022370493397 -0.013687524128792468 0.0078820929651945548 -0.023396037599435 -0.033064037364847323 -0.022242739449455557 0.0023347948650119846 -0.0082299945776995436
leaf_weight=14.993831545114519 10.403738766908644 10.080504268407827 17.480883061885834 11.099554300308226 15.810541510581972 264.86244085431099 60.202626347541809 9.5568819344043714 14.972519248723982 13.068843483924864 12.342537790536882 23.535408228635788 16.096644818782806 41.332052975893021 15.474841982126234 70.409796088933945 23.24088791012764 18.213508367538452 9.2803135812282544 59.263705044984818 26.825012296438217 12.619067311286928 40.803346872329712 16.528452605009079 17.725990802049637 47.826139032840729 146.77480247616768 86.870411187410355 30.228676557540894 16.750470280647278 30.727714478969574 13.320058256387709 10.223649919033052 12.885333269834517 13.812639892101286 34.105970054864883 22.934218794107437 57.53306257724762 26.304272204637527 10.369257360696791 10.936526715755461 20.51689875125885 64.553140997886658 14.823106437921522 61.656936913728714 10.322571396827696 12.293165862560274 13.750977098941801 9.9762054681777936 10.97268772125244 11.9111250936985 9.315494775772093 11.804190099239348 21.162712603807453 9.5141699612140638 13.102010637521746 17.279618203639984 23.357082396745682 18.162108033895496 13.82851320505142 10.577648520469667 32.603624135255814 9.5577254295349139 11.832570880651472 9.0461553931236249 9.2304977774620038 9.5348675549030286 24.143188953399658 18.270295619964603 9.9956842660903913 9.5215511023998243 12.291229754686354 12.270283758640288 9.6932975649833661
leaf_count=33 23 22 39 24 35 568 129 20 33 28 27 51 34 89 33 157 50 39 20 127 59 27 88 36 38 104 334 188 67 37 66 29 23 29 30 74 50 123 57 23 24 45 142 33 134 22 26 30 22 25 26 20 26 46 21 29 37 50 39 30 23 72 21 26 20 20 21 53 40 22 21 27 27 21
internal_value=0 -0.375 0.0696668 -0.0161755 0.0587203 0.127501 0.111741 0.166215 0.0268734 -0.1872 -0.0163453 0.198089 0.211417 0.186392 0.257092 -0.191195 0.237006 0.272428 0.0780988 0.185936 -0.0235684 0.577104 0.246343 0.0546095 0.263861 -0.134566 -0.529782 0.149426 -0.163416 -0.039989 0.0473212 0.16516 -0.0515624 -0.325797 0.10764 0.0869106 0.126377 0.179573 -0.0296324 -0.558788 0.0972575 -0.244922 -0.139358 -0.119061 -0.0988258 0.376231 -0.0109176 0.205597 -0.286598 -0.455528 -0.0334976 -0.040362 0.0540356 0.119284 -0.0912949 -0.113784 0.0292827 0.0218273 0.275675 0.18073 -0.00505756 -0.057783 0.165328 -0.0219635 0.0846679 0.21843 -0.228609 -0.15399 -0.214648 -0.0635755 -0.336953 -0.215341 -0.1813 0.0793452
internal_weight=0 308.639 1666.06 670.641 417.063 995.419 343.091 777.863 144.81 73.9715 135.253 633.053 609.518 570.479 345.149 141.091 329.674 283.076 225.331 109.347 115.983 39.0383 100.067 110.025 34.2544 74.6512 167.548 301.763 41.3282 75.7708 59.0203 44.0478 70.6814 25.2279 241.561 227.748 193.642 144.403 49.2385 157.144 39.9408 30.7405 253.578 236.097 221.274 22.9416 217.556 26.0441 60.9026 26.7832 147.186 191.512 83.7872 71.983 30.6769 107.725 44.5437 46.598 41.3061 31.9906 135.275 103.307 31.9679 21.3903 70.7031 29.0043 74.088 34.1194 63.1808 28.266 34.9148 25.3932 27.2641 19.7738
internal_count=4304 692 3612 1462 905 2150 742 1676 315 163 295 1361 1310 1227 740 312 707 607 487 235 252 83 215 239 74 163 380 651 91 165 128 95 155 56 522 492 418 311 107 357 87 68 557 518 485 49 474 56 135 60 322 418 182 156 67 236 97 100 89 69 296 226 70 47 154 63 163 75 139 62 77 56 60 43
shrinkage=0.05


Tree=12
num_leaves=75
num_cat=0
split_feature=5 4 4 6 4 1 3 4 2 6 0 2 6 1 4 7 4 5 5 4 6 6 6 6 4 6 6 3 5 5 5 2 6 3 5 4 5 3 4 4 5 6 5 6 5 4 0 2 3 6 2 8 6 6 6 4 5 5 4 0 5 6 7 2 5 5 6 4 6 5 5 3 0 5
split_gain=38.7704 7.30767 5.4698 4.03523 3.81574 3.73579 3.11904 2.73814 2.37522 2.20943 2.16421 3.43578 2.04859 2.0691 2.56272 1.8537 1.79319 2.17828 1.52938 2.35248 1.98978 1.47449 1.45358 2.18589 3.517 1.47744 1.41607 1.94363 2.73117 2.92863 1.57761 3.06836 3.15 3.22265 2.38622 3.23221 4.52727 2.01577 1.79527 1.41094 1.39521 1.35023 2.64683 1.24139 1.59717 1.85897 1.22491 1.19448 1.12318 3.14583 1.99609 1.65053 1.5657 1.06995 1.02365 0.976104 0.912656 0.805922 0.797762 0.746591 1.33005 0.73608 0.688867 0.659949 0.612441 0.578023 0.538334 0.512922 0.510243 0.156183 0.122155 0.186859 0.110355 0.0781037
threshold=84598480.866431385 177833.50000000003 610297.50000000012 -1.7467581998474444 415006.00000000006 109645.00000000001 101505.00000000001 37752.000000000007 110655.00000000001 -1.0000000180025095e-35 110965.00000000001 110775.00000000001 -16.601049868766399 103985.00000000001 970035.00000000012 110895.00000000001 577566.50000000012 41683162.959783874 170551.51845768301 114130.50000000001 -92.805383022774308 -91.036357734134057 -6.3660925363053016 -37.617924528301877 357216.00000000006 -64.031249999999986 -98.206241956241939 103185.00000000001 34858055.660613038 33595355.388765357 50490448.193018459 105865.00000000001 -33.508771929824555 107085.00000000001 38823962.263591357 1060389.0000000002 37136024.157145508 104025.00000000001 764343.00000000012 242717.00000000003 86589047.803426042 -21.010186757215617 748184.07117868017 -3.6474501108647446 43476377.749365754 720121.50000000012 105155.00000000001 103395.00000000001 110765.00000000001 -71.767001114827181 110365.00000000001 110465.00000000001 -45.368782161234982 -54.494949494949488 -58.776844070961708 274708.50000000006 14467.000000000002 87656652.722785026 299200.00000000006 101445.00000000001 1472349.5375830398 -52.570711075865709 111307.50000000001 111292.50000000001 89465370.956634924 33375605.458962899 -24.828767123287665 85976.500000000015 -22.173058013765974 49774757.10365095 88939163.047291502 110955.00000000001 111065.00000000001 86295301.191609278
decision_type=8 10 10 2 10 2 2 10 2 2 2 2 2 2 10 2 10 10 10 10 2 2 2 2 10 2 2 2 10 10 10 2 2 2 10 10 8 2 10 10 8 2 10 2 10 10 2 2 2 2 2 2 2 2 2 10 10 10 10 2 8 2 2 2 8 10 2 10 2 8 10 2 2 10
left_child=2 8 3 6 10 12 59 56 64 -5 11 22 26 47 43 -13 18 65 46 41 58 -22 23 24 25 57 -4 28 29 -28 34 38 33 -33 35 36 -29 61 -32 53 -27 42 -20 44 -15 -46 -9 -14 49 50 -6 -51 -50 -12 -39 68 -8 -3 -21 60 -1 -36 -55 -41 -2 -18 -57 -10 -25 -19 -69 -72 -73 -68
right_child=1 4 5 9 48 -7 7 16 67 -11 39 15 13 14 -16 -17 17 69 19 20 21 -23 -24 55 -26 40 27 30 -30 -31 31 32 -34 -35 37 -37 -38 54 -40 63 -42 -43 -44 -45 45 -47 -48 -49 52 51 -52 -53 -54 62 -56 66 -58 -59 -60 -61 -62 -63 -64 -65 -66 -67 73 70 -70 -71 71 72 -74 -75
leaf_value=-0.023644611411287729 -0.0047299490222456123 -0.0167680253556237 -0.013530832294696841 0.035414774167216993 -0.0051524004479012305 0.034056997808344917 0.0057736725253823553 0.00047889076631405333 -0.019920513845718468 0.0072881079635567052 -0.029243122994201495 0.01856043090300313 0.013129878402710194 0.043926461328077135 -0.0043057234178882371 -0.0071861423514535021 -0.0039637301956196459 -0.024015897826259736 0.0026292858515538542 0.0019210446973685477 0.018694107789607398 0.0020332223709995127 0.0010699424321384803 -0.021282870121164331 0.015209426629625673 -0.020629017962282239 0.025658836688878996 0.0067337438857980811 0.041077292373310037 -0.0095248555143996379 0.0075481746997852752 -0.016497299196670756 -0.018920438564101451 0.015212179287996862 0.00050984004892087517 -0.01762146962212106 0.043290426058316685 -0.019885521278747986 0.035694578961768905 -0.034529346842877694 0.0026530567791762097 -0.0010357170836525844 0.025500611622351812 0.010165330341559331 0.035055748823495651 0.0078425784919769637 -0.022394926794816538 -0.013026183672282128 -0.0046533301228109921 -0.0026761059453174075 0.026218242607562781 -0.02564333377058339 0.023285523665881502 -0.0030362473091907725 -0.0047399399844776247 -0.019472895641885424 0.025696523371323554 -0.03497872711813025 -0.010971795081877121 -0.025491834176813045 0.0022536716019595925 0.018417217083451318 -0.019868553564906494 -0.017893945930290305 -0.021023575564962066 0.011736114528392972 -0.028781638185251531 -0.034460988145266824 -0.0073398016065076011 -0.015582732442930892 -0.03446643191634835 -0.022345880780664639 -0.030065443807747734 -0.035059550425290763
